-0.076102, 0.613828, -0.0942544, -0.250216, 0.870111, -0.107815, 1.02318, -0.00161716, 0.455613, -0.131965, 0.757085, 0.0836883, -0.139369, -0.0725651, 1.30874, -0.239109, -0.198865, 0.264085, 0.225094, 0.14061, 0.06459, 0.262877, -0.826459, 0.00813629, 0.401126, -0.0551089, -0.574934, 0.109736, -0.183367, -0.271434, 0.204555, 0.291239, -0.381452, -0.0316533, -0.23194, 0.128517, 0.542005, -0.0337145, -0.208578, -0.417105, -0.158452, 0.120304, -0.0819408, 0.116041, -0.581087, -0.236263, 0.0873083, -0.0513087, 0.14606, -0.232392, -0.278391, 0.0579261, 0.286972, 0.33939, 0.0149115, 0.0309784, -0.494611, 0.276156, -0.191187, -0.718012, -0.0704993, -0.586419, 0.186941, -0.13857, 0.448153, 0.358051, 0.507086, 0.237907, 0.274864, 0.139999, -0.218022, -0.19432, 0.00868515, -0.259529, -0.0695793, 0.0716012, 0.0280641, 0.204716, 0.215565, -0.561819, 0.458042, 0.0554212, 0.0504179, 0.201838, -0.357508, -0.132565, -0.729908, 0.821281, 0.26647, 0.132293, 0.106669, -1.16247, 0.40926, -0.716682, -0.216572, 0.386621, 0.195476, 0.023527, 0.0390577, 0.0811155, 0.663737, -0.789016, -0.245378, -0.0718739, 0.775906, -0.391639, -0.0584536, 0.307302, -0.120339, -0.0960727, -0.348119, -0.167236, 0.03806, 0.39151, -0.213018, 0.647937, -0.645759, 0.151614, 0.168344, -0.0183441, -0.165802, -0.0539452, 0.221878, -0.595052, 0.486657, -0.383008, 0.0492298, -0.728127, -0.0719099, 0.0270926, -0.0144944, -0.302117, 0.161018, -0.120388, 0.045324, -0.609592, -0.00928113, 0.0712273, 0.319936, 0.458962, 0.755832, -1.00866, -0.200292, -0.483377, 0.586514, -0.151205, -0.0510129, 0.43029, -0.0314411, 0.363473, 0.432989, 0.78353, 0.687397, 0.506265, -0.0428654, 0.50786, 0.274196, 0.452626, -0.255228, 0.195573, 0.352725, 0.173726, 0.133404, -0.0788489, -0.0586923, 0.00854699, -0.302808, 0.397633, 0.490075, -0.215519, -0.020132, 0.717474, -0.732019, 0.873736, -0.194912, 0.373115, -0.442338, 0.567563, 0.169377, -0.535268, -0.640034, 0.228759, 0.188181, 0.107588, 0.173426, -0.232403, 0.653242, -0.257538, 0.127836, 0.0734504, 0.421564, -0.399234, -0.197612, -0.140932, -0.221167, -0.351973, -0.190274, -0.390662, 0.475166, 0.274568, -0.0321193, 0.91329, 0.870464, 0.0365109, 0.0806403, -0.291867, 0.242137, -0.0492437, -0.287961, -0.651475, 0.289975, -0.300861, 0.265051, 0.0376794, 0.185599, 0.0966385, -0.203392, -0.112524, 0.183737, -0.153189, -0.218342, -0.223627, 0.293752, 0.575499, 0.0590524, 0.0101646, 0.264082, 0.134467, -0.580825, -0.0229506, -0.369012, 0.172507, -0.106659, 0.701981, -0.209693, 0.386742, 0.514094, -0.0568016, 0.723392, 0.229556, -0.0615694, 1.19748, 0.380535, -0.018716, -0.0461629, 0.421716, 0.186658, 0.214582, -0.186723, -0.330776, -0.067312, -0.246419, -0.464328, 0.50216, -0.415479, -0.213521, 0.0589718, 0.467096, 0.160404, -0.279833, 0.316267, 0.535754, 0.444641, -0.575875, -0.18881, -0.369429, -0.91475, 0.228625, 0.878351, -0.653486, 0.755015, 0.275818, 0.642794, -0.450256, -0.0767465, 0.142257, 0.534479, 0.290682, -0.505084, -0.179233, 0.0676696, -0.846005, 0.68102, -0.0192717, -0.442302, 0.135333, 0.153933, 0.178335, 0.301526, 0.453343, -0.313358, -0.207902, -0.144596, -0.0214544, 0.666033, 0.180134, 0.402717, 0.0791355, -0.302438, -0.160856, -0.215024, 0.224022, -0.0835108, -0.551013, -0.343574, -0.374172, -0.460746, -0.698049, -0.155266, 0.23518, 0.208201, 0.267407, 1.07674, -0.0478575, 0.375143, 0.0406726, 0.281149, 0.430643, 0.846026, 0.157981, 0.806534, -0.0894066, 0.681887, -0.458252, 0.321121, 0.974385, 0.502981, 0.91442, 0.41785, 0.00581074, -0.317663, -0.25498, -0.287947, -0.310693, -0.156277, -0.424637, -0.408604, -0.513559, -0.0507438, 0.098592, 0.0596874, -0.352936, -0.455824, 0.0982852, -0.395269, 0.80352, 0.411445, 0.117236, 0.501532, -0.438178, -0.527697, -0.841037, -0.433805, 0.739346, 1.1174, -1.11056, -0.744874, 0.252604, 0.0302514, 0.682467, -0.939388, -0.216325, -0.402654, -0.43484, 0.444041, -0.212955, -0.0457174, -0.0320762, 0.23421, 0.304961, 0.343041, -0.168969, 0.477189, 0.426629, 0.285402, -0.800234, -0.49664, -0.290406, 0.10744, 0.185671, 0.161282, -0.217089, 0.490578, -0.449468, -0.706816, 0.110935, 0.076742, -0.609332, -0.356191, 0.0462953, -0.323199, 0.000857034, -0.415747, -0.105375, -0.461112, -0.0922583, 0.234266, 0.426686, 0.195567, -0.028202, 0.510969, 0.395122, -0.0598462, 0.42782, 0.207205, 0.227738, 0.710728, 0.515174, 0.183938, -0.260041, 0.464172, -0.253306, 0.470977, 0.310563, 0.211384, 0.651719, 0.137465, -0.284707, -0.195853, 0.171268, -0.0116214, -0.109531, -0.23863, 0.224703, 0.342873, 0.271363, 0.0202138, -0.309557, -0.845535, 0.199968, 0.296715, -1.04189, -0.640247, -0.142954, 0.795538, 0.227878, 0.373362, 0.82831, 0.788255, -0.111356, -0.353337, 0.261642, -0.146533, 0.258088, 0.37732, -0.0106691, 0.261545, 0.434324, -0.377356, -0.0280238, 0.311806, 0.335607, -0.273007, 0.550176, 0.0846815, 0.0968542, -0.092877, 0.0420488, 0.16301, -0.467623, 0.285443, -0.133215, -0.682458, 0.0290374, 0.193117, -0.479404, -0.38235, 0.243134, 0.0654525, -0.0741616, -0.0163273, 0.248109, 0.82924, 0.274367, 0.405066, 0.29264, 0.676598, 0.410516, 0.0756418, -0.0598074, 0.181277, -0.152331, -0.661629, -0.296412, -0.247949, -0.508302, -0.027789, -0.198711, 0.245026, 0.200762, -0.818294, -0.199907, -0.408637, 0.404114, 0.555322, -0.560411, 0.357111, 0.107794, -0.491921, -0.589231, 0.168268, -0.154561, 0.0233443, 0.0934172, 0.0553625, 0.379671, -0.0415142, -0.32253, 0.55055, 0.845177, 0.0370235, -0.037486, -0.195538, 0.0333503, -0.21972, 0.356424, 0.0433579, -0.718459, -0.902305, 0.247818, -0.30446, 0.40092, -0.484692, 0.197854, -0.0204044, -0.21711, -0.1203, -0.200637, 0.685506, -0.441855, -0.271782, 0.995367, -0.549009, 0.20845, -0.265542, -0.0158203, -0.078283, -0.608592, -0.0528633, -0.727644, -1.30107, -0.0268518, 0.49601, 0.425884, -0.495729, -0.421675, 0.539394, 0.271491, 0.549548, 0.0295902, 0.0450655, -0.450325, -0.413446, 0.47657, 0.203435, 0.297262, 0.114533, 0.188812, -0.639227, -0.144746, -0.221219, 0.37923, -0.0616819, -0.211037, 0.000176106, 0.47536, -0.0510096, 0.22287, -0.148139, 0.118018, -0.57377, -0.351474, 0.248103, -0.119042, -0.477308, 0.510674, -0.12857, 0.455361, -0.403065, -0.0802343, -1.2787, -0.14029, -0.611506, -0.0442311, 0.177979, 0.00849241, 0.0386781, -0.0655419, 0.0411641, 0.293596, -0.602629, -0.1275, -0.261891, 0.422224, -0.213277, 0.419242, 0.19236, -0.248701, -0.77201, 0.137238, 0.188013, 0.144273, 0.52585, 0.0850269, 0.195214, 0.472504, -0.648238, -0.762559, -0.0493733, 0.335954, 1.7236, -0.463658, -0.0119836, 0.379796, -0.0198704, -0.0908548, 0.575907, 0.800365, 0.150261, -0.368269, 0.360161, 0.138932, -0.168736, 0.437393, -0.353437, -0.405076, 0.550728, -0.184016, -0.0584524, -0.179135, -0.540649, -0.722715, 0.0301836, 0.0483419, -0.245689, -0.753039, 0.151389, -0.190321, 0.244997, 0.130681, -0.125674, 0.393505, 0.328653, -0.251738, 0.413302, 0.183946, -0.0546717, -0.692061, 0.047484, 0.53344, -0.226699, 0.0745779, -0.43317, -0.629764, -0.569661, -0.321138, -0.0330782, -0.333017, -0.17771, 0.170567, -0.178799, -0.314514, 0.418354, -0.0151847, 0.107015, -0.380535, -0.273751, -0.145185, -0.343222, 0.298633, 0.175005, -0.220704, 0.0558639, -0.146178, -0.352339, -0.234572, 0.546702, 0.0101668, -0.115856, 0.343502, -0.163237, -0.00737123, -0.0921736, 0.0785435, 0.0644831, -0.514281, -0.52633, -0.281268, -0.102705, -0.188362, 0.924155, 0.601922, 0.0179714, -0.558315, 0.582661, -0.968089, -0.223158, 0.433031, 0.535933, 0.354665, -0.399093, -0.355956, -0.481296, 0.581639, 0.402247, 0.283555, 0.25391, 0.115362, 0.217878, 0.188023, -0.0725534, -0.217476, 0.424977, 1.02512, 0.561046, 0.550882, 0.292933, -0.460885, 0.354256, -0.439314, 0.00672321, -0.514124, 0.178735, -0.256646, -0.141924, 0.028377, -0.254591, 0.0396459, -0.327541, -0.898037, -0.564531, 0.851601, 0.964427, -0.413474, -0.215441, -0.0579505, 0.109507, 0.377708, -0.155323, 0.0425921, -0.165973, 0.585989, -0.534339, -0.377243, 0.52699, -0.0639237, 0.183808, 0.519549, 0.395595, 0.964994, 0.250668, -0.342525, -0.0495833, 0.0761858, -0.320555, 0.262092, 0.198418, -0.0740989, -0.425543, 0.0673324, 0.863526, 0.278095, 0.0675754, 0.0279785, 0.114865, -0.15128, 0.193732, 0.656457, 0.158099, 0.873443, 0.0899074, 0.0785095, -0.234983, -0.262102, 0.0511512, 0.0399551, 0.49868, 0.451183, -0.0778078, -0.219193, -0.228348, -1.04917, 0.583033, -0.237816, -0.0021476, -0.578354, 0.223838, -0.27012, -0.710118, 0.0357575, -0.0516459, -0.601887, 0.0358879, 0.20493, -0.796799, -0.233545, 0.00131822, 0.14441, -0.374605, -0.582615, 0.011447, -0.343363, -0.589363, 0.430832, 0.204691, 0.236523, 0.319216, -0.186303, -0.0787393, -0.381192, -0.352192, 0.413055, -0.307434, -0.0283545, -0.278638, 0.300593, -0.647779, 0.0238878, 0.106554, -0.123833, -0.209118, -0.296255, 0.459018, 0.602999, 0.127758, -0.389108, -0.0172365, -0.412894, 0.539168, -0.251545, -0.225202, -0.0455094, -0.464399, -1.04281, 0.397543, -0.0174289, -0.883382, -0.592743, -0.124923, -0.0445927, -0.183771, -0.431776, -0.567375, -0.866253, 0.226747, -0.271353, -0.318058, 0.250432, -0.244036, 0.0497555, -0.416271, -0.433601, -0.226526, 0.338804, -0.00526757, 0.0780878, 0.356283, 0.088742, -0.0865489, 0.182295, 0.647704, 0.12025, -0.848414, -0.40674, 0.12503, 0.624836, -0.622338, 0.353521, 0.529797, 0.333366, 0.0338389, 0.540087, 0.660041, -0.387592, -0.217818, 0.018609, -0.450724, 0.023814, 0.275857, 0.0579148, 0.812505, -0.0175751, -0.252518, 0.174981, -0.0851684, 0.0158635, 0.0617647, -0.161232, -0.126634, 0.389737, 0.398146, -0.336309, 0.127157, -0.00926433, -0.0425765, -0.111627, 0.578511, 0.151149, 0.43896, 0.594662, 0.424172, 0.101876, 0.771606, 0.0265388, 0.340265, 0.154071, -0.049853, 0.123916, 0.174456, 0.0752346, 0.707252, 0.194135, -0.0879324, -0.647784, 0.0988595, 0.0709358, 0.129917, -0.0752511, -0.29158, -0.334722, 0.153094, 0.0105565, 0.0796195, -0.156161, -0.320537, -0.676998, 0.255777, 0.455093, -0.117306, 0.41998, 0.0111036, 0.0297838, 0.253392, 0.45142, 0.104282, 0.0196398, -0.51209, -0.327273, 0.401315, -0.0265457, 0.201989, -0.5774, 0.0677752, -0.0906861, -0.167655, 0.650777, -0.716137, 0.522849, -0.179051, -0.211302, 0.437407, 0.00382578, -0.0257709, -0.176533, 0.290597, 0.184877, 0.608361, 0.00383791, -0.303107, 0.277495, -0.0519968, 0.590534, -0.243377, -0.916686, -0.543942, 0.357638, -0.199753, -0.425537, 0.563527, 0.0958139, 0.395776, 0.41535, 0.05253, -0.108675, 0.178554, 0.053447, 0.236787, 0.120628, 0.369492, -0.0534394, -0.000145598, 0.334973, 0.546305, -0.0173916, 0.0578075, -0.444384, 0.0426738, 0.371354, -0.523782, -0.615285, 0.261365, 1.00674, -0.207915, 0.0408967, 0.392296, -0.102677, -0.135565, 0.402713, -0.165682, -0.351156, 0.298312, 0.327834, -0.118013, 0.608817, 0.413442, -0.00372193, -0.450913, 0.592704, 0.117355, -0.40085, 0.130886, 0.727125, 0.0944373, 0.74068, -0.173415, 0.422333, 0.335331, 0.00237067, -0.0057241, 0.200954, -0.348814, -0.175467, -0.123197, 0.0281462, 0.156618, 0.40291, 0.863181, 0.208094, 0.465977, -0.296853, 0.442533, 0.0700616, 0.0638273, 1.14621, 0.14991, 0.156271, -0.600687, 0.302623, -0.559059, -0.41227, -0.184419, 0.58198, 0.194858, -0.345873, -0.265217, 0.305096, -0.692113, -0.486715, -0.00328518, 0.0915708, -0.318677, -1.18837, 0.463723, -0.424427, 0.258562, -0.615502, 0.390913, 0.31933, 0.303141, 0.528457, 0.201978, 0.242629, 0.454558, 0.123422, -0.096477, -0.419051, 0.507169, -0.799603, 0.274607, -0.210524, 0.139235, -0.00944169, 0.763931, 0.11221, 0.117536, -0.104666, -0.56068, -0.183513, -0.135233, -0.645878, 0.0772585, 0.253289, 0.228035, 0.308695, 0.121792, -0.452058, -0.226151, -0.0586614, 0.748865, 0.0795104, 1.05292, 0.490521, 0.271753, 0.33571, 0.203937, -0.0762892, -0.0815806, 0.294458, 0.397282, -0.23267, 0.292151, 0.0659876, 1.06289, 0.101291, -0.287476, 0.0163305, -0.0541644, -0.298611, -0.287298, -0.323124, 0.0495696, -0.205609, 0.0537793, -0.0965976, -0.783269, -0.157069, 0.0391344, 0.652478, 0.0914215, -0.411245, -0.543411, 0.002357, -0.851366, 0.757572, 0.385606, 0.0423464, 0.259795, 0.349443, -0.433316, 0.0378336, -0.111792, -0.113879, 0.368811, -0.0325594, 0.0473266, -0.532285, 0.0177253, -0.312889, -0.0281686, -0.75041, -0.985248, -0.942599, 0.134686, -0.395359, 0.313291, -0.388354, -0.629248, -0.967447, 0.232526, 0.0181754, -0.591561, 0.385104, -0.229464, -0.611663, -0.487362, -0.112173, -0.068937, 0.447646, -0.054465, -0.0503432, 0.523882, 0.407335, 0.37362, 0.325629, 0.338453, 0.339028, -0.31427, -0.271282, -0.263749, -0.632563, -0.223752, -0.404895, 0.340758, -0.139155, 0.598659, -0.285058, -0.41293, -0.575562, -0.222155, -0.559772, 0.697342, 0.393086, 0.157873, -0.0122482, -0.652608, 0.021236, -0.503638, 0.162477, 0.805966, 0.455829, 0.645144, -1.11508, -0.152944, 0.292136, -0.340823, 0.242788, 0.901573, -0.264179, -0.000233679, -0.244028, -0.0974716, 0.404076, -0.13943, 0.144216, -0.232803, -0.23173, 0.605567, -0.32758, 0.156202, -0.772666, 0.616903, -0.25161, 0.154107, -0.523653, 0.106361, 0.776257, -0.139798, 0.129811, 0.197106, 0.499113, 0.300637, 0.541518, 0.643231, 0.797502, 0.205701, 0.300202, 0.396155, 0.0461241, 0.0655658, -0.422769, 0.292335, 1.03318, 0.37127, 0.0359742, 0.875537, -0.1236, -0.820654, 0.0214845, 0.395181, -0.0828353, 0.194673, -0.0397374, 0.30383, -0.0178552, -0.214131, -0.295922, -0.292731, 0.227938, 0.24517, 0.170179, 0.0924851, -0.156213, -0.0568402, -0.289467, -0.341919, 0.178514, -0.0738361, 0.665276, -0.329004, 0.354319, 0.185746, -0.319474, 0.0817479, 0.32361, -0.0415964, 0.0691815, -0.463843, 0.241074, 0.195356, -0.247799, -0.103582, -0.318547, -0.490517, -0.709821, -0.409383, -0.265675, 0.152421, -0.447807, 0.00558113, 0.432649, 0.392647, -0.276294, -0.166278, -0.602744, 0.56784, 0.270231, -0.0716056, -0.0504847, 0.212597, 0.465246, 0.14576, -0.117915, 1.00741, -0.539835, 0.675727, 0.196833, 0.313358, -0.637318, 0.0123159, 0.283536, 0.505718, -0.254586, -0.273362, -0.0835522, -0.0632372, -0.309864, -0.0456998, -0.733575, -0.285439, 0.183418, -0.0110658, -0.0807523, 0.164918, -0.402803, 0.284929, 0.417243, 0.214274, 0.33758, 0.154891, 0.585585, -0.135472, -0.12927, -0.336417, -0.326433, 0.231667, 0.580254, 0.228448, -0.167776, 0.334838, -0.507477, -0.448602, -0.0527999, 0.128892, -0.10453, -0.178229, -0.112161, -0.389035, 0.0936111, -0.022169, -0.426151, 0.298142, -0.537035, -0.0904566, -0.177316, 0.122491, 0.614081, -0.120066, 0.121576, -0.664518, 0.0326671, 0.225799, 0.188916, 0.0941399, 0.279261, 0.290252, 0.125914, 0.714277, 0.0579471, -0.0894965, 0.140236, -0.143475, -0.404291, 0.0410249, 0.182384, 0.336044, 0.234813, -0.358536, -0.174643, -0.223632, -0.161447, 0.126204, -0.292608, 0.562937, -0.133103, -0.0524484, -0.318042, -0.0227353, 0.823806, 0.875892, -0.70697, 0.481303, 0.0801759, -0.832783, -0.702956, -0.261392, 0.502627, 0.548639, -0.408657, -0.1799, 0.328326, 0.325255, -0.496906, 0.117111, -0.0365394, -0.455173, 0.188674, -0.406252, 0.590519, 0.246163, 0.319292, 0.432985, -0.0570133, 0.730185, -0.0963248, 0.155981, 0.353187, 0.079857, -0.0537525, 0.0360225, 0.198242, -0.0638323, 0.145554, -0.0384446, 0.976848, 0.390712, -0.151884, -0.411397, 0.0306376, -0.277087, 0.261393, -0.322644, 0.172006, -0.133199, -0.526644, -0.649551, 0.596611, -0.153115, 0.00973326, 0.807495, 0.0783434, 0.369543, 0.265453, 0.100668, 0.261519, 0.466439, 0.387098, 0.338607, -0.156757, 0.661023, 0.644799, 0.310534, -0.185567, -0.155018, -0.635942, -0.202177, -0.199671, 0.0026335, -0.00988556, -0.487081, -0.623792, -0.150032, -0.213439, -0.61221, 0.0290157, -0.42096, -0.251318, -0.153168, 0.265078, -0.0865742, 0.51041, -0.0405264, 0.246888, -0.477026, 0.269226, 0.0494992, -0.352544, -0.517504, 0.383632, -0.646084, -0.136529, 0.650433, -0.292103, -0.685641, -0.372628, 0.0627791, 0.500487, -0.360093, -0.0617729, -0.366624, 0.2096, 0.410724, 0.536838, 0.123792, -0.523461, 0.304383, 0.118003, -0.118287, -0.283685, 0.109129, 0.743854, 0.780488, 0.00325916, -0.246713, 0.257768, 0.84823, -0.520198, 0.300223, 0.0346902, -0.240489, 0.350631, -1.0115, -0.282382, 0.0716601, -0.135927, -0.234351, -0.446309, -0.0462263, 0.106172, -0.0789721, -0.277841, -0.0882321, -0.388449, 0.306812, 0.26633, 0.328823, -0.674673, 0.446427, -0.693066, 0.454765, 0.249154, -0.108832, 0.226737, 0.0336851, -0.294276, -0.448391, 0.14392, -0.0237159, -0.424311, 0.179967, 0.281776, -0.392502, -0.490795, 0.0892417, 0.0182056, 0.397474, -0.134891, 0.140814, 0.176357, -0.0101817, -0.142289, -0.378715, -0.532383, 0.682582, -0.165157, -0.34823, -0.183006, -0.189956, -0.143658, 0.140901, 0.427158, 0.208405, -0.48629, -0.890476, -0.177586, -0.247758, -0.528365, 0.512441, -0.0732834, -0.421611, -0.00843755, -0.242892, -0.106073, 0.506642, -0.63671, -0.200073, 0.153847, 0.254889, 0.0179626, 0.205614, 0.294535, -0.148439, 0.160193, 0.293222, 0.302104, 0.204595, 0.242469, -0.465607, -0.00149566, -0.242824, 1.55762, -0.052009, -0.396744, 0.035628, -0.0885926, 0.246979, -0.520246, -0.535344, 0.474337, -0.52064, -0.691143, 0.0980681, 0.248592, 0.337239, -0.268221, -0.272587, -0.193746, 0.267568, 0.0132022, 0.599786, 0.0809002, 0.0632559, -0.260523, -0.200576, 0.139505, 0.126441, -1.11272, -0.120357, 0.206257, -0.559934, 0.0608442, -0.615781, -0.0394356, -0.0879455, -0.643919, 0.210338, -0.254023, 0.019927, -0.179298, -0.474979, 0.0194676, 0.334699, -0.332032, -0.238904, -0.203318, 0.631911, -0.612004, 0.648979, -0.152523, 0.016223, -0.130924, -0.447226, -0.154506, 0.160925, -0.119853, 0.157089, -0.254547, 0.294359, 0.0431417, 0.477847, -0.203237, -0.210155, -0.145168, -0.0530103, -0.230224, 0.152083, 0.0457203, -0.374041, 0.463818, -0.27379, -0.131323, 0.00840846, -0.0501274, -0.62829, -0.51, -0.261832, 0.429585, 0.166754, -0.312423, -0.359504, 0.360573, 0.619537, 0.671341, 0.179614, -0.114979, -0.519855, 0.53413, 1.01909, -0.179365, -0.518409, -0.114339, -0.661288, -0.0928359, 0.245893, 0.0527193, 0.375768, 0.0996204, 0.0155095, 0.353008, 0.159139, 0.538929, 0.0120268, -0.188495, -0.139652, -0.30819, -0.286898, 0.0980763, -0.675243, 0.0311212, -0.146264, 0.402023, 0.201347, 0.885897, -0.534333, 0.162387, 0.359756, 0.452115, 0.359677, 0.253517, -0.315559, -0.468518, 0.279494, 0.322441, 0.139698, -0.293135, 0.278024, 0.0810218, 0.273344, 0.206207, 0.0924347, 0.21079, -0.0501679, 0.353489, 0.218374, 0.556926, 0.179927, -0.411046, -0.383257, 0.370778, 0.911949, -0.118513, -0.239902, 0.212273, 0.394867, 0.389643, 0.728269, 0.194244, 0.11486, -0.160918, -0.151972, 0.414534, -0.256685, 0.141281, -0.0567609, -0.264875, 0.00693917, 0.412894, 0.268137, -0.132001, 0.106315, 0.26167, 0.23619, -0.0552552, -0.165945, 0.0487337, 0.0965234, 0.0253326, -0.220978, 0.0330317, 1.0192, -0.589639, -0.369149, -0.208157, 0.216752, 0.509541, 0.464944, 0.12503, 0.38904, 0.00254311, 0.173327, -0.237435, 0.609944, -0.180891, -0.00464088, 0.410013, -0.601497, -0.117304, -0.488001, 0.735998, -0.196411, 0.88634, 0.127638, 0.00335089, 0.518069, 0.287916, -0.140681, 0.0146318, 0.0347706, -0.199273, 0.595009, 0.0731756, -0.447439, 0.245476, -0.0782125, -0.515486, -0.578435, -0.78451, -0.32335, -0.100427, 0.0955355, 0.459801, -0.169864, 0.216758, -0.0214528, 0.351785, 0.214834, -0.300408, 0.24033, -0.407867, -0.701366, -0.143927, -0.0333161, -0.0283468, -0.203014, 0.475324, -0.0680868, 0.333942, -0.822264, 0.0668524, -0.332192, 0.0365721, 1.18578, 0.984679, -0.209499, 0.477594, -0.696895, 0.107042, 0.579611, -0.577102, -0.418493, 0.203066, -0.0809431, -0.570414, 0.298755, 0.237544, 0.254325, -0.376235, 0.276542, 0.708828, -0.162795, -0.183443, 0.0962451, -0.0449079, 0.192967, -0.259711, 0.0554195, -0.12845, 0.19933, 0.373547, -0.0319933, -0.432209, -0.0481336, -0.413342, -0.254113, -0.508715, 0.203974, 0.00987199, -0.0635236, 0.0445747, -0.0887746, -0.154113, 0.126851, -0.260569, -0.12679, 0.189571, 0.173148, 0.437667, -0.489702, -0.0104623, 0.136491, 0.15644, 0.0972671, -0.168399, 0.71134, 0.160036, 0.673105, 0.361197, 0.0215358, 0.655346, -0.13648, 0.488204, 0.1671, 0.769524, 0.280179, 0.113778, 0.388248, 0.428361, 0.591984, 0.296657, 0.153, -0.41138, 0.0437421, 0.24112, -0.221391, -0.0117047, -0.273189, 0.17781, 0.265833, 0.503389, 0.937247, 0.421959, -0.20454, -0.0403135, -0.295773, 0.161454, 0.341579, 0.852464, 0.651684, -0.877535, 0.805943, 0.449262, -0.443609, -0.425125, -0.582066, -0.393674, 0.133952, 0.586863, 0.493203, 0.340831, 0.200355, -0.269211, 0.478053, -0.162668, -0.476702, -0.203077, 0.107284, 0.267604, -0.0964361, 0.0640406, -0.161942, 0.830441, 0.032917, -0.530873, 0.235442, -0.411205, 0.0318791, 0.797676, 0.0911392, -0.542219, -0.65978, 0.240169, -0.125712, -0.0422086, -0.0782963, 0.220914, 0.565219, -0.275296, 0.305217, -0.369718, 0.3387, -0.0860112, -0.132694, 0.209797, -0.068103, 0.218878, 0.0240708, 0.133137, -0.0777745, 0.351565, -0.0581213, 0.310093, 0.279758, -0.343361, 0.094153, 0.0641954, 0.196092, 0.489952, 0.131864, 0.431438, 0.935012, 0.321584, 0.243331, -0.405966, 0.257654, -0.0861136, -0.0289934, 0.453761, 1.11101, 0.615, 0.0983171, 0.351031, -0.782946, -0.364373, 0.149067, 0.053965, -0.215988, 0.00359791, -0.107041, 0.114101, 0.130393, -0.102164, 0.0419203, 0.535545, -0.130072, 0.111885, -0.406783, 0.153998, 0.179041, -0.261626, -0.660146, -0.00875925, -0.494335, -0.270287, -0.127698, 0.332735, -0.450963, 0.00108859, -0.0931853, 0.171923, -0.616765, -0.270099, 0.396277, -0.19156, 0.156808, 0.262939, -0.0201391, -0.139452, 0.281756, 0.143111, -0.356369, 0.0605698, -0.340479, 0.0154708, -0.12418, 0.560965, 0.0994165, 0.0479777, 0.198229, 0.478767, 0.754834, -0.758698, 0.065387, 0.197588, -0.0584995, 0.494139, -0.0324001, -0.0356441, -0.114724, 0.160387, 1.00878, 0.180207, -0.23575, -0.265956, 0.312169, 0.105776, -0.158928, 0.319513, -0.247234, -0.052641, -0.374857, 0.088075, -0.287232, 0.158085, -0.0274031, -0.147611, 0.169538, 0.204604, 0.377669, 0.421475, -0.196817, -0.456887, 0.167876, 0.247074, -0.540579, 0.15518, -0.0478748, 0.0955944, 0.353452, 0.0940475, -0.0823536, -0.0886459, -0.274246, -0.285834, -0.854662, 0.116985, 0.148115, -0.509424, -0.137301, -0.145463, 0.0707745, -0.797901, -0.201539, 0.0797033, 0.111715, 0.319026, 0.27263, 0.31893, 0.0288266, 0.358191, 0.236293, 0.825105, -0.304787, -0.427255, 0.602059, 0.0115294, 0.0973993, 0.0853958, 0.0230818, -0.042654, 0.161467, 0.117512, -0.0803229, 0.149954, 0.401061, -0.385877, 0.46535, -0.553328, -0.494901, 0.528157, -0.784945, -0.480191, -0.267692, -0.0248597, -0.535132, 0.415389, -0.0242503, -0.378697, -0.514954, -0.0271039, -0.728931, -0.517609, 0.312213, -0.0555775, -0.0214723, -0.0612935, -0.371831, 0.397651, -0.517377, 0.443562, 0.315172, 0.368483, 0.278226, -0.294743, -0.676779, 0.35116, -0.470567, 0.610059, 0.0609585, 0.0401297, 0.197909, 0.142251, -0.0542136, -0.370366, 0.256409, -0.0822266, 0.754544, 0.16563, -0.329614, 0.468544, 0.056196, 0.540975, 0.759964, 0.279917, 0.445305, 0.336913, 0.450498, -0.486518, -0.00560208, 0.849657, 0.174175, 0.518852, 1.77145, 0.80408, -0.253314, -0.175058, -0.465346, -0.182391, -0.576389, -0.18536, -0.151533, 0.112925, 0.0753476, 0.66674, 0.058387, -0.37472, -0.323923, 0.644114, 0.176105, -0.186851, 0.0350304, 0.0711411, -0.151406, -0.169397, -0.832878, 0.745748, -0.0490592, -0.331921, 0.562562, 0.178046, 0.685924, 0.320208, 0.2678, -0.457304, -0.208603, -0.296686, 0.411607, -0.582937, 0.453444, -0.478451, 0.169109, 0.0670479, 0.464398, 0.450378, 0.427366, -0.233401, -0.179013, 0.163774, -0.0580324, 0.584424, 0.453062, -0.243444, -0.415875, 0.0781611, 0.347234, -0.6471, -0.389816, 0.10685, -0.491739, -0.196129, -0.220931, -0.396956, -0.828601, -0.280467, -0.282379, -0.145467, -0.427064, -0.460518, -0.262096, -0.492337, -0.628741, -0.554849, -0.521831, -0.361079, 0.478021, 0.014854, -0.0259712, -0.090514, 0.308235, 0.218933, 0.124789, 0.231015, 0.112877, 0.5936, 0.109446, -0.0890908, 0.531811, -0.148905, -0.610189, -0.506541, 0.502388, 0.754587, -0.0778309, -0.620851, -0.543809, -0.146534, -0.116545, -0.187469, 0.253782, 0.385027, 0.0703616, -0.262626, -0.386076, 0.842334, -0.18027, 0.521395, -0.317801, 0.584212, -0.144475, -0.152124, 0.201734, 0.391685, -0.290349, 0.05616, -0.331851, -0.216389, 0.0712334, -0.309957, -0.428358, -0.327987, -0.507522, -0.371307, -0.305293, -0.875981, 0.222318, -0.25519, 0.114464, -0.359881, 0.278615, -0.302195, 0.213698, 0.287261, 0.091516, -0.0626988, 0.124387, 0.0934758, -0.0323693, 0.0510783, -0.377192, -0.463511, 0.101839, -0.407544, 0.111944, 0.68679, -0.279162, -0.433133, -0.73341, -0.300945, -0.566405, 0.0217778, 0.326461, 0.0148928, 0.0171199, 0.154497, 0.0256544, 0.199338, 0.283957, -0.0316812, -0.887612, 0.601699, -0.218977, -0.00373127, 0.0627029, 0.0617115, -0.0217352, 0.239235, -0.687753, 0.815888, 0.214396, -0.663901, 0.832996, -0.185207, 0.628244, 0.577725, 0.328683, 0.219857, 0.0139155, 0.218355, 0.170279, 0.237571, 0.346011, -0.149947, -0.695569, 0.195265, 0.176017, 0.4025, 0.0587742, -0.293985, -0.49687, -0.392743, 0.163891, 0.00177081, -0.566213, 0.707813, 0.530256, 0.261096, 0.352621, -0.127727, -0.344281, 0.460836, 0.249816, -0.354315, -0.194373, -0.322384, -0.894908, -0.0764704, -0.623571, -0.143562, 0.146014, 0.431515, 0.0229789, -0.555393, 0.395797, 0.25738, 0.361811, 0.00913553, -0.39691, 0.619603, 0.182502, -0.0180589, -0.187783, -0.264292, 0.66395, 0.279724, 0.0527642, -0.22489, 0.233881, 0.0768415, -0.149378, 0.135638, 0.0813968, 0.695538, 0.0698595, -0.512825, -0.488322, -0.225917, -0.0915999, -0.274227, 0.0350534, -0.122981, 0.151482, -0.0125875, 0.037485, 0.0640938, -0.0709597, 0.119972, -0.171718, -0.683411, 0.251614, 0.123845, -0.369509, -0.368721, -0.344225, 0.524781, -0.522968, 0.555346, 0.239438, 0.165943, -0.456056, -0.249416, 0.599399, -0.32566, 0.723511, -0.41812, -0.26946, 0.00632405, 0.34246, -0.651105, 0.55175, -0.317275, 0.0734181, -0.250106, 0.355475, 0.135502, -0.277413, 0.415109, 0.151368, -0.35359, -0.539443, 0.720688, -0.123171, -0.49979, -0.329221, -0.29984, 0.126458, -0.312254, 0.13375, 0.0753894, -0.368436, -0.400481, -0.035506, -0.284836, -0.310743, -0.166676, 0.172367, 0.18909, 0.0756101, -0.282769, 0.2171, -0.215307, 0.274768, -0.0520384, -0.266051, 0.109022, 0.0623528, -0.816142, 0.0929276, -0.0575292, -0.427187, -0.355907, 0.0763909, -0.0409338, -0.666253, 0.383437, -0.528701, -0.0660702, -0.182671, 0.3882, -0.390251, -0.0540458, -0.334907, 0.174743, 0.0346455, -0.657221, -0.0909757, -0.531691, -0.156692, -0.540036, -0.880077, -0.170546, -0.964018, 0.248744, -0.554439, 0.140742, -0.0737971, -0.0376576, -0.309028, 0.43381, -0.0545077, -0.118287, -0.221687, 0.00783371, -0.362728, 0.404148, 0.0877537, -0.147728, 0.161124, 0.608765, 0.465637, 0.643159, 0.365649, 0.0195745, -0.134524, 0.0619316, -0.720975, 0.000430078, 0.165857, 0.185477, -0.176745, -1.04113, -0.100144, -0.22897, -0.173799, 0.378971, 0.447458, -0.608822, 0.0111676, 0.269482, -0.0332757, -0.0134813, 0.49234, 0.280187, 0.0598483, 0.164515, -0.194271, -0.547933, -0.0203677, -0.46692, 0.0605129, 0.132661, -0.751074, -0.171738, 0.300209, -0.103344, 0.0946895, 0.0681431, 1.02598, -0.0369226, -0.137732, -0.402139, 0.277788, 0.24467, -0.00956498, -0.224935, -0.565435, 0.0137916, 0.164373, 0.331008, 0.0237372, 0.127574, -0.159557, -0.319977, 0.270626, 0.100626, 0.567573, -0.374392, -0.721949, -0.276035, -0.0125639, 0.96851, 0.121934, 0.182802, 0.359425, 0.0410989, 0.230414, 0.025094, -0.959103, -0.431511, 0.363221, 0.359758, -0.362504, -0.287141, 0.411066, -0.425977, 0.0179053, 0.00164358, -0.509217, -0.188782, 0.0451912, 0.115922, -0.350104, -0.527749, 0.10013, -1.55328, -0.0509818, 1.01033, -0.883531, -0.407248, 0.375656, -0.408385, -1.45464, 0.649246, -0.247544, 0.248182, -0.309517, -0.454268, -0.344768, 0.906249, -0.364622, -0.775563, 0.179334, 0.0385552, 0.149521, -0.32805, 0.0435497, -0.107249, 0.739233, -0.47683, -0.467214, 0.150638, -0.668797, -0.481635, 0.100976, 0.340674, -0.184975, 0.590846, -0.0863562, -1.0594, 0.282875, -0.137677, -0.115913, -0.271, 0.118944, -0.287521, 0.510795, -0.00943625, -0.362253, 0.260452, 0.388249, 0.099734, 0.131824, -0.0886534, -0.0874275, 0.0810261, -0.070252, 0.284387, -0.176359, -0.468678, -0.455082, 0.57272, 0.0857667, -0.0394451, -0.601757, -0.0443006, -0.430643, -0.0921935, -0.172807, -0.273824, -0.367589, -0.535249, 0.180245, -0.2107, 0.072126, -0.233068, 0.220913, -0.107775, -0.0769458, -0.108022, -0.0417012, -0.3968, -0.151754, -0.310605, -0.178593, -0.0232276, -0.261983, -0.0419331, 1.00569, 0.025211, -0.0403504, 0.45725, -0.354344, 0.515223, -0.266895, 0.412567, 0.392776, 0.167714, -0.270569, 0.427033, -0.00318737, 0.0886208, 0.261915, 0.105426, -0.391502, -0.535516, -0.218661, -0.325654, 0.0746268, -0.113826, 0.117863, 0.367195, -0.372019, 0.163623, -0.367844, -0.0806078, -0.546137, 0.0306346, 0.195466, -0.0517617, -0.188416, 0.152857, 0.0557048, 0.0857292, -0.122709, 0.59092, -0.323447, 0.0691742, 0.647043, -0.0393461, -0.478362, -0.143632, 0.259313, -0.486532, 0.00587913, 0.486137, 0.725931, -0.319299, 0.499974, -0.0230146, 0.0310186, 0.187653, 0.311858, 0.0393553, 1.10573, 0.606862, -0.0695207, -0.120359, -0.236743, -0.0628839, 0.324136, 0.69503, 0.301872, 0.962085, 0.755113, -0.0631118, -0.199168, 0.688715, 0.237883, 0.277969, 0.66719, -0.321369, -0.589107, -0.597811, 0.25291, -0.17867, -0.0405584, -0.445455, 0.458613, -0.12101, 0.467378, 0.29911, 0.497528, 0.353488, 0.0204798, -0.320712, 0.798307, -0.409252, -0.463613, -0.0872217, 0.283177, 0.231056, -0.119312, -0.0423779, -0.184825, 0.622864, -0.219067, 0.31144, -0.00874175, -0.293137, -0.989916, 0.0918262, -0.126596, 0.138682, -0.00443121, 0.334819, -0.150253, 0.222783, -0.142303, -0.185901, 0.362707, 0.371337, 0.324225, 0.44921, 0.474246, 0.549637, -0.468771, -0.0332382, -0.571611, -0.182773, 0.0244779, -1.01808, 0.153105, 0.249253, 0.381599, -0.153333, 0.242321, -0.962411, 0.29051, 0.220413, -0.785625, 0.049857, 0.546898, 0.307567, 0.359629, -0.147533, 0.47056, -0.631913, 0.33591, -0.132678, -0.13203, -0.299658, -0.851704, 0.213492, 0.461728, 0.701234, 0.646189, -0.643876, 0.529544, -0.6981, 0.0748223, -0.692449, -0.609083, -0.147353, -0.172195, 0.260318, 0.0780646, 1.40664, 0.217459, 0.681177, 0.160916, -0.135118, 0.276303, -0.354217, 0.441469, 0.662423, 0.200594, -0.19915, -0.0757466, 0.20757, -0.866528, -0.754507, -0.668708, -0.173207, -0.128562, 0.569838, 0.398209, -0.922396, 0.00590608, -0.489277, 0.646904, -0.163664, -0.0347152, -0.0197234, -0.621542, -0.342437, -0.46992, 0.352203, -0.398868, -0.0262698, -0.942097, -0.0839107, 0.0186867, -0.159273, -0.780596, 0.0321188, 0.25539, -0.213827, -0.763688, -0.0153902, 0.416114, 0.486195, 0.635832, -0.286622, 0.520823, -0.103913, 0.0286372, -0.124546, -0.499489, -0.159298, 0.648835, 0.254356, 0.0919316, -0.460544, -0.167933, 0.383542, -0.264749, 0.177658, 0.940454, -0.756791, 0.032255, 0.0476644, -0.215971, 0.105839, 0.0342717, 0.00597061, -0.0671453, -0.475398, 0.148931, -0.242196, -0.198958, -0.0888391, -0.0226164, 0.431281, 0.0305705, 0.202068, 0.0306202, 0.347194, -0.311558, -0.593737, -0.201043, 0.227077, -0.626254, 0.140865, 0.0640469, 0.14852, 0.340359, -0.140952, 0.181079, -0.294254, 0.736651, -0.189846, -0.140825, -0.428964, -0.630718, -0.197273, 0.268858, -0.154515, -0.0667396, 0.354309, -0.189361, -0.00213407, -0.311719, -0.0432893, 0.131699, 0.211222, 0.282188, 0.304488, 0.472092, -0.538327, -0.266176, -0.266283, -0.481873, -0.396594, -0.0688123, 0.329676, -0.451301, 0.3608, 0.320442, -0.0169158, 0.196709, 0.134212, 0.426828, -0.464112, -0.485145, -0.15443, 0.24532, -0.0959008, 0.209161, 0.0784954, -0.0665879, -0.247553, -0.646786, 0.389861, -0.0421899, -0.41107, 0.506065, -0.0091634, -0.364754, -0.206326, 0.144315, 0.209967, -0.197583, 0.0195794, -0.374536, 0.506629, 0.230874, 0.0369999, -0.474017, 0.230946, 0.194316, 0.405507, -0.279846, 0.854126, 0.68115, 0.207894, 0.239809, -0.274483, 0.218548, -0.246362, 0.417293, -0.0360863, 0.601594, -0.645309, -0.537664, -0.428049, 0.102718, -0.0819835, -0.0407119, 0.036226, -0.110344, 0.29148, 0.153326, -0.559001, -0.111236, 0.250822, -0.0629905, -0.354619, -0.475226, -0.171256, -1.23212, 0.0724052, 0.157074, 0.40117, 0.172115, 0.348693, 0.522019, -0.559501, -0.271058, -0.791358, 0.173944, -0.288693, -0.635279, -0.0323342, 0.12562, 0.340436, 0.130201, 0.844271, -0.493707, -0.674426, -0.109162, 0.152634, -0.690361, -0.111693, 0.221513, 0.357494, -0.154041, -0.75322, 0.0732962, -0.149345, -0.0610803, 0.363355, -0.25607, 0.0678722, -0.0163658, 0.512852, 0.492628, 0.276685, 0.476015, -0.622928, 0.546477, -0.209402, 0.219201, -0.371188, -0.0495876, 0.119202, 0.456898, -0.456501, 0.364337, -0.0766081, 0.5999, 0.173388, -0.249389, 0.483423, 0.17039, -0.0869193, 0.0354901, -0.16572, 0.202765, -0.205587, -0.0340017, -0.102714, 0.386693, -0.334846, -0.436939, -0.595774, 0.694321, -0.147141, -0.108643, 0.363422, -0.203571, 0.182109, -0.0168887, -0.00957535, 0.12292, -0.282329, -0.217075, -0.0289476, 0.468258, 0.0252207, -0.333299, 0.0608687, 0.276171, -0.0327, -0.0227377, 0.0223102, -0.510186, 0.575762, 0.437197, 0.45731, -0.291997, -0.296502, 0.214519, -0.138415, -0.514636, -0.16988, 0.274435, 0.3099, 0.252918, 0.560413, 0.121304, 0.341058, 0.0263299, -0.844564, -0.612251, 0.0679693, 0.186714, 0.356326, 0.437162, 0.238544, -0.246559, 0.13639, -0.349541, -0.302601, -0.125256, -0.206724, 0.4407, 0.0819409, 0.101327, -0.618393, -0.0336959, 0.250154, 0.0859965, 0.0586695, -0.528971, 0.566964, -0.528801, 0.20396, 0.0591133, 0.0509482, 0.202356, -0.723912, 0.0438049, -0.133138, -0.875747, -0.154924, -0.286589, 0.195319, 0.431927, -0.337352, -0.125706, -0.529663, 0.562953, 0.448255, -0.536107, 0.448423, 0.321988, -0.422613, 0.0452692, 0.233707, -0.0362776, 0.31332, -0.375285, -0.200604, -0.798627, 0.225871, -0.530275, 0.130347, 0.00938237, -0.184455, -0.496475, -0.334732, -0.356168, 0.529532, 0.205015, -0.200068, -0.0413481, -0.4962, -0.489904, -0.360523, 0.367848, -0.303304, 0.242776, -0.0599366, 0.210028, -0.15955, -0.0155736, 0.485086, 0.262814, 0.439878, 0.256159, 0.306191, -0.448857, 0.0177101, 0.132467, -0.383708, -0.756314, -0.40854, -0.211873, 0.598773, -0.0729114, 0.250705, -0.20836, -0.0217582, 0.421916, 0.34695, 0.269747, 0.521864, 0.325997, 0.307369, 0.392322, 0.123466, 0.188098, -0.224369, -0.228033, -0.19859, 0.0946567, -0.0171025, 0.497253, 0.0336291, 0.884631, 0.286973, -0.210034, 0.322584, 0.0266831, 0.298848, 0.00816522, 0.774448, 0.127199, -0.978067, 0.77069, 0.722933, -0.435518, 0.355061, -0.180842, 0.0147763, 0.377595, 0.512625, 0.123884, 0.0394607, 1.43728, -0.30581, -0.348782, -0.808462, -0.312463, -0.202591, -0.438489, 0.146465, 0.613915, 0.18357, -0.176681, 0.252314, -0.00943771, -0.213686, -0.261368, -0.376371, -0.198366, 0.479989, -0.175346, -0.542653, 0.177871, -0.522418, -0.353475, -0.026617, -0.387088, -0.24027, -0.430867, -0.295118, -0.24078, -0.217857, 0.374214, 0.181572, 0.587136, -0.0768526, -0.313895, -0.633262, -0.217168, 0.211686, -0.460894, 0.052146, 0.399334, 0.145424, 0.200415, 1.0041, 0.50208, 0.162922, 0.120919, -0.0713523, 0.583694, -0.00084058, 0.41589, -0.349391, 0.489362, 0.177929, -0.299258, 0.374979, -0.0821521, 0.343706, -0.559024, 0.47415, 0.334755, -0.234012, 0.132896, -0.566291, 0.0683227, -0.450087, 0.296183, 0.33468, 0.260507, -1.02188, 0.103086, 0.86876, -0.256293, -0.20392, -0.15828, -0.823847, -0.698472, -0.221387, -0.733391, 0.131022, 0.224387, 0.526893, 0.938168, 0.612175, 0.203432, 0.508989, 0.559387, 0.204544, 0.663112, 0.209573, 0.509856, 0.73915, 0.0793192