0.127033, -0.129403, -0.0676568, -0.0290157, -0.0741347, -0.196482, 0.0726057, 0.0434041, 0.00530866, 0.0507776, 0.0901504, -0.0575468, -0.125913, -0.0982741, -0.121913, 0.00875591, 0.307049, 0.0411094, -0.08444, -0.025874, 0.0184491, -0.00409407, 0.230606, 0.0491508, -0.101943, -0.0629734, 0.0562738, 0.0505224, 0.0326957, -0.154744, -0.186232, 0.00552714, -0.101037, -0.00327324, 0.105851, -0.0503738, -0.0285614, 0.101849, 0.0231144, -0.111725, -0.0336236, 0.160247, -0.287158, -0.0930547, 0.283472, 0.0168087, 0.158921, 0.141423, 0.123351, 0.133151, -0.0159412, 0.07443, -0.226806, -0.210799, -0.0782575, -0.113756, -0.0989918, 0.124984, -0.0535163, 0.050195, -0.126511, -0.170033, 0.0215544, -0.0808805, -0.185496, 0.0435015, 0.0812646, -0.114023, 0.351979, 0.0146246, -0.0291033, 0.080757, 0.0235179, 0.302715, 0.033517, 0.199595, -0.111242, 0.037445, -0.0778645, 0.28176, 0.374608, -0.0348919, -0.125543, 0.0481429, 0.024817, 0.000861224, -0.0447034, 0.0481072, -0.0818524, -0.123925, 0.0952638, 0.143716, -0.0442359, -0.125893, 0.00196488, -0.0994325, 0.123764, 0.107824, 0.126794, -0.0706492, 0.0969387, -0.153349, 0.0680068, -0.0884897, 0.0712054, -0.0620085, 0.168228, -0.175546, 0.142455, 0.0283102, 0.11821, -0.234723, -0.0183565, 0.0807104, -0.0203478, 0.0476849, 0.0103391, -0.00807043, 0.0773475, 0.101695, -0.0804634, 0.0471688, 0.262101, 0.187047, -0.0698596, 0.0339529, 0.0588757, -0.00878813, 0.0481753, -0.0696739, 0.194673, -0.0406151, 0.117549, 0.0500843, -0.0153711, 0.161051, 0.00950324, 0.15438, -0.0156547, 0.164776, -0.124118, 0.065537, 0.101782, 0.0895714, -0.0474421, 0.179715, -0.15075, -0.109866, 0.0364263, 0.0827965, -0.154823, -0.00379439, -0.101265, 0.0717338, -0.216652, 0.0754209, 0.126513, 0.218096, -0.13727, -0.18503, -0.158871, 0.0949762, -0.0538202, -0.170706, 0.112363, -0.0782542, 0.0153258, -0.025091, -0.137424, 0.0433567, -0.0413091, 0.104327, -0.156929, 0.0991838, 0.123871, 0.239781, 0.0146291, 0.175485, 0.005127, -0.0309633, -0.113089, -0.239188, 0.177558, -0.0293398, -0.182865, -0.0264217, 0.223735, 0.0847754, -0.057868, -0.0157999, -0.119929, -0.176626, 0.120115, 0.171295, -0.0679827, -0.0661384, -0.0326613, 0.0120766, 0.28725, 0.103865, 0.171507, -0.199167, -0.0488338, -0.0488364, -0.216168, 0.112562, -0.129021, -0.00344337, -0.0293813, -0.00138335, -0.0153277, 0.14549, -0.025598, -0.00801593, -0.153119, -0.118653, 0.180559, 0.14128, 0.118498, -0.0402701, -0.0574228, 0.133087, -0.202992, -0.0482827, -0.170108, 0.00688699, 0.0686871, -0.00267456, 0.0958558, 0.20855, 0.00649322, 0.122923, -0.13386, 0.0850795, 0.369551, 0.0269416, -0.0993093, 0.0547854, 0.267459, 0.119994, -0.0171679, -0.114116, -0.260758, -0.0492247, 0.162095, 0.0296673, -0.137078, -0.0706886, 0.0819037, 0.197246, 0.10197, 0.0976577, 0.135402, 0.086039, 0.0539485, 0.0900747, -0.0311867, 0.094192, -0.0294393, 0.0755173, -0.110305, 0.185452, 0.154592, 0.0560245, -0.0329729, -0.157135, -0.0916212, -0.080228, -0.0726747, 0.0616475, -0.0932865, -0.0760055, -4.43025e-05, 0.299311, -0.0131793, -0.116578, -0.0238575, -0.0799766, -0.0823579, -0.0254093, -0.0632999, -0.100063, -0.0359199, 0.14333, 0.000321861, 0.0494913, -0.0926186, -0.0819686, 0.0840443, 0.0195105, 0.186385, 0.120463, -0.033606, -0.0705316, 0.0233757, 0.0185557, 0.137023, 0.113774, 0.228386, 0.0471135, 0.0959903, -0.206513, 0.094802, 0.0664741, 0.0311412, 0.0273057, -0.144769, -0.0906453, 0.0593469, 0.000538298, -0.142554, -0.10587, -0.043685, -0.0459166, 0.0868151, 0.11057, 0.0538422, -0.0916694, -0.0700556, -0.0596893, -0.0107698, 0.0581688, 0.00812683, 0.0285651, -0.000671663, -0.0315283, -0.0367648, 0.0232713, 0.0840971, 0.066544, 0.0553324, 0.0761029, -0.103598, -0.108386, -0.165557, -0.171997, -0.0753632, -0.0357113, -0.234378, -0.0215327, 0.0642998, -0.0719981, -0.153934, 0.217538, 0.216108, -0.374517, -0.00967605, 0.137287, -0.243365, -0.121597, -0.00947131, -0.0674491, 0.18772, -0.284883, -0.148971, 0.155068, 0.0926295, 0.0235686, 0.0198022, -0.194888, 0.211269, 0.134134, -0.0870635, 0.159055, -0.00693069, -0.0189365, -0.0273392, 0.209486, -0.00386223, -0.0424909, 0.00139662, 0.0848763, 0.0611507, 0.011633, 0.201975, -0.161254, 0.0787195, -0.00429482, 0.0736036, 0.0898046, 0.136156, -0.142682, 0.0103341, -0.147225, 0.14649, -0.154043, 0.183612, 0.170067, 0.197426, -0.156705, 0.0114879, -0.0514129, 0.0126674, -0.0785163, -0.219102, 0.225109, 0.357254, 0.145571, -0.0123088, 0.0956369, -0.274879, 0.0581116, -0.127936, 0.149449, 0.190356, 0.126303, -0.159803, -0.059173, 0.122288, -0.167239, -0.142127, 0.164759, -0.0226611, 0.0415893, -0.140642, 0.219086, -0.0180006, 0.129757, -0.0684297, -0.0155837, 0.120153, -0.112419, -0.00982291, 0.0319874, -0.0788312, 0.106292, -0.0509824, 0.0244987, 0.0152949, -0.141196, -0.179219, 0.098288, 0.207429, -0.137908, 0.0836957, -0.0427015, 0.0859375, 0.0506297, 0.00162016, -0.182893, 0.0220354, -0.155092, -0.180129, 0.0796059, 0.0401824, -0.106482, -0.0886358, -0.0835575, -0.00409403, 0.11704, -0.35967, 0.0135676, 0.0195155, 0.296843, -0.0950497, 0.0526384, 0.000149592, -0.0803473, -0.000210257, 0.0262431, -0.0229816, -0.0506211, -0.174046, -0.0731307, 0.0685002, 0.0154529, -0.152392, 0.00701855, -0.160384, 0.0477069, 0.017706, -0.138195, -0.148627, -0.0213092, -0.13249, -0.321322, -0.0815117, 0.0547735, 0.0232019, 0.0875619, -0.116936, 0.0958612, 0.064069, 0.097279, -0.083586, -0.246158, 0.0897671, -0.303771, -0.0792519, -0.0646373, -0.0396787, -0.182019, -0.0375906, 0.0736961, 0.191868, 0.0580334, 0.0873145, -0.104038, 0.26494, 0.257006, -0.200764, 0.0701288, 0.193546, -0.0359259, -0.141618, -0.0885011, -0.0417057, 0.0173966, -0.0627413, 0.11344, 0.0532148, 0.0540221, -0.171388, 0.00231678, -0.0559909, 0.151218, 0.23072, 0.130404, -0.0415985, -0.0326292, 0.111412, -0.199672, -0.032218, -0.10001, -0.0746567, 0.0249435, -0.117813, -0.036223, 0.0838822, 0.0194738, 0.0277577, -0.0271586, -0.0631197, 0.0363729, -0.018589, -0.0612235, -0.0520082, 0.0835106, -0.169769, 0.0392745, -0.122242, 0.251181, 0.0300708, 0.220789, 0.238998, 0.105442, 0.297357, -0.102455, 0.0561804, -0.0321829, 0.045879, 0.0635345, 0.21878, -0.0387942, -0.238527, 0.0160236, -0.0669849, -0.0141473, 0.0167706, -0.0187179, 0.0549945, -0.0250887, 0.0102453, -0.030706, -0.0195717, -0.113767, 0.0763309, -0.140072, -0.10344, 0.00578052, -0.0646931, 0.105982, -0.239386, -0.203002, -0.0598032, 0.00776801, -0.0807116, 0.0388566, -0.163052, -0.0735503, 0.167338, 0.0154036, 0.180434, 0.236722, 0.0543788, 0.0740327, 0.0402556, -0.0571549, 0.102853, -0.108481, 0.106733, 0.172447, -0.247717, -0.173038, 0.0280982, 0.159966, -0.144454, -0.117047, 0.255635, 0.0482535, -0.03237, 0.0936018, -0.0639389, 0.0474649, -0.149658, -0.212147, -0.21499, -0.149335, 0.057288, -0.0417504, -0.0495259, -0.0160064, -0.201855, -0.0638495, -0.119942, -0.199897, 0.0477186, 0.0342926, -0.0990323, 0.0891631, 0.0751139, 0.0203379, 0.0360626, -0.038406, 0.0138, 0.173801, -0.136958, -0.174982, 0.0645349, -0.217673, -0.0932639, 0.1194, -0.0757905, -0.169534, -0.0704221, 0.0138981, 0.192107, 0.0478151, -0.0380148, -0.0674144, -0.0426485, -0.204985, 0.0463382, 0.242007, 0.0101081, -0.0557826, 0.23429, 0.270388, -0.268934, 0.039059, 0.0928471, -0.178981, 0.0621876, -0.0598196, 0.0664232, -0.253042, 0.0805295, 0.0199649, -0.11903, 0.177292, -0.0284793, 0.0114285, -0.0435196, 0.192242, 0.0910174, -0.0556197, -0.0144213, 0.11479, 0.0123596, -0.135886, 0.00971512, -0.0797998, -0.19016, -0.0823589, -0.0891075, 0.161237, -0.0310802, 0.0533346, 0.0829752, -0.100413, 0.00521699, 0.00133084, -0.155176, -0.0433788, -0.0364298, -0.0341585, 0.0575662, -0.147457, -0.0725049, -0.0604876, 0.114848, -0.229002, -0.0114234, 0.0166476, -0.0811133, 0.342394, 0.106594, 0.170173, 0.11335, 0.0814388, 0.0565113, -0.179601, 0.0924095, 0.157396, 0.159476, -0.0482975, -0.0337319, 0.0246769, 0.0395206, 0.230961, 0.279499, -0.0421397, 0.20946, 0.0150954, 0.047517, 0.0946203, 0.0928748, -0.0102038, 0.218609, 0.165647, 0.336869, -0.0959195, -0.239183, -0.1302, 0.058074, -0.0266045, -0.0637495, 0.139703, 0.158948, -0.191099, 0.065452, -0.22683, 0.130061, 0.00504328, 0.171096, 0.0949886, 0.175456, 0.0960934, 0.0591528, 0.0685911, 0.161678, -0.00523295, 0.084363, 0.0185401, 0.0101216, -0.23912, 0.222472, -0.122784, 0.0830342, 0.0876326, -0.0477008, 0.0218763, -0.0138155, 0.220712, 0.0554304, 0.124594, 0.119655, 0.127898, 0.19362, 0.0705766, 0.194863, -0.0134979, 0.116592, 0.150109, 0.00823374, 0.0239226, -0.101639, 0.119947, 0.121314, 0.248824, -0.284802, 0.17184, 0.090461, -0.137198, 0.0530139, -0.120134, -0.0248677, -0.342848, -0.138677, -0.0719797, 0.246996, 0.0414793, 0.030066, 0.0903695, -0.0537485, -0.0114865, 0.137983, 0.0318786, -0.122353, 0.0401993, 0.213939, 0.0514568, -0.0581135, -0.0804526, 0.00755192, -0.178196, -0.0554915, -0.00480687, -0.00617189, 0.105046, 0.0528847, 0.083643, 0.113209, 0.0333778, 0.17292, 0.0303078, 0.0593133, 0.292643, -0.0433921, 0.129592, -0.257372, 0.0883812, -0.0230847, -0.152935, -0.0260322, -0.147978, -0.264297, -0.0600507, -0.00727504, -0.00924456, 0.0448029, -0.120499, -0.160226, 0.132636, -0.237673, -0.0407773, -0.115582, 0.0400812, -0.131437, 0.245337, -0.162383, -0.147236, -0.312494, -0.143058, 0.343884, -0.0181886, 0.0260796, -0.083975, 0.114504, -0.0735391, 0.028831, -0.352092, 0.0590962, -0.0540686, -0.129151, -0.0767399, -0.195435, -0.0928565, -0.145668, -0.131751, 0.0989876, 0.118832, 0.0821957, -0.0554919, 0.0165727, -0.013221, 0.191473, 0.0823442, -0.38451, -0.0529362, -0.147732, 0.0447769, 0.141248, -0.0301625, 0.03501, -0.000128056, -0.0788626, 0.232651, 0.197956, -0.157, -0.0897916, 0.0491572, 0.0106293, -0.15872, -0.0918138, 0.418575, -0.159259, -0.198139, 0.170333, 0.0814401, -0.0222177, -0.0616823, 0.0779836, 0.0114667, -0.0372591, 0.0589314, -0.0309325, -0.0311809, 0.0648863, 0.145469, 0.0445008, -0.256156, 0.266594, -0.0759388, 0.0169797, -0.236564, 0.241208, 0.00390684, -0.194899, -0.21135, 0.0876542, 0.0179016, 0.0644311, -0.0678523, 0.105243, -0.0819354, -0.0940081, 0.151514, -0.097296, 0.0166523, 0.131833, 0.0612616, 0.0719673, 0.00906406, -0.150276, -0.00630062, -0.0740136, 0.0783596, -0.0259379, -0.0815179, 0.140526, 0.176053, 0.0723489, -0.149447, -0.0136171, -0.14355, 0.00133642, -0.0977963, 0.173684, 0.0548463, -0.0090101, -0.114238, 0.0478206, -0.136363, 0.00102183, 0.180424, -0.00259436, 0.0578157, 0.0631064, -0.0891276, 0.0266213, 0.12552, 0.00294991, -0.0514166, 0.0531146, -0.0944378, 0.265355, 0.0259103, 0.0888879, -0.00882963, 0.116449, -0.0160227, -0.0914338, 0.0634088, -0.157005, -0.0740745, -0.0680838, -0.0889514, -0.105889, 0.138733, 0.114281, 0.102933, -0.0707874, -0.0718637, 0.00951143, 0.0422046, 0.0847227, 0.00528093, 0.126106, -0.0318368, 0.180745, 0.194952, 0.023549, 0.0637908, 0.0401738, -0.18322, -0.253648, 0.0316509, 0.116222, 0.0977968, -0.0761894, 0.157166, 0.083158, 0.0772381, 0.0801618, -0.101758, -0.165136, -0.1133, -0.0178211, 0.109221, 0.0124366, -0.0357164, 0.197732, -0.253527, -0.198219, 0.188608, -0.0296053, -0.0436686, 0.0148889, 0.00168623, -0.0732486, 0.177147, -0.0705635, 0.171736, -0.211064, -0.0494707, 0.0210673, 0.02342, -0.119367, -0.432699, 0.0427601, -0.207757, 0.0398382, 0.117222, 0.0792326, 0.0444857, -0.0237498, -0.111542, -0.0147022, 0.0784445, -0.0650269, 0.0213079, 0.0949564, -0.121815, 0.0394412, -0.213564, 0.0553987, 0.27312, -0.0824241, -0.121234, -0.174257, -0.00988447, -0.16588, -0.0622263, -0.0662945, -0.238689, -0.134451, 0.0686705, 0.164307, 0.0566193, -0.0722307, -0.0601014, -0.0219745, 0.0532316, 0.132148, -0.208081, -0.0116381, 0.251202, 0.0450899, 0.0485843, -0.00944963, 0.190249, -0.0744649, -0.0996276, 0.0961657, -0.036456, -0.138098, 0.0404965, -0.11078, -0.0803066, 0.128804, -0.0323156, -0.0877717, 0.164905, 0.0151859, 0.0919462, -0.063341, 0.0161728, -0.00342976, 0.00844279, -0.00157926, -0.0555718, 0.107593, 0.0750508, 0.050544, -0.124938, -0.0117585, 0.144801, 0.0775608, 0.155406, -0.084164, -0.111723, 0.0574901, -0.183124, -0.113676, -0.158576, 0.0100323, 0.0880952, -0.10712, 0.0169208, -0.0333037, -0.105106, 0.0710821, 0.0266264, -0.127732, -0.201366, 0.0394463, -0.289412, -0.155048, -0.0655735, -0.172088, -0.0906666, 0.0866744, -0.190122, -0.0519264, -0.0546258, -0.0435428, -0.193028, -0.209, -0.0755838, -0.0888331, 0.115016, -0.239749, -0.0541598, 0.152287, -0.0226692, 0.122198, 0.168852, 0.08256, -0.15353, -0.163146, 0.108551, -0.0253729, 0.0590514, -0.0128835, 0.131543, -0.0363164, -0.0662973, 0.253582, -0.0815265, -0.0212931, 0.0738691, -0.211531, -0.0606681, 0.0203412, -0.0626159, -0.0296042, -0.0760069, -0.15761, 0.00134331, -0.0466683, 0.0785382, -0.179866, 0.0895403, -0.0346387, -0.0723454, -0.36921, 0.0193691, 0.127005, -0.0888783, 0.17712, -0.0976573, -0.00286762, 0.0464235, -0.0174664, -0.0313609, -0.139478, 0.099982, 0.104654, -0.112194, -0.0284914, -0.217445, -0.183824, 0.040059, -0.120816, -0.0751173, -0.0809238, 0.00349927, 0.0463085, -0.212726, -0.0729256, 0.104789, -0.0514452, -0.0310172, -0.188963, -0.046016, -0.00299443, -0.0615842, 0.0643883, 0.0537081, 0.0176396, -0.100709, 0.0694594, -0.111959, -0.156708, 0.106409, -0.0698467, 0.0647195, 0.166954, 0.0733397, 0.158996, 0.053419, -0.04246, 0.0684013, -0.0323381, -0.0172571, -0.0671407, -0.0706274, 0.104884, 0.0478666, 0.227016, -0.163187, -0.184391, -0.0201846, -0.0960918, -0.0222165, 0.15265, -0.156435, 0.0497481, -0.131259, -0.0294007, 0.0472896, -0.178366, -0.109706, 0.23448, -0.25588, -0.229274, -0.0743831, -0.301402, -0.0845664, 0.00890542, 0.122633, -0.116869, -0.0718729, 0.151369, 0.00262292, -0.0164397, -0.155206, 0.0594978, -0.278856, -0.0505967, 0.226376, 0.0633844, 0.160934, -0.102138, -0.243252, 2.69971e-05, -0.0881239, 0.0787914, -0.0675294, 0.0161322, -0.290729, 0.0131253, 0.178661, 0.162351, -0.000285147, -0.0956434, -0.0834937, 0.136365, -0.0102278, -0.0318473, -0.00605862, 0.0032481, 0.251126, -0.215507, -0.15874, 0.0182805, -0.0868163, -0.0477451, -0.0779969, -0.0946113, -0.0685569, -0.217077, -0.254218, -0.0143769, -0.1198, -0.273344, -0.044659, 0.24139, -0.201872, -0.0533079, -0.152253, 0.0929399, 0.155711, 0.0116809, 0.0828681, -0.0160207, 0.133228, 0.100759, -0.0172716, -0.136114, 0.177509, 0.0522703, -0.05164, 0.135546, 0.0539767, -0.179049, -0.0321645, 0.0655904, -0.195585, 0.111156, 0.00515108, 0.138615, 0.301355, -0.148443, 0.031593, -0.0884855, 0.0742387, -0.0782291, -0.0239568, -0.135248, -0.0645933, 0.0960508, -0.0728161, 0.163115, -0.376662, 0.156643, 0.0870159, -0.0559537, -0.0757946, 0.0252744, -0.0584399, -0.0347092, -0.0213285, -0.0999659, -0.060135, -0.04426, -0.101576, -0.123037, -0.147058, -0.23753, 0.217249, 0.174944, 0.0478641, 0.0310149, 0.206516, 0.1409, 0.0368557, -0.211248, -0.139214, -0.110866, -0.0471035, 0.212865, -0.0620269, 0.0597617, -0.0191648, -0.167874, 0.137008, -0.172834, -0.0925651, 0.153997, -0.0842623, -0.0733898, -0.14879, 0.128613, 0.000676263, 0.0654039, -0.141914, 0.0937158, -0.141027, 0.0324669, 0.0588829, -0.213043, 0.248814, 0.0605263, -0.129945, 0.0776668, 0.013058, -0.0107278, -0.0636332, -0.0407394, -0.156532, 0.00387561, 0.0152813, -0.123772, -0.099388, 0.0823153, -0.0291756, 0.00400606, 0.166536, -0.151979, 0.113263, 0.014878, 0.120395, -0.253548, -0.306551, -0.20781, -0.0191095, 0.133821, 0.0886926, 0.046806, 0.0984824, 0.0225581, -0.044499, 0.160654, -0.0472267, 0.226477, 0.0223923, -0.267261, 0.102743, -0.0168127, 0.023835, 0.210042, 0.188557, -0.00074693, 0.130186, 0.0200435, -0.0680639, 0.122483, -0.255839, 0.102903, -0.0646376, 0.228958, 0.236455, 0.0820137, 0.0826057, -0.0547702, 0.237571, 0.180781, 0.0198843, -0.223828, 0.0190844, -0.11071, 0.000706994, 0.0773564, -0.195596, 0.154805, 0.0319286, 0.0659638, 0.0311037, 0.16411, 0.130642, -0.0656857, 0.04248, -0.417782, -0.163447, 0.0548682, -0.0269514, 0.115147, 0.0405907, 0.299423, 0.0999921, 0.148882, 0.0621362, 0.237898, -0.0454001, 0.163792, 0.039796, -0.0668492, 0.164809, -0.0907571, -0.335764, 0.176908, 0.161696, -0.0580783, -0.0991483, -0.000759999, 0.0443819, -0.115071, 0.0243289, 0.0450859, -0.00744376, 0.0885441, -0.00652952, 0.00699703, -0.0723784, 0.136454, 0.141288, -0.22913, 0.0450788, 0.0509648, 0.160425, -0.12969, -0.0419539, -0.206976, -0.331025, -0.162575, 0.0308105, 0.075139, -0.0433321, -0.0224738, 0.0405279, -0.0802595, 0.071468, -0.0332446, -0.0491021, -0.0369323, 0.0410811, -0.348816, -0.0239884, 0.0828207, -0.118886, -0.0534085, -0.157995, -0.0694881, 0.282228, 0.0341707, 0.184582, 0.155028, -0.187842, 0.0103694, 0.0295542, 0.0442695, 0.025788, -0.16246, -0.0813783, -0.100402, 0.00108293, -0.0586487, -0.171949, -0.351978, -0.027571, -0.00907429, 0.157873, 0.107356, 0.0489601, 0.0970177, 0.0488814, -0.0647492, -0.208275, 0.19429, -0.109526, 0.0607323, -0.105106, -0.0810645, 0.188766, -0.0600578, 0.0850664, -0.136384, 0.0738796, 0.0315788, 0.210537, 0.216611, 0.203462, -0.0415672, 0.176306, 0.0542319, -0.0621495, 0.0086597, -0.0816557, 0.165068, 0.0325911, 0.0338989, 0.0235349, -0.177356, -0.000658785, 0.0511893, -0.0714811, 0.0405971, -0.00388498, -0.0344213, -0.331493, -0.173266, 0.100279, -0.00662088, 0.123569, 0.0402636, 0.0262594, 0.176513, -0.150443, -0.035166, 0.0317656, 0.0428887, -0.220767, 0.0806645, 0.166761, -0.134698, 0.0822344, -0.0518485, 0.0423699, 0.158027, 0.12656, -0.0580021, 0.0489461, 0.0366798, -0.0780171, 0.317827, -0.134344, -0.0563092, -0.123122, -0.0534824, 0.1549, -0.0862622, 0.0208089, -0.180198, -0.254237, 0.130724, -0.0145015, 0.0322036, 0.0452871, -0.0693621, 0.00641131, 0.149095, 0.0704425, 0.081037, 0.30714, 0.0661795, 0.205919, -0.242391, 0.0548125, 0.178358, -0.0333775, 0.128427, -0.254487, -0.101605, -0.165937, -0.0201522, 0.178966, 0.213599, -0.154787, -0.0353984, 0.177332, -0.0159128, -0.152126, 0.0235162, 0.153651, -0.227721, -0.120079, -0.0287223, -0.274165, -0.218934, -0.0597208, -0.247847, -0.0476828, 0.14727, 0.184055, 0.0678507, 0.049704, 0.168445, 0.141441, -0.019348, -0.0618261, -0.0662693, -0.118001, 0.0772968, -0.0578552, -0.0618185, -0.0046288, 0.156887, -0.0501342, -0.0734252, -0.11273, -0.092105, -0.00588671, -0.0875728, 0.0988421, 0.213625, -0.232726, 0.220573, 0.0905359, 0.0259458, 0.0615678, -0.0371817, -0.155421, -0.00323798, -0.39723, -0.0946655, 0.139193, 0.0929771, -0.123846, -0.16944, -0.00686494, 0.23001, -0.0462699, 0.0665173, 0.0127376, -0.0794151, -0.2048, 0.144826, -0.114645, -0.3496, 0.0774114, 0.0791294, -0.188801, 0.0563061, 0.0281502, -0.000781064, -0.120011, 0.0865226, 0.15573, 0.0429563, -0.0533076, 0.0252642, 0.0736448, 0.0184953, 0.154342, 0.102983, 0.0216293, -0.100883, -0.123269, 0.149772, -0.0812328, -0.0899022, -0.247631, 0.120114, 0.129092, 0.10195, 0.0625098, -0.0116266, 0.0463798, 0.0413663, 0.0170969, -0.146285, 0.078978, -0.127366, -0.0689166, -0.00757681, 0.0964044, -0.401827, 0.19909, 0.132209, -0.0554401, 0.0774535, -0.045161, 0.0194585, -0.219619, 0.0737347, -0.0736793, 0.196436, 0.0575157, -0.240177, -0.0390593, 0.119398, -0.0938336, -0.156195, 0.0734165, 0.0131876, -0.167085, 0.12972, 0.0689229, 0.235048, 0.247687, 0.0998925, -0.0414893, -0.0235896, -0.116842, -0.209613, 0.120271, -0.143133, 0.0170338, 0.0260571, 0.0710038, 0.0213701, 0.00710044, 0.104586, -0.143051, 0.046002, -0.174059, -0.125324, -0.0674519, 0.12652, 0.123064, 0.249076, 0.0600387, 0.227601, 0.0126412, -0.0198198, 0.117964, 0.0184657, 0.0829166, 0.22, 0.126467, -0.230165, 0.0700229, 0.251996, 0.0341525, 0.0840483, -0.212506, 0.0108728, -0.0395395, 0.0243552, 0.000600638, 0.160243, -0.102739, 0.163789, 0.0206058, -0.0111395, -0.0146496, -0.093266, 0.0373361, -0.0612204, 0.242783, -0.120334, -0.225733, 0.0337355, 0.160669, -0.0423166, -0.144866, 0.334398, -0.0149946, -0.0372477, -0.200373, 0.0253412, 0.00320546, 0.128165, 0.185328, 0.249201, 0.157153, 0.0472222, -0.124153, -0.0132965, 0.158076, -0.0360375, -0.0730194, 0.164671, 0.0972308, -0.11457, -0.066061, 0.170994, -0.170257, 0.063279, 0.192524, 0.0125711, 0.113402, -0.116862, -0.023725, -0.326443, 0.0936431, -0.108733, -0.123532, -0.169076, -0.212378, -0.0148984, -0.00470381, 0.074231, 0.255651, -0.00241111, -0.0394258, 0.194944, -0.118361, -0.0170888, -0.0655584, 0.0303953, 0.222714, 0.230353, 0.0127769, 0.0505193, -0.160103, 0.0964932, 0.0593185, 0.0552369, 0.123001, -0.0244008, -0.0690469, -0.121151, -0.0559113, -0.173786, -0.226369, 0.0804833, 0.059586, 0.136103, -0.216784, 0.00229434, -0.00133557, -0.030435, -0.0664226, 0.0119948, -0.202229, -0.0628837, -0.158626, 0.141359, 0.277201, -0.15722, -0.198033, 0.0904352, -0.0117022, 0.0150567, 0.0358319, -0.0251484, -0.31738, -0.173803, 0.0947204, 0.075524, 0.235031, -0.116611, 0.0265433, -0.0455867, 0.173102, -0.0203999, 0.0457461, 0.101983, 0.0412109, 0.0177088, 0.151145, -0.120408, -0.0703155, 0.26279, -0.0826123, -0.245329, -0.0309611, 0.0191026, 0.0588492, -0.18773, -0.132333, 0.0314829, 0.0836355, -0.152215, -0.0413349, -0.0490192, -0.0967548, 0.0798231, 0.0250063, -0.112701, -0.0351473, 0.204213, 0.0486462, -0.0714163, 0.114621, 0.127386, 0.0142079, 0.155171, -0.303356, 0.0575701, -0.0215862, -0.0810149, 0.158409, 0.118868, -0.0959143, 0.0130784, -0.115705, 0.16682, 0.0353698, 0.0401765, -0.0295453, 0.0718099, -0.381198, 0.153893, 0.205217, -0.127914, 0.0871774, 0.00699469, 0.258364, 0.0680728, 0.01823, -0.15052, 0.0227269, -0.0501685, 0.204649, 0.0445214, 0.0892213, 0.0114247, -0.0897505, -0.131388, 0.213848, 0.0339493, -0.0524209, 0.180027, -0.0373311, -0.0366037, 0.0586018, -0.030354, -0.0703076, 0.0507687, 0.121809, -0.0725282, -0.115613, 0.0471605, 0.177516, 0.140769, 0.0501099, -0.172519, 0.155978, -0.121014, 0.166522, -0.247165, -0.256742, -0.0255198, -0.292981, 0.12491, -0.018109, 0.0530895, -0.0698269, -0.128551, 0.117337, 0.0660953, 0.153318, 0.16132, 0.0378699, 0.15706, 0.168058, 0.00676738, 0.0398707, 0.0653452, 0.115227, -0.0543076, -0.189562, 0.170695, -0.262471, -0.223355, 0.133256, 0.038033, 0.0957857, 0.164167, 0.192344, 0.0744941, 0.0924794, 0.0295252, -0.264063, 0.0262554, 0.275696, -0.172771, -0.114129, 0.0007315, -0.148017, -0.261628, -0.161441, 0.00596794, 0.122997, 0.100419, 0.154758, -0.115219, 0.213702, 0.0284987, -0.0790693, -0.186827, -0.163403, 0.0682208, 0.122585, 0.162976, -0.0756644, -0.0859675, -0.0934647, -0.0817521, -0.192798, -0.0425764, -0.17958, -0.0578761, 0.332332, -0.0374649, -0.0614365, 0.0842592, 0.0352662, 0.156446, -0.00662802, -0.114558, 0.103552, -0.0872591, -0.0118109, 0.0466134, 0.0332334, -0.0110566, 0.171307, -0.0772411, -0.197417, 0.102374, -0.116058, -0.0483291, 0.248789, 0.0800188, -0.0392535, 0.198185, 0.213243, -0.161119, 0.0916037, -0.0244254, -0.171417, 0.277524, -0.0481663, -0.112361, 0.0156205, 0.0131551, 0.106369, -0.0583318, 0.0490443, -0.0257543, 0.0452375, -0.0478062, 0.0985697, -0.191043, 0.0152955, -0.0865376, 0.205526, -0.148746, -0.248157, -0.0955123, 0.250822, -0.0376519, 0.0736833, -0.083867, 0.216271, 0.0553718, -0.0196146, -0.0229247, -0.243049, -0.148234, 0.0897249, -0.137103, -0.0571671, -0.0445734, -0.0159223, -0.0921363, 0.0762624, -0.0471181, -0.129049, 0.22491, 0.0248483, -0.0345489, -0.140102, 0.187078, -0.0235911, 0.149775, 0.0554323, 0.136718, -0.00257539, 0.0756203, 0.113121, -0.00221396, -0.0435333, -0.0245384, -0.0190281, -0.0364428, 0.216776, 5.68385e-05, -0.0686058, -0.0232394, 0.0403223, -0.157553, -0.0559478, -0.129773, -0.19201, -0.141317, -0.0200765, -0.173324, 0.0324897, -0.115445, -0.130205, -0.0753012, -0.113143, 0.151867, -0.150865, -0.167698, 0.149063, -0.0482855, 0.244652, -0.0361005, -0.181467, -0.100939, 0.154874, -0.0454013, -0.124571, 0.102875, 0.124051, 0.109682, 0.2646, -0.218097, -0.134258, -0.0900211, -0.0646808, 0.0421782, -0.20859, -0.164725, 0.034688, 0.0531442, 0.0854365, 0.185249, 0.3855, 0.153438, 0.117957, -0.117387, -0.14124, 0.0346057, -0.207719, 0.0330871, 0.291635, 0.123922, 0.117125, -0.266805, 0.193192, 0.0119917, 0.0181732, 0.24275, 0.0592111, -0.0345989, -0.203937, 0.0557577, 0.104007, 0.0377725, 0.0657204, 0.00810767, 0.12611, 0.114003, 0.152665, -0.0255905, -0.0870394, 0.0714603, -0.0897649, 0.136009, 0.0957362, 0.0295537, 0.0684588, 0.0999945, 0.138122, -0.179689, 0.0613818, -0.0170838, -0.121981, 0.208851, -0.296394, 0.0254833, -0.135501, 0.0342491, 0.169711, -0.0187396, -0.0364891, 0.0958778, 0.0859272, 0.108961, -0.196902, -0.211799, 0.150207, 0.136832, 0.0241921, 0.0687345, 0.0320287, -0.134903, -0.037579, -0.136836, 0.0716639, 0.0218809, 0.107348, 0.141621, -0.0788164, 0.106656, 0.0253397, -0.0422493, -0.112789, 0.211427, 0.0670702, -0.0434128, 0.0127897, 0.0224225, -0.0343143, -0.105846, 0.0480998, -0.028477, -0.0467848, 0.00256803, 0.206893, -0.0125615, -0.0668085, -0.16582, -0.0873892, 0.0291275, -0.177835, 0.176561, 0.0900032, 0.0813211, 0.233222, 0.194348, -0.0647, -0.103924, -0.00183883, 0.187596, -0.0171213, -0.0806965, -0.00695467, 0.0504932, 0.264965, -0.209733, 0.0842685, 0.133435, -0.136704, 0.146287, -0.0367464, -0.00413553, -0.210375, -0.0816913, -0.150122, -0.0802741, 0.0596385, 0.0759941, -0.0365255, -0.122556, 0.0294824, 0.0390884, -0.0763183, -0.201993, -0.0117252, -0.0589764, -0.0586876, 0.317884, 0.123434, -0.20274, 0.168881, 0.177828, 0.118483, 0.0186626, -0.084868, -0.217189, -0.196074, -0.21721, -0.0758189, -0.111968, 0.104626, 0.189114, 0.0746609, 0.0491641, -0.1727, -0.101259, -0.00198259, -0.0844885, 0.0329257, -0.159349, 0.0494437, -0.121363, -0.100263, -0.140339, 0.0473654, 0.0616895, -0.160048, 0.18355, -0.0218323, 0.0418497, 0.0966644, -0.0992274, 0.118261, -0.0314902, -0.00992171, -0.0151887, -0.00213447, -0.0297029, -0.0577422, -0.215679, -0.222248, -0.0256516, -0.00265421, -0.00308606, -0.288471, 0.0220582, 0.254054, 0.0770661, -0.157079, 0.13718, 0.121957, 0.0905123, 0.246983, 0.109118, 0.0368657, -0.105321, -0.128959, -0.276965, -0.120875, -0.0778518, -0.023727, -0.0755523, 0.00239897, 0.111177, -0.140388, -0.162428, 0.307406, 0.0220765, -0.290832, -0.0138274, -0.0557301, -0.0931379, -0.238059, 0.119023, -0.0395507, 0.0847809, 0.209841, -0.0709605, -0.0673712, -0.194458, 0.00555966, 0.238639, -0.106047, -0.019091, -0.0509999, 0.148028, -0.118493, 0.195803, 0.0175213, -0.164856, -0.107944, 0.124718, 0.0795404, 0.0611369, -0.00616407, 0.107153, -0.206606, -0.1437, -0.0182766, 0.106787, -0.0336296, 0.0123259, 0.0463642, 0.102311, -0.255117, -0.098345, 0.100048, 0.120641, 0.123368, 0.050877, 0.0883834, 0.000589532, 0.0186662, 0.00496991, -0.0185439, -0.164878, -0.0399073, -0.0437666, -0.164992, 0.157344, -0.228214, 0.0374527, -0.0444716, 0.0231544, -0.0656921, -0.00742205, 0.196886, 0.0142957, -0.0882957, 0.0341922, -0.226106, -0.0585121, -0.125045, 0.011774, 0.102064, 0.0393999, -0.265828, -0.127286, -0.179549, -0.193994, -0.239881, -0.0358158, -0.111816, -0.0130159, 0.20864, 0.0976828, -0.092231, 0.0244365, 0.0842434, -0.141787, -0.0994348, -0.0766277, -0.177828, -0.186063, -0.269135, -0.103095, 0.00610612, -0.22963, 0.101666, -0.106131, -0.177125, 0.00820946, -0.200874, -0.131066, 0.198325, -0.128686, -0.111216, -0.136136, 0.161396, 0.140994, 0.173486, -0.195246, 0.0974427, 0.00913776, 0.0862857, -0.0807167, -0.0298282, -0.0555488, -0.014349, 0.144907, 0.0622607, 0.148923, 0.158824, 0.204203, -0.0800978, 0.108603, 0.246135, -0.0216979, -0.105608, 0.0809135, -0.0914686, 0.0547019, 0.0762723, -0.170279, 0.189784, -0.245587, -0.143948, -0.00507574, -0.11097, 0.232547, -0.242638, 0.0339026, -0.11456, -0.0187232, -0.0332557, 0.146134, 0.0605731, -0.0442277, -0.141794, 0.0131387, -0.0713812, -0.0245806, 0.2085, -0.0918195, 0.0636021, 0.15043, 0.215075, 0.12776, 0.391053, -0.155272, 0.0437592, -0.0366048, -0.0470986, -0.287231, -0.0162929, 0.202226, 0.309692, 0.098522, 0.512572, 0.1193, -0.307675, 0.0410102, -0.00805236, 0.146175, 0.178069, 0.286778, -0.143588, -0.120073, -0.0200881, -0.155865, -0.0199629, 0.00383795, 0.0155017, -0.159951, 0.0693639, 0.094986, -0.0212088, -0.0525055, 0.0394624, 0.00204733, 0.00831092, -0.164689, 0.0585181, -0.223339, 0.0910444, -0.43587, 0.0885733, 0.0138652, 0.0124313, -0.118884, 0.0908341, 0.049285, -0.0859298, 0.163559, 0.150751, 0.0205803, 0.042206, -0.0452304, 0.103945, -0.093279, -0.0196944, -0.0586019, 0.0934169, 0.169515, -0.0854041, -0.110154, 0.0171198, 0.0963208, -0.134236, 0.0830776, 0.0875564, -0.0361069, -0.0510873, -0.0171198, 0.248161, -0.0782933, 0.0691572, 0.0656513, -0.0992669, 0.0678861, 0.15647, -0.0589305, 0.125297, 0.166465, 0.10752, 0.0459772, -0.160191, -0.132253, 0.132272, 0.138663, -0.0530295, -0.0365214, -0.144214, -0.0759939, 0.030789, 0.178484, 0.2078, -0.0270866, -0.0529435, -0.0565117, 0.102211, -0.0573145, 0.0398262, -0.0356511, 0.373601, 0.080745, -0.0458261, 0.0832206, -0.0280022, 0.120919, -0.193141, 0.0273796, 0.146051, 0.119055, 0.0557211, -0.110064, 0.0607169, -0.2262, -0.0789794, 0.209294, 0.0908492, -0.0612086, 0.0795648, -0.164508, -0.206137, -0.309439, -0.0875329, 0.233708, 0.132967, -0.0465192, -0.181095, 0.187654, 0.0642115, 0.104131, 0.011713, -0.251034, 0.075653, -0.00928015, -0.142405, 0.0294661, -0.124286, 0.0224206, 0.0121223, 0.208322, -0.0393204, -0.110146, -0.165326, 0.279425, -0.0155475, 0.00913097, -0.19786, -0.154072, -0.0141726, -0.0230682, 0.069593, -0.083189, -0.0477469, -0.165567, -0.0795236, 0.104562, 0.104251, 0.0727241, 0.0594171, -0.0348135, 0.151698, -0.0362955, -0.061838, -0.0515068, -0.166931, 0.186592, -0.0249554, -0.0198925, -0.217264, 0.3649, 0.0521825, -0.00874195, -0.0817635, -0.0442969, 0.115212, -0.065533, 0.14472, -0.0867552, -0.119926, -0.270106, -0.0548988, -0.155712, 0.0467276, 0.386493, -0.00725257, 0.140241, 0.179625, -0.112249, -0.070192, 0.0987818, -0.114254, 0.0210698, 0.0859625, -0.0474529, 0.0782884, -0.107567, 0.140205, -0.0647333, 0.00125873, -0.0293063, 0.163865, -0.00212946, 0.0182308, 0.174899, -0.199836, -0.162214, 0.23758, 0.152737, -0.0500098, -0.0390471, -0.0734208, 0.145831, -0.127114, -0.211216, 0.202531, -0.129035, -0.0800845, 0.0810576, -0.0707495, -0.0994622, 0.0897456, -0.212805, 0.110643, -0.135265, -0.0282509, -0.0149201, 0.0225065, -0.0620827, 0.00281084, -0.019561, 0.1578, -0.287044, 0.0782166, -0.0988343, -0.118651, -0.321471, 0.0220657, -0.0699597, 0.0598529, 0.00142364, -0.202298, -0.047141, -0.0409248, -0.0145402, 0.0755992, 0.059628, -0.0973277, 0.0885497, 0.147748, 0.106303, -0.222138, 0.0513461, 0.00940112, 0.0278184, 0.0155857, -0.105169, 0.291235, -0.0243913, 0.00390353, -0.140794, -0.0528094, 0.0619848, -0.0765253, -0.0858222, 0.0587159, -0.0408378, 0.0497793, 0.0707026, 0.0828017, 0.125678, 0.12605, 0.0076802, 0.106887, 0.0911712, 0.113332, -0.11591, -0.00950963, 0.0285967, 0.1356, -0.0844603, 0.0121273, 0.107343, -0.0847737, -0.0143058, 0.00840304, -0.106331, 0.127744, 0.0803532, 0.140984, 0.0885315, 0.0277481, 0.129384, -0.040928, -0.322768, -0.0863163, 0.0977893, 0.0155007, 0.0875388, 0.00532451, 0.0435258, -0.223583, -0.173627, 0.105577, 0.155004, -0.14699, 0.0104697, -0.0981034, 0.0989895, -0.26094, -0.0711928, -0.318893, 0.0992078, -0.071356, -0.248528, 0.0161797, -0.0843954, 0.0861729, 0.0745668, -0.00779661, 0.107779, 0.106646, 0.0626969, -0.169641, -0.15777, -0.119423, -0.0603576, -0.0238371, 0.082501, 0.0257187, -0.210035, -0.171337, -0.0277549, 0.0229163, 0.0789685, 0.107062, 0.132184, -0.0109136, -0.0480009, 0.189763, 0.00438421, 0.0851987, 0.402265, 0.166243, 0.0674485, -0.119695, -0.0766065, -0.0061897, 0.191677, 0.0237551, 0.0289396, 0.015276, 0.0630403, 0.0293509, 0.0869662, -0.0344758, 0.192351, 0.0141938, 0.154157, -0.0210656, -0.0684242, -0.0331177, -0.108021, 0.0312691, -0.0966947, -0.0369747, -0.0423349, 0.187863, -0.123415, 0.020389, 0.0845282, 0.198525, -0.0470599, 0.000678986, 0.0713838, 0.0569677, 0.0507568, 0.101647, -0.0106683, -0.0908087, -0.0144557, 0.119394, -0.0183639, 0.171434, -0.139272, -0.126582, 0.0727095, -0.209426, 0.0607235, -0.126492, -0.158701, -0.141095, -0.161203, -0.147195, -0.0403311, -0.254987, 0.0803542, 0.0272052, -0.0482147, -0.154841, 0.0953912, -0.262879, 0.00495809, -0.0757838, -0.121226, -0.137153, -0.135199, -0.0637324, 0.224286, 0.104021, -0.0368425, 0.0611403, -0.0514071, 0.243849, 0.0955693, 0.042626, 0.0788721, 0.119974, 0.100779, 0.13958, -0.0270621, -0.0940743, -0.0755377, 0.0758987, -0.0185011, 0.30732, -0.108978, -0.152255, 0.0676668, 0.0422069, -0.173823, 0.102967, 0.18717, -0.0220983, 0.147977, -0.205882, -0.23227, -0.0289143, -0.0188432, -0.0206803, -0.113625, 0.10228, 0.074865, 0.430648, -0.0693723, 0.112516, -0.0799003, 0.0777334, 0.182088, -0.0994505, -0.133604, -0.0192218, 0.0876494, -0.00131808, -0.00944858, 0.0213082, -0.0813015, 0.170564, -0.0997073, -0.130383, 0.152006, 0.145133, -0.0055742, 0.0324054, 0.00374733, -0.09141, 0.207171, 0.0710695, -0.0589997, 0.0269543, -0.000774278, 0.00492207, -0.0220928, -0.0544023, 0.213769, -0.00551067, 0.0937939, 0.109742, -0.00929823, 0.125179, 0.0635238, 0.0050778, -0.0594795, 0.0213037, 0.0472206, -0.166471, 0.0325515, -0.0317342, -0.085074, 0.137902, 0.0393393, 0.0166305, -0.0704287, -0.0993466, 0.0219269, 0.0816221, -0.0090693, 0.06628, 0.0247982, 0.310313, 0.0895537, -0.0481499, 0.127086, -0.0593645, -0.0230806, 0.0132043, -0.20675, -0.0829264, -0.171231, -0.23923, -0.239888, 0.151547, -0.137455, -0.0209255, -0.250168, 0.0574716, 0.00467087, -0.311835, 0.128682, -0.0690383, -0.0737572, -0.0869846, -0.105959, -0.0689372, -0.224263, -0.219435, 0.0754321, -0.0801157, 0.0786834, 0.253824, 0.0136797, 0.129378, -0.174114, 0.0299997, -0.00741514, -0.0671161, -0.186202, 0.0671444, 0.0384347, 0.200293, 0.0936198, -0.0334151, -0.209067, 0.0996612, 0.157121, -0.0516934, -0.111806, 0.0851235, -0.123981, -0.207255, 0.0455966, -0.143547, 0.0341922, 0.164301, 0.0197961, -0.0666018, -0.00291041, -0.29537, 0.112481, -0.154747, 0.0393988, 0.108498, -0.0751802, 0.0446354, -0.0671258, 0.185975, 0.0134308, 0.0607066, 0.131443, -0.117817, 0.0526192, 0.161952, -0.0665358, -0.105546, -0.0264541, 0.0874516, -0.159624, -0.173449, -0.0923436, -0.00580311, -0.165735, -0.00825574, 0.0524657, -0.2197, 0.250055, -0.19624, -0.00575375, -0.0974535, 0.065749, -0.27471, 0.135735, -0.0847655, -0.0123983, 0.144586, 0.0101969, 0.169397, -0.0278155, -0.138103, 0.107587, -0.00355854, -0.0747956, -0.00283437, 0.0365548, -0.0674847, -0.111676, -0.188364, -0.191238, 0.132505, -0.0272345, 0.0248185, 0.189772, -0.0449479, -0.0280735, -0.057041, 0.06539, -0.180675, 0.0441989, -0.189799, -0.320329, 0.0164251, -0.255087, -0.0810441, -0.00196704, 0.0889588, -0.144241, -0.306989, 0.157286, -0.0225912, 0.0282021, 0.239376, -0.00612937, 0.0639048, 0.18023, 0.11359, 0.164026, -0.280436, -0.0185907, 0.317218, 0.200319, -0.0534683, 0.214055, -0.133653, -0.119575, 0.16676, 0.0122298, 0.232541, -0.141437, -0.0149634, -0.164894, -0.119282, -0.174232, -0.0203951, -0.10405, 0.0470721, -0.079406, -0.122531, -0.0481059, -0.0902008, 0.0427949, -0.0793359, -0.106072, 0.00898055, -0.246498, -0.115342, -0.046746, 0.403114, 0.113455, -0.100513, -0.0854557, 0.0276672, -0.0731881, -0.0532288, -0.0640904, 0.0750323, 0.259082, 0.160135, -0.0980832, 0.0478064, 0.0896493, 0.0325109, -0.00186224, 0.137559, 0.183374, 0.103753, -0.112359, -0.0722788, 0.105661, -0.0252221, 0.0542839, -0.0802232, -0.0200311, -0.106896, -0.1891, 0.00256594, 0.0649632, 0.18016, -0.00711607, -0.147987, -0.131076, -0.0353044, -0.0321395, -0.0831732, 0.02462, 0.184429, -0.171555, 0.277254, -0.0757399, -0.199622, 0.116662, 0.222937, 0.00720783, -0.0239596, -0.0780979, -0.0824389, -0.0995966, 0.163987, -0.348568, -0.138602, 0.303504, 0.156595, 0.101657, 0.24347, -0.277536, -0.138343, -0.0568543, -0.166951, 0.309305, -0.0790011, 0.050633, -0.0201723, -0.00469626, -0.0153776, 0.302004, -0.141143, -0.261172, -0.0718324, -0.214446, 0.0179958, -0.0991556, -0.057126, -0.12227, -0.0382311, 0.0890237, -0.211274, -0.0636983, -0.0704703, -0.00278252, 0.00126326, 0.0297628, 0.194543, -0.0856905, -0.112111, 0.0671647, 0.0786765, 0.284258, -0.0864482, -0.0463352, -0.149199, -0.050341, -0.196702, 0.131763, 0.0226867, -0.0790043, -0.0932435, -0.0962567, 0.23643, 0.0808837, 0.115262, 0.0515086, -0.0474309, 0.140902, 0.0519677, 0.0727313, 0.126003, 0.0192074, 0.17884, 0.166901, 0.447535, -0.0259154, 0.0506257, -0.0325463, -0.049053, -0.181929, -0.0568781, 0.0775277, 0.0053144, -0.0781059, -0.0909323, -0.0169262, -0.0106985, -0.106788, 0.0528412, -0.173687, -0.131258, -0.070431, -0.0334347, -0.156704, 0.106701, 0.000566291, 0.0610697, -0.108712, 0.0565581, -0.0792038, -0.114107, 0.0395612, -0.0116173, 0.0139521, 0.0346653, -0.11615, -0.106228, 0.0285153, -0.0435285, -0.166623, 0.111121, 0.0834614, 0.166335, -0.0246256, 0.180329, -0.00263829, -0.0546375, -0.270242, -0.00522826, 0.164167, 0.298219, -0.117788, -0.10703, 0.160222, -0.157763, -0.0439994, 0.072724, -0.00227207, 0.137847, -0.217304, -0.0794361, -0.357279, -0.312233, 0.206478, 0.0795378, -0.212731, -0.616107, 0.291478, -0.0125084, 0.0442386