{
    "biases": [
        [
            0.10000000149011612,
            0.10000000149011612,
            0.10000000149011612,
            0.10000000149011612,
            0.10000000149011612,
            0.10000000149011612,
            0.10000000149011612,
            0.10000000149011612,
            0.10000000149011612,
            0.10000000149011612,
            0.10000000149011612,
            0.10000000149011612,
            0.10000000149011612,
            0.10000000149011612,
            0.10000000149011612,
            0.10000000149011612,
            0.10000000149011612,
            0.10000000149011612,
            0.10000000149011612,
            0.10000000149011612,
            0.10000000149011612,
            0.10000000149011612,
            0.10000000149011612,
            0.10000000149011612,
            0.10000000149011612,
            0.10000000149011612,
            0.10000000149011612,
            0.10000000149011612,
            0.10000000149011612,
            0.10000000149011612,
            0.10000000149011612,
            0.10000000149011612
        ],
        [
            0.10000000149011612,
            0.10000000149011612,
            0.10000000149011612,
            0.10000000149011612,
            0.10000000149011612,
            0.10000000149011612,
            0.10000000149011612,
            0.10000000149011612,
            0.10000000149011612,
            0.10000000149011612,
            0.10000000149011612,
            0.10000000149011612,
            0.10000000149011612,
            0.10000000149011612,
            0.10000000149011612,
            0.10000000149011612
        ],
        [
            0.10000000149011612
        ]
    ],
    "topology": [
        3,
        32,
        16,
        1
    ],
    "weights": [
        [
            0.38931116461753845,
            -0.1453915238380432,
            -0.2283501774072647,
            -0.3065096139907837,
            -0.3360210359096527,
            -0.0894106924533844,
            0.3508214056491852,
            -0.06812512874603271,
            -0.06441503763198853,
            -0.32815021276474,
            -0.3011733889579773,
            -0.21448378264904022,
            -0.18687205016613007,
            0.33371153473854065,
            -0.3418641686439514,
            -0.3167405128479004,
            0.276235967874527,
            -0.10968887805938721,
            -0.36847761273384094,
            -0.15664806962013245,
            -0.03019973635673523,
            -0.20130424201488495,
            0.12181755900382996,
            0.00010070204734802246,
            -0.3907201588153839,
            -0.3294849097728729,
            -0.19358012080192566,
            0.23058322072029114,
            -0.3909749686717987,
            -0.32589662075042725,
            -0.053545087575912476,
            0.4123755395412445,
            -0.0572488009929657,
            0.13214412331581116,
            -0.30817338824272156,
            0.020769506692886353,
            -0.3713059425354004,
            -0.37139132618904114,
            0.3666837513446808,
            -0.021681636571884155,
            -0.28550219535827637,
            -0.34852898120880127,
            0.17787393927574158,
            -0.058334916830062866,
            0.39922192692756653,
            0.25004908442497253,
            0.038963913917541504,
            0.2614186108112335,
            -0.27367913722991943,
            0.08452561497688293,
            -0.3092688024044037,
            0.11016049981117249,
            0.29726073145866394,
            0.22658810019493103,
            -0.30377814173698425,
            0.3205799162387848,
            0.31114253401756287,
            -0.08331894874572754,
            0.13712379336357117,
            0.3342069089412689,
            0.004823803901672363,
            -0.33046063780784607,
            0.33254310488700867,
            0.36161431670188904,
            0.21572282910346985,
            -0.38966959714889526,
            -0.03165552020072937,
            0.25845620036125183,
            -0.34702157974243164,
            -0.07901111245155334,
            -0.17726479470729828,
            -0.21848444640636444,
            -0.013500750064849854,
            -0.41343021392822266,
            0.13721999526023865,
            -0.028318136930465698,
            0.250658243894577,
            -0.2378554493188858,
            -0.18093885481357574,
            0.39101842045783997,
            0.2607095539569855,
            -0.07616832852363586,
            0.08713951706886292,
            0.14393094182014465,
            -0.2636195719242096,
            0.19740071892738342,
            0.050471484661102295,
            -0.3665163815021515,
            -0.2999575436115265,
            -0.2264440655708313,
            0.3817298710346222,
            0.11890557408332825,
            -0.1428653597831726,
            0.3002336919307709,
            0.06648051738739014,
            -0.3411819040775299
        ],
        [
            0.2771829068660736,
            -0.32381585240364075,
            0.28291288018226624,
            0.3344102203845978,
            -0.037731051445007324,
            -0.22200915217399597,
            -0.205709770321846,
            0.3042939007282257,
            -0.22148901224136353,
            0.26501747965812683,
            -0.07344070076942444,
            0.34610453248023987,
            -0.2916436493396759,
            0.1256067156791687,
            0.32644668221473694,
            0.2845328748226166,
            -0.29298776388168335,
            0.047302842140197754,
            0.053883910179138184,
            -0.16454245150089264,
            -0.1376875936985016,
            -0.2565712630748749,
            -0.12396200001239777,
            -0.04027169942855835,
            -0.0963813066482544,
            -0.15155144035816193,
            -0.2922901511192322,
            0.1351775825023651,
            -0.24873152375221252,
            0.1180318295955658,
            0.19739148020744324,
            -0.3251020014286041,
            0.14776936173439026,
            0.12675094604492188,
            -0.34424519538879395,
            -0.24351507425308228,
            0.2582952082157135,
            -0.19640156626701355,
            -0.2927745580673218,
            -0.31674724817276,
            -0.28493747115135193,
            -0.012661874294281006,
            -0.32419607043266296,
            -0.22302775084972382,
            -0.2406085580587387,
            -0.35130277276039124,
            -0.29204827547073364,
            -0.18004295229911804,
            0.04955345392227173,
            0.11538901925086975,
            0.008967995643615723,
            0.26541921496391296,
            0.2123710811138153,
            0.23855939507484436,
            -0.1284058690071106,
            -0.2375635802745819,
            -0.26654544472694397,
            -0.06714263558387756,
            0.25116732716560364,
            -0.16172358393669128,
            -0.302664190530777,
            0.09500545263290405,
            -0.1332722157239914,
            0.1986585557460785,
            -0.13179700076580048,
            -0.12396401166915894,
            0.3086968958377838,
            -0.22705522179603577,
            0.033187806606292725,
            -0.3376310467720032,
            -0.19024907052516937,
            0.101803719997406,
            0.0032604336738586426,
            -0.16089175641536713,
            0.2323293387889862,
            0.11620527505874634,
            -0.15864115953445435,
            0.29383447766304016,
            0.2897156774997711,
            0.2444656789302826,
            0.05567005276679993,
            -0.05486968159675598,
            0.15633150935173035,
            -0.08551222085952759,
            -0.16986370086669922,
            -0.32562774419784546,
            0.030477553606033325,
            -0.08285576105117798,
            -0.03921699523925781,
            -0.07190844416618347,
            0.10897403955459595,
            0.01167219877243042,
            -0.33045637607574463,
            0.32925519347190857,
            -0.1432226151227951,
            -0.10870000720024109,
            -0.1482621729373932,
            -0.1880791336297989,
            0.017798155546188354,
            0.23847898840904236,
            -0.17215681076049805,
            0.18110248446464539,
            -0.013270646333694458,
            0.1846570074558258,
            -0.33334267139434814,
            -0.13449470698833466,
            -0.052691102027893066,
            -0.13843046128749847,
            -0.1942136287689209,
            -0.11652877926826477,
            -0.24751818180084229,
            0.21500977873802185,
            0.18215492367744446,
            0.2623666822910309,
            -0.22405581176280975,
            -0.34126216173171997,
            0.29029229283332825,
            0.15997514128684998,
            -0.07056453824043274,
            -0.10247805714607239,
            -0.2654866576194763,
            -0.315143883228302,
            0.26274755597114563,
            -0.24238967895507813,
            -0.33944207429885864,
            -0.23402848839759827,
            0.002463698387145996,
            -0.13415084779262543,
            -0.06855422258377075,
            -0.33329153060913086,
            -0.24922522902488708,
            0.1128423810005188,
            0.20136430859565735,
            0.09105750918388367,
            -0.056053996086120605,
            0.2215750515460968,
            0.31011614203453064,
            0.24480828642845154,
            -0.2704088091850281,
            -0.2376508265733719,
            -0.22527387738227844,
            -0.16437360644340515,
            0.330912321805954,
            0.3104344308376312,
            -0.2555602788925171,
            -0.2466968297958374,
            0.3227256238460541,
            -0.31882134079933167,
            0.2668316662311554,
            -0.10139229893684387,
            -0.06774601340293884,
            -0.35220837593078613,
            -0.06298282742500305,
            -0.1585518717765808,
            -0.24104464054107666,
            -0.048871517181396484,
            -0.03902697563171387,
            0.11497244238853455,
            0.17053106427192688,
            0.2459721863269806,
            0.13523432612419128,
            0.274859219789505,
            0.005261152982711792,
            -0.016954779624938965,
            0.012363314628601074,
            0.302760511636734,
            -0.14893311262130737,
            -0.03107386827468872,
            0.19401541352272034,
            -0.06578856706619263,
            0.08482867479324341,
            0.3222949802875519,
            0.12339121103286743,
            0.062187641859054565,
            0.2791759669780731,
            0.22138431668281555,
            0.16904416680335999,
            0.248348206281662,
            0.2561163604259491,
            0.08232247829437256,
            -0.2065974771976471,
            -0.16518303751945496,
            0.08366751670837402,
            0.08397307991981506,
            0.029818475246429443,
            0.19617626070976257,
            -0.31845179200172424,
            0.3443448841571808,
            -0.04240471124649048,
            0.20563259720802307,
            0.23676368594169617,
            -0.2607237696647644,
            0.12693843245506287,
            -0.11152856051921844,
            0.07587483525276184,
            -0.21425163745880127,
            -0.16232141852378845,
            0.28049513697624207,
            0.10822787880897522,
            -0.32185935974121094,
            -0.13884682953357697,
            -0.16049684584140778,
            -0.35311779379844666,
            0.33809778094291687,
            0.2552442252635956,
            0.2796115577220917,
            0.2059287130832672,
            0.07073500752449036,
            0.17440637946128845,
            0.1084916889667511,
            -0.2004958689212799,
            0.32136228680610657,
            0.29686203598976135,
            0.23672500252723694,
            0.05178198218345642,
            -0.026872873306274414,
            0.0793478786945343,
            0.08688357472419739,
            -0.036081403493881226,
            -0.316610187292099,
            -0.06103718280792236,
            -0.15287110209465027,
            -0.2237805724143982,
            -0.2876521348953247,
            0.08915373682975769,
            0.20564767718315125,
            -0.14835038781166077,
            0.28038570284843445,
            0.1325893998146057,
            0.31343087553977966,
            0.31207969784736633,
            0.3472959101200104,
            -0.20061933994293213,
            0.3125152885913849,
            0.33184030652046204,
            -0.29892852902412415,
            0.23857346177101135,
            0.18421563506126404,
            0.12535986304283142,
            0.059426456689834595,
            -0.060846030712127686,
            0.2784173786640167,
            0.02723538875579834,
            -0.11753737926483154,
            0.16158905625343323,
            -0.27453604340553284,
            0.20914313197135925,
            -0.11261646449565887,
            0.16590091586112976,
            -0.18049165606498718,
            -0.07567325234413147,
            -0.2486896812915802,
            0.02019062638282776,
            0.05409955978393555,
            -0.1827884316444397,
            -0.24420903623104095,
            -0.0938061773777008,
            0.022414565086364746,
            -0.3173767328262329,
            -0.3147701919078827,
            -0.0177079439163208,
            0.348256379365921,
            -0.3210276663303375,
            0.13522610068321228,
            0.3072182834148407,
            -0.3427407145500183,
            0.18985095620155334,
            0.19223836064338684,
            0.19502827525138855,
            -0.038342565298080444,
            -0.10188859701156616,
            -0.21937112510204315,
            -0.11347860097885132,
            0.2789001762866974,
            0.01664489507675171,
            -0.3054429590702057,
            -0.34918928146362305,
            -0.12776538729667664,
            -0.06450605392456055,
            0.17026498913764954,
            0.045296311378479004,
            0.2133740484714508,
            0.27512869238853455,
            -0.28806641697883606,
            -0.08607977628707886,
            -0.261213093996048,
            -0.1787220686674118,
            0.17366746068000793,
            0.1147548258304596,
            -0.1425454169511795,
            0.21245065331459045,
            -0.2565065026283264,
            -0.14784246683120728,
            0.24497637152671814,
            0.2322729527950287,
            -0.19417758285999298,
            0.25578901171684265,
            0.06857055425643921,
            0.3516141474246979,
            0.09726393222808838,
            -0.32332542538642883,
            -0.1038278341293335,
            0.23144617676734924,
            -0.08325061202049255,
            -0.1784810721874237,
            -0.10546232759952545,
            -0.03514021635055542,
            -0.17411696910858154,
            0.12032565474510193,
            0.25390711426734924,
            0.3497014343738556,
            -0.18793140351772308,
            0.11372783780097961,
            0.2712767422199249,
            -0.12244443595409393,
            -0.32590532302856445,
            -0.34348973631858826,
            0.052386850118637085,
            0.2013154923915863,
            0.12481847405433655,
            0.2633948028087616,
            0.06021270155906677,
            0.22186538577079773,
            -0.2380010187625885,
            -0.048364341259002686,
            0.1005849838256836,
            -0.07862523198127747,
            -0.14612869918346405,
            -0.1843978613615036,
            -0.0805644690990448,
            0.30468860268592834,
            -0.15416990220546722,
            0.1691611111164093,
            0.18258139491081238,
            0.11613285541534424,
            0.3442334234714508,
            -0.27643436193466187,
            -0.272560715675354,
            -0.18343694508075714,
            0.19744470715522766,
            0.33489975333213806,
            -0.18728891015052795,
            -0.3440400958061218,
            0.09507423639297485,
            -0.26956555247306824,
            -0.11293114721775055,
            0.12272226810455322,
            -0.2595018744468689,
            0.29300907254219055,
            -0.029515624046325684,
            0.21886995434761047,
            0.20285055041313171,
            -0.3228563070297241,
            0.08718198537826538,
            0.3184029161930084,
            -0.01766723394393921,
            -0.16578641533851624,
            -0.11377568542957306,
            0.18975743651390076,
            0.0033690929412841797,
            0.15921321511268616,
            0.1408926248550415,
            0.20275261998176575,
            -0.02517905831336975,
            -0.030079394578933716,
            -0.03466793894767761,
            -0.03449904918670654,
            0.047039687633514404,
            0.046324729919433594,
            0.13561737537384033,
            -0.10906901955604553,
            0.027671128511428833,
            0.3018818795681,
            -0.09955573081970215,
            -0.2308080494403839,
            -0.32123708724975586,
            0.14106646180152893,
            0.24546757340431213,
            -0.22718557715415955,
            0.08052217960357666,
            -0.13760143518447876,
            0.3452378213405609,
            -0.07018065452575684,
            -0.10690434277057648,
            0.0788663923740387,
            -0.10533112287521362,
            0.22898182272911072,
            0.26663342118263245,
            0.13444656133651733,
            0.06518587470054626,
            -0.08355087041854858,
            -0.05989360809326172,
            -0.14747489988803864,
            -0.23435167968273163,
            0.26848074793815613,
            0.17599913477897644,
            0.08453375101089478,
            -0.11957170069217682,
            -0.13051460683345795,
            -0.22269487380981445,
            -0.3375076949596405,
            0.11396974325180054,
            0.1585296094417572,
            0.3179275095462799,
            -0.3391393721103668,
            0.2812749445438385,
            0.35024383664131165,
            0.15548047423362732,
            0.1731891930103302,
            -0.2304951250553131,
            -0.11755070090293884,
            -0.31796562671661377,
            -0.2388106882572174,
            0.16582205891609192,
            -0.07131657004356384,
            0.1936090886592865,
            -0.2930624783039093,
            -0.19588814675807953,
            0.10668909549713135,
            0.19493749737739563,
            0.22285106778144836,
            -0.33041518926620483,
            -0.2185095101594925,
            -0.2781772017478943,
            -0.21121346950531006,
            -0.30358216166496277,
            0.251375287771225,
            0.2268737256526947,
            -0.06960049271583557,
            -0.2326926738023758,
            -0.34937456250190735,
            -0.053554803133010864,
            0.23483046889305115,
            0.16270843148231506,
            -0.08918064832687378,
            0.24924442172050476,
            0.09043002128601074,
            -0.09249019622802734,
            0.051171571016311646,
            -0.08993417024612427,
            0.030568093061447144,
            0.287174254655838,
            -0.05434641242027283,
            0.14531078934669495,
            0.09944292902946472,
            0.22789040207862854,
            -0.014633506536483765,
            0.15993377566337585,
            -0.321551114320755,
            -0.2614977955818176,
            0.0013178884983062744,
            0.25485333800315857,
            -0.23835961520671844,
            0.13636177778244019,
            0.3302295506000519,
            -0.0960196852684021,
            0.18633297085762024,
            0.22805151343345642,
            -0.222699373960495,
            -0.23682086169719696,
            0.34891214966773987,
            -0.21852056682109833,
            0.06317770481109619,
            0.23018929362297058,
            0.29774126410484314,
            0.3275504410266876,
            0.12588033080101013,
            0.03461790084838867,
            -0.11849309504032135,
            -0.17650146782398224,
            0.2982371747493744,
            0.2656283676624298,
            -0.24288059771060944,
            -0.10966263711452484,
            0.05738574266433716,
            0.2101157009601593,
            -0.23532560467720032,
            -0.3108011484146118,
            0.01649615168571472,
            -0.2033233493566513,
            -0.21874557435512543,
            -0.3357393443584442,
            -0.30202338099479675,
            -0.10355180501937866,
            0.15417584776878357,
            -0.3253471851348877,
            0.15398189425468445,
            -0.013044565916061401,
            0.25625768303871155,
            0.28483590483665466,
            0.10368794202804565,
            0.2516164481639862,
            -0.28723806142807007,
            -0.18668770790100098,
            0.12825235724449158,
            -0.34305018186569214,
            -0.21269063651561737,
            -0.0994206964969635,
            0.04512116312980652,
            0.02236965298652649,
            0.07763120532035828,
            -0.010195106267929077,
            -0.0655553936958313,
            0.18830403685569763,
            0.23369565606117249,
            0.34538379311561584,
            0.044866323471069336,
            0.3519234359264374,
            -0.31897076964378357,
            -0.29219093918800354,
            -0.20495331287384033,
            -0.18416297435760498
        ],
        [
            -0.46104544401168823,
            -0.25780272483825684,
            0.11063098907470703,
            0.39211034774780273,
            -0.2104068398475647,
            -0.2247161865234375,
            -0.22389745712280273,
            -0.37389636039733887,
            -0.34018468856811523,
            0.5444217920303345,
            -0.5451846122741699,
            -0.22875267267227173,
            -0.3633649945259094,
            0.2644110321998596,
            -0.21110370755195618,
            -0.12666824460029602
        ]
    ]
}