{
    "biases": [
        [
            0.10000000149011612,
            0.10000000149011612,
            0.10000000149011612,
            0.10000000149011612,
            0.10000000149011612,
            0.10000000149011612,
            0.10000000149011612,
            0.10000000149011612,
            0.10000000149011612,
            0.10000000149011612,
            0.10000000149011612,
            0.10000000149011612,
            0.10000000149011612,
            0.10000000149011612,
            0.10000000149011612,
            0.10000000149011612,
            0.10000000149011612,
            0.10000000149011612,
            0.10000000149011612,
            0.10000000149011612,
            0.10000000149011612,
            0.10000000149011612,
            0.10000000149011612,
            0.10000000149011612,
            0.10000000149011612,
            0.10000000149011612,
            0.10000000149011612,
            0.10000000149011612,
            0.10000000149011612,
            0.10000000149011612,
            0.10000000149011612,
            0.10000000149011612
        ],
        [
            0.10000000149011612,
            0.10000000149011612,
            0.10000000149011612,
            0.10000000149011612,
            0.10000000149011612,
            0.10000000149011612,
            0.10000000149011612,
            0.10000000149011612,
            0.10000000149011612,
            0.10000000149011612,
            0.10000000149011612,
            0.10000000149011612,
            0.10000000149011612,
            0.10000000149011612,
            0.10000000149011612,
            0.10000000149011612
        ],
        [
            0.10000000149011612
        ]
    ],
    "topology": [
        2,
        32,
        16,
        1
    ],
    "weights": [
        [
            -0.18242867290973663,
            0.014416784048080444,
            -0.2818894386291504,
            0.36140111088752747,
            0.013662070035934448,
            -0.07316550612449646,
            0.34460386633872986,
            -0.01994970440864563,
            -0.23517782986164093,
            0.18391433358192444,
            -0.1975627988576889,
            -0.31586959958076477,
            0.14695486426353455,
            -0.01707354187965393,
            0.10033443570137024,
            -0.3719635009765625,
            0.41817548871040344,
            0.3674161732196808,
            0.0163860023021698,
            0.0411907434463501,
            0.1627553403377533,
            0.41451892256736755,
            -0.40794602036476135,
            -0.29367250204086304,
            -0.21756450831890106,
            -0.031898826360702515,
            0.00046387314796447754,
            0.40672001242637634,
            -0.3471273183822632,
            -0.0018221139907836914,
            0.035474807024002075,
            -0.10947197675704956,
            -0.4074893593788147,
            0.17366936802864075,
            -0.16815486550331116,
            0.026256710290908813,
            -0.31958016753196716,
            -0.24363502860069275,
            -0.41377702355384827,
            -0.13467398285865784,
            0.36036333441734314,
            -0.19125577807426453,
            -0.030459553003311157,
            0.08723410964012146,
            0.211754709482193,
            -0.3502090871334076,
            0.1353546679019928,
            0.20984622836112976,
            -0.40287691354751587,
            -0.26834338903427124,
            -0.16904708743095398,
            0.17996248602867126,
            -0.27390849590301514,
            -0.15690907835960388,
            0.3063739836215973,
            -0.07138898968696594,
            0.23127612471580505,
            -0.1132461428642273,
            -0.08475306630134583,
            0.30423280596733093,
            0.3050157129764557,
            0.3708057701587677,
            -0.22532318532466888,
            0.31761041283607483
        ],
        [
            0.10469070076942444,
            0.022392243146896362,
            -0.06414607167243958,
            0.1892772614955902,
            0.1708962619304657,
            -0.05883792042732239,
            -0.2776211202144623,
            0.12063375115394592,
            0.13374972343444824,
            0.05029675364494324,
            -0.15950113534927368,
            -0.04158550500869751,
            0.10910528898239136,
            0.30797019600868225,
            -0.21852697432041168,
            0.12358719110488892,
            -0.27142781019210815,
            -0.007247895002365112,
            -0.07850521802902222,
            -0.14840279519557953,
            0.21424683928489685,
            -0.1742064654827118,
            0.1450677514076233,
            0.05534130334854126,
            0.08403605222702026,
            -0.2798159122467041,
            -0.042162030935287476,
            -0.01280832290649414,
            -0.3212897777557373,
            0.12175363302230835,
            -0.09905272722244263,
            0.13695427775382996,
            -0.20940746366977692,
            0.1903546154499054,
            -0.02732178568840027,
            0.315042108297348,
            -0.22203673422336578,
            0.04861047863960266,
            0.08212250471115112,
            0.26526638865470886,
            -0.2546461522579193,
            0.27617475390434265,
            -0.12987251579761505,
            0.20801249146461487,
            0.23059150576591492,
            0.0051538944244384766,
            -0.021953672170639038,
            0.31271710991859436,
            0.3514593541622162,
            0.25309452414512634,
            -0.18923909962177277,
            0.21215280890464783,
            -0.27466535568237305,
            0.30938205122947693,
            -0.08605930209159851,
            0.1629241406917572,
            -0.3239872455596924,
            0.225332111120224,
            -0.20343759655952454,
            -0.2917236387729645,
            -0.006467640399932861,
            0.05106306076049805,
            0.1987840235233307,
            0.13767829537391663,
            -0.11213573813438416,
            -0.1820911169052124,
            0.09916701912879944,
            0.019380897283554077,
            0.22007277607917786,
            -0.17226384580135345,
            -0.06890609860420227,
            0.31898000836372375,
            -0.24964246153831482,
            0.1547747552394867,
            0.17343905568122864,
            0.3345024883747101,
            -0.19362471997737885,
            -0.20206795632839203,
            0.29366615414619446,
            -0.19571875035762787,
            -0.3025268316268921,
            -0.24912633001804352,
            -0.33711934089660645,
            -0.22363878786563873,
            -0.2932976484298706,
            -0.06962525844573975,
            0.2928387224674225,
            -0.2637315094470978,
            -0.19784653186798096,
            -0.26415225863456726,
            -0.20190174877643585,
            0.1492392122745514,
            0.140464186668396,
            0.35043570399284363,
            -0.06663590669631958,
            -0.32522493600845337,
            -0.18520881235599518,
            -0.32102224230766296,
            0.04770934581756592,
            -0.3186894655227661,
            -0.13973268866539001,
            0.33235666155815125,
            -0.35326287150382996,
            -0.035821765661239624,
            0.13357803225517273,
            0.17372962832450867,
            -0.05487269163131714,
            0.2935066521167755,
            0.32521501183509827,
            -0.1147599071264267,
            -0.25576549768447876,
            -0.33086520433425903,
            -0.010332852602005005,
            -0.2393314242362976,
            -0.20095059275627136,
            0.04992291331291199,
            0.044596731662750244,
            -0.2616652548313141,
            0.13974478840827942,
            0.2003035843372345,
            -0.17226412892341614,
            0.2913964092731476,
            -0.004010617733001709,
            0.3217534124851227,
            0.288278728723526,
            0.2829068601131439,
            0.3500818908214569,
            -0.2504834830760956,
            0.31543800234794617,
            0.04423785209655762,
            -0.2156195491552353,
            -0.17784805595874786,
            0.023041099309921265,
            -0.21532905101776123,
            0.13988357782363892,
            -0.196934312582016,
            0.31195393204689026,
            -0.26854249835014343,
            -0.2569810152053833,
            0.2836155593395233,
            -0.029749006032943726,
            -0.15919311344623566,
            0.3063037693500519,
            0.3134715259075165,
            -0.04497116804122925,
            -0.2482002079486847,
            0.00984102487564087,
            0.3531789481639862,
            -0.15631207823753357,
            -0.20396757125854492,
            0.1999291479587555,
            0.024977147579193115,
            -0.26612454652786255,
            -0.1576348841190338,
            -0.006822794675827026,
            -0.33139923214912415,
            -0.22828137874603271,
            -0.010294318199157715,
            -0.22832933068275452,
            -0.26639673113822937,
            -0.3196098506450653,
            -0.09039551019668579,
            -0.09069138765335083,
            0.05698460340499878,
            0.04782882332801819,
            -0.3043612241744995,
            0.21360370516777039,
            0.006229400634765625,
            -0.21935032308101654,
            0.3101760447025299,
            -0.06370839476585388,
            0.10445404052734375,
            -0.20257045328617096,
            -0.11095800995826721,
            0.06437218189239502,
            0.10601174831390381,
            -0.005604833364486694,
            -0.2793401777744293,
            0.1056373119354248,
            0.19163647294044495,
            -0.12975436449050903,
            -0.0479869544506073,
            -0.13693974912166595,
            -0.04232552647590637,
            0.1479315459728241,
            0.20979085564613342,
            -0.020171374082565308,
            0.273203581571579,
            -0.1540568470954895,
            0.105052649974823,
            -0.346746563911438,
            -0.12011328339576721,
            -0.3388962149620056,
            -0.08388456702232361,
            0.2904246747493744,
            0.06248602271080017,
            -0.03469240665435791,
            0.15047499537467957,
            -0.2848379611968994,
            0.09951063990592957,
            0.10709765553474426,
            0.005006998777389526,
            -0.1495887041091919,
            0.2580806314945221,
            0.2476024329662323,
            0.26833686232566833,
            0.010538995265960693,
            -0.11155581474304199,
            0.3425500690937042,
            -0.2373770773410797,
            -0.27347272634506226,
            -0.1407576948404312,
            0.06818938255310059,
            -0.05685907602310181,
            0.17047014832496643,
            -0.13743245601654053,
            -0.20062163472175598,
            -0.2032546103000641,
            -0.21778227388858795,
            -0.0011250972747802734,
            0.2553514540195465,
            -0.21097543835639954,
            0.23231497406959534,
            0.2700086534023285,
            0.05869334936141968,
            0.1691863238811493,
            -0.021058738231658936,
            -0.32955241203308105,
            -0.03389206528663635,
            0.04765671491622925,
            0.12351164221763611,
            -0.2803477644920349,
            -0.30088967084884644,
            0.32747629284858704,
            0.33128622174263,
            0.3002661168575287,
            0.24225977063179016,
            -0.011728167533874512,
            -0.1648431122303009,
            0.2312563955783844,
            0.1044481098651886,
            -0.08476245403289795,
            -0.26305466890335083,
            -0.18091589212417603,
            0.21193185448646545,
            0.2609688341617584,
            0.03520503640174866,
            -0.3422431945800781,
            -0.2958391308784485,
            0.17097613215446472,
            0.0101851224899292,
            0.31306567788124084,
            0.31355413794517517,
            -0.11105325818061829,
            0.22952094674110413,
            0.01869410276412964,
            -0.2954203188419342,
            -0.14509116113185883,
            0.04269510507583618,
            0.024241000413894653,
            0.25611886382102966,
            -0.1873466819524765,
            0.09744662046432495,
            0.3087826073169708,
            -0.21342377364635468,
            0.07517942786216736,
            0.2554953396320343,
            -0.3247174024581909,
            -0.29010212421417236,
            -0.2629011571407318,
            0.2600924074649811,
            0.16789939999580383,
            0.005889773368835449,
            0.35059115290641785,
            0.34053686261177063,
            -0.1357318013906479,
            0.25800666213035583,
            0.022188544273376465,
            -0.12442158162593842,
            0.31572088599205017,
            -0.16038869321346283,
            0.2393169105052948,
            0.2752332389354706,
            -0.20038795471191406,
            -0.2252897322177887,
            0.1512008011341095,
            0.17185953259468079,
            -0.16715668141841888,
            -0.34744375944137573,
            -0.13899876177310944,
            0.2106376588344574,
            0.26222851872444153,
            0.027207940816879272,
            -0.045469075441360474,
            0.21745774149894714,
            0.16733750700950623,
            -0.32384300231933594,
            0.11939969658851624,
            0.1961735188961029,
            -0.2603917717933655,
            0.21005192399024963,
            0.10271257162094116,
            0.26106104254722595,
            -0.13761168718338013,
            0.0997503399848938,
            0.24804452061653137,
            0.080209881067276,
            0.004203587770462036,
            -0.08332034945487976,
            0.309341698884964,
            -0.033628910779953,
            0.1098443865776062,
            0.19510522484779358,
            -0.11194907128810883,
            0.2630097568035126,
            0.3233688771724701,
            -0.31430163979530334,
            0.08131593465805054,
            -0.1973412036895752,
            -0.30819201469421387,
            0.2958705723285675,
            -0.3402568995952606,
            0.3075898587703705,
            -0.03047490119934082,
            -0.032172590494155884,
            0.1714942753314972,
            -0.21669071912765503,
            -0.0024622082710266113,
            -0.06265941262245178,
            0.3330362141132355,
            0.09069943428039551,
            -0.20616087317466736,
            0.08219537138938904,
            -0.0017929375171661377,
            0.009780794382095337,
            -0.17160767316818237,
            -0.10730183124542236,
            -0.2635626792907715,
            0.18614932894706726,
            0.16293123364448547,
            -0.3077743649482727,
            -0.20103301107883453,
            -0.08077779412269592,
            0.2408842146396637,
            0.04057130217552185,
            -0.17132137715816498,
            0.21069970726966858,
            0.07982304692268372,
            0.2635479271411896,
            -0.3401949107646942,
            0.12518444657325745,
            0.20586511492729187,
            -0.32689839601516724,
            0.07922095060348511,
            -0.17816314101219177,
            -0.00551760196685791,
            -0.1028381884098053,
            -0.041300445795059204,
            0.3455735743045807,
            0.18805578351020813,
            -0.06181764602661133,
            0.0827195942401886,
            0.335448294878006,
            -0.3331756591796875,
            -0.27262672781944275,
            -0.008324265480041504,
            -0.15122994780540466,
            -0.026375174522399902,
            0.08166643977165222,
            -0.318634033203125,
            -0.21699731051921844,
            0.12744545936584473,
            -0.16611364483833313,
            0.05577826499938965,
            0.0147763192653656,
            0.22801104187965393,
            0.23801031708717346,
            -0.1280774027109146,
            -0.045719265937805176,
            0.14800485968589783,
            -0.11471891403198242,
            -0.2740882337093353,
            0.000316619873046875,
            -0.08806395530700684,
            0.1586860716342926,
            0.1757068932056427,
            0.25997182726860046,
            -0.2977054715156555,
            -0.2191469669342041,
            0.25199201703071594,
            0.24390366673469543,
            0.07258877158164978,
            -0.01884174346923828,
            0.22579863667488098,
            0.09296649694442749,
            0.06208491325378418,
            -0.13607902824878693,
            0.29528990387916565,
            -0.31784364581108093,
            0.2991407811641693,
            0.33020928502082825,
            -0.18128755688667297,
            0.07303285598754883,
            -0.1894577443599701,
            0.22804412245750427,
            -0.2657442092895508,
            -0.31500008702278137,
            0.11250102519989014,
            -0.04026824235916138,
            -0.007165968418121338,
            -0.09304749965667725,
            0.1985662281513214,
            0.07229915261268616,
            0.26082250475883484,
            -0.24305111169815063,
            -0.12256813049316406,
            0.08297598361968994,
            -0.336632639169693,
            -0.06672024726867676,
            0.21738240122795105,
            0.26891276240348816,
            -0.17636993527412415,
            -0.06358224153518677,
            -0.10348236560821533,
            -0.3041246831417084,
            -0.3241690993309021,
            0.31215593218803406,
            -0.08665034174919128,
            0.32467421889305115,
            0.3478657305240631,
            -0.1410629004240036,
            0.3013301193714142,
            -0.18697525560855865,
            0.285523384809494,
            -0.2416810244321823,
            -0.3124845325946808,
            -0.33377426862716675,
            -0.20312772691249847,
            0.15356990694999695,
            -0.020489126443862915,
            0.1432596743106842,
            -0.2930310070514679,
            -0.1754762977361679,
            -0.13799455761909485,
            0.3213448226451874,
            -0.06497400999069214,
            0.0929906964302063,
            0.050767481327056885,
            -0.048053234815597534,
            -0.32728293538093567,
            -0.08540353178977966,
            -0.13269385695457458,
            -0.1500994712114334,
            0.20456764101982117,
            0.11737716197967529,
            -0.10067078471183777,
            0.2339518964290619,
            0.07597970962524414,
            0.16623225808143616,
            0.20507273077964783,
            0.07029205560684204,
            -0.32838401198387146,
            0.1528494656085968,
            0.2368701994419098,
            0.31069275736808777,
            0.2647218406200409,
            0.2779390513896942,
            0.3304719030857086,
            -0.291959285736084,
            0.07795551419258118,
            -0.043570637702941895,
            0.20485380291938782,
            0.1384778618812561,
            0.13450643420219421,
            -0.28669416904449463,
            0.10626935958862305,
            -0.28402093052864075,
            0.15984991192817688,
            -0.19651655852794647,
            0.02147921919822693,
            0.1861204206943512,
            0.07163327932357788,
            0.24233874678611755,
            -0.3175324499607086,
            -0.07735243439674377,
            0.006162494421005249,
            -0.06464985013008118,
            -0.1969539076089859,
            -0.27141115069389343,
            -0.25197094678878784,
            -0.3454345464706421,
            0.15243425965309143,
            -0.2268015593290329,
            0.16096827387809753,
            0.03575107455253601,
            -0.26966220140457153,
            0.07213672995567322,
            -0.03986328840255737,
            -0.2927437424659729,
            0.13373085856437683,
            -0.3154611587524414,
            0.017238974571228027,
            -0.014968782663345337,
            0.1765700876712799,
            -0.20180796086788177,
            0.05189049243927002,
            -0.07071393728256226,
            -0.1322755068540573,
            -0.1418129801750183,
            0.0863228440284729,
            0.24275705218315125,
            -0.3092459738254547
        ],
        [
            -0.32866907119750977,
            0.22103548049926758,
            -0.45910996198654175,
            0.1354413628578186,
            -0.3626979887485504,
            0.02634507417678833,
            0.3985811471939087,
            -0.2246713936328888,
            0.19703775644302368,
            0.41222357749938965,
            -0.5626190900802612,
            0.41002345085144043,
            0.08861583471298218,
            0.09154325723648071,
            0.5509887933731079,
            -0.3842587172985077
        ]
    ]
}