{
    "biases": [
        [
            0.0,
            0.0,
            0.0,
            0.0,
            0.0,
            0.0,
            0.0,
            0.0,
            0.0,
            0.0,
            0.0,
            0.0,
            0.0,
            0.0,
            0.0,
            0.0
        ],
        [
            0.0
        ]
    ],
    "topology": [
        3,
        16,
        1
    ],
    "weights": [
        [
            -0.3079402446746826,
            0.09008747339248657,
            -0.5297073125839233,
            -0.5321646332740784,
            0.10251307487487793,
            -0.2896018326282501,
            0.45684128999710083,
            0.4628186821937561,
            0.214119553565979,
            -0.1448466181755066,
            -0.5006051659584045,
            0.2572628855705261,
            -0.3935731053352356,
            -0.34842750430107117,
            0.08457821607589722,
            -0.49635449051856995,
            0.0005799531936645508,
            0.40157169103622437,
            0.5589672923088074,
            0.5554664731025696,
            -0.2991150915622711,
            -0.27866673469543457,
            0.43318092823028564,
            -0.009195446968078613,
            -0.4311308264732361,
            -0.27223482728004456,
            -0.5391862392425537,
            0.050164639949798584,
            0.19379478693008423,
            -0.42851293087005615,
            -0.14390301704406738,
            0.44780606031417847,
            0.2235260009765625,
            -0.11165887117385864,
            0.4775928854942322,
            -0.23591244220733643,
            0.1606907844543457,
            0.37248265743255615,
            -0.3350452184677124,
            -0.18714115023612976,
            -0.3343154191970825,
            -0.27369895577430725,
            -0.4918297827243805,
            -0.16593706607818604,
            -0.06017500162124634,
            0.1546999216079712,
            -0.10034012794494629,
            0.5023564696311951
        ],
        [
            -0.006004691123962402,
            -0.10923323035240173,
            0.5242294073104858,
            0.27186286449432373,
            0.19025206565856934,
            0.3880947232246399,
            -0.3319469690322876,
            0.32855409383773804,
            -0.49379733204841614,
            -0.30787983536720276,
            -0.2125009000301361,
            0.3051687479019165,
            -0.16681018471717834,
            0.2294551134109497,
            0.18449550867080688,
            -0.5245897173881531
        ]
    ]
}