{
    "biases": [
        [
            0.0,
            0.0,
            0.0,
            0.0,
            0.0,
            0.0,
            0.0,
            0.0,
            0.0,
            0.0,
            0.0,
            0.0,
            0.0,
            0.0,
            0.0,
            0.0
        ],
        [
            0.0
        ]
    ],
    "topology": [
        3,
        16,
        1
    ],
    "weights": [
        [
            -0.06496274471282959,
            0.5235181450843811,
            -0.31105250120162964,
            -0.3394532799720764,
            0.5256083607673645,
            -0.014384746551513672,
            0.08608055114746094,
            0.48863106966018677,
            -0.43584126234054565,
            -0.4431321620941162,
            0.3305590748786926,
            -0.22513073682785034,
            -0.44279175996780396,
            0.30914580821990967,
            -0.1386491358280182,
            0.20788079500198364,
            0.1457512378692627,
            -0.22264879941940308,
            -0.08020666241645813,
            -0.5295597314834595,
            0.3526410460472107,
            0.40843504667282104,
            0.23315417766571045,
            -0.2895934283733368,
            -0.12915492057800293,
            -0.4801986813545227,
            -0.27240240573883057,
            0.14592552185058594,
            -0.2218908667564392,
            0.14579272270202637,
            -0.03017359972000122,
            0.2750978469848633,
            0.10735940933227539,
            0.22072535753250122,
            0.49759596586227417,
            0.07101631164550781,
            -0.3556109070777893,
            0.021725058555603027,
            -0.0023040771484375,
            -0.22950071096420288,
            0.14054441452026367,
            -0.23369649052619934,
            0.10732007026672363,
            0.2597041130065918,
            -0.48650211095809937,
            0.5306224226951599,
            -0.09436658024787903,
            0.2212005853652954
        ],
        [
            -0.26850244402885437,
            0.40953171253204346,
            0.26809489727020264,
            -0.4897829592227936,
            0.24723601341247559,
            -0.0795058012008667,
            -0.20184919238090515,
            -0.4833936393260956,
            0.006922304630279541,
            0.10425865650177002,
            0.26496565341949463,
            0.366430401802063,
            -0.33569952845573425,
            -0.36102211475372314,
            0.0631721019744873,
            0.3718881607055664
        ]
    ]
}