{
    "biases": [
        [
            0.10000000149011612,
            0.10000000149011612,
            0.10000000149011612,
            0.10000000149011612,
            0.10000000149011612,
            0.10000000149011612,
            0.10000000149011612,
            0.10000000149011612,
            0.10000000149011612,
            0.10000000149011612,
            0.10000000149011612,
            0.10000000149011612,
            0.10000000149011612,
            0.10000000149011612,
            0.10000000149011612,
            0.10000000149011612,
            0.10000000149011612,
            0.10000000149011612,
            0.10000000149011612,
            0.10000000149011612,
            0.10000000149011612,
            0.10000000149011612,
            0.10000000149011612,
            0.10000000149011612,
            0.10000000149011612,
            0.10000000149011612,
            0.10000000149011612,
            0.10000000149011612,
            0.10000000149011612,
            0.10000000149011612,
            0.10000000149011612,
            0.10000000149011612
        ],
        [
            0.10000000149011612,
            0.10000000149011612,
            0.10000000149011612,
            0.10000000149011612,
            0.10000000149011612,
            0.10000000149011612,
            0.10000000149011612,
            0.10000000149011612,
            0.10000000149011612,
            0.10000000149011612,
            0.10000000149011612,
            0.10000000149011612,
            0.10000000149011612,
            0.10000000149011612,
            0.10000000149011612,
            0.10000000149011612
        ],
        [
            0.10000000149011612
        ]
    ],
    "topology": [
        4,
        32,
        16,
        1
    ],
    "weights": [
        [
            0.034469038248062134,
            -0.018360406160354614,
            0.38764655590057373,
            -0.10929089784622192,
            -0.17348530888557434,
            0.28164786100387573,
            -0.2438099980354309,
            0.2562933564186096,
            0.04583573341369629,
            -0.1826017051935196,
            -0.09861931204795837,
            0.3231237530708313,
            0.07261869311332703,
            0.0778493583202362,
            -0.10914438962936401,
            0.3845028877258301,
            0.02554759383201599,
            0.057996660470962524,
            0.36893004179000854,
            0.19297707080841064,
            0.2805124521255493,
            0.024125784635543823,
            -0.3427184224128723,
            0.15831506252288818,
            0.04077392816543579,
            -0.3682180941104889,
            0.0732412338256836,
            0.22441047430038452,
            -0.3259384036064148,
            0.4032827615737915,
            0.07539066672325134,
            0.1167789101600647,
            -0.02332592010498047,
            0.05478891730308533,
            -0.4007602632045746,
            0.21143704652786255,
            -0.07181158661842346,
            -0.23632197082042694,
            0.05948209762573242,
            0.38227248191833496,
            -0.010675370693206787,
            0.3691111207008362,
            0.2971479296684265,
            -0.3463049829006195,
            0.038712143898010254,
            -0.22024476528167725,
            -0.3700503706932068,
            -0.3439885377883911,
            0.24600017070770264,
            0.4071279764175415,
            0.2572368383407593,
            0.11826431751251221,
            0.02300545573234558,
            0.3227667212486267,
            -0.13166889548301697,
            -0.34446895122528076,
            0.36279696226119995,
            0.34982067346572876,
            0.2881898283958435,
            -0.371389776468277,
            0.3448551297187805,
            -0.0446678102016449,
            0.15363746881484985,
            -0.08671912550926208,
            -0.3981272280216217,
            0.16112548112869263,
            -0.2835303544998169,
            -0.06169050931930542,
            0.33305180072784424,
            0.18420010805130005,
            -0.08766630291938782,
            -0.08587184548377991,
            0.1450628638267517,
            -0.19876667857170105,
            -0.023928523063659668,
            -0.224473237991333,
            -0.01076313853263855,
            0.014269411563873291,
            -0.16021348536014557,
            -0.17301127314567566,
            0.013149082660675049,
            -0.31122496724128723,
            0.3535013198852539,
            -0.3720937967300415,
            -0.39670655131340027,
            -0.18641583621501923,
            -0.30831441283226013,
            0.37433862686157227,
            -0.2448434978723526,
            0.3881237506866455,
            -0.4052993953227997,
            -0.308236688375473,
            -0.06479236483573914,
            0.15658634901046753,
            0.013292461633682251,
            -0.054671287536621094,
            -0.09053647518157959,
            0.1380104422569275,
            0.291886568069458,
            -0.1657329499721527,
            -0.08603781461715698,
            -0.20402808487415314,
            0.15664350986480713,
            -0.349223256111145,
            0.005453526973724365,
            -0.2755333185195923,
            -0.1654481738805771,
            0.40293872356414795,
            0.14698433876037598,
            0.08258667588233948,
            -0.17832084000110626,
            -0.24811488389968872,
            0.179610013961792,
            -0.23306778073310852,
            -0.21196036040782928,
            0.19115173816680908,
            -0.011235296726226807,
            -0.11202648282051086,
            0.15724211931228638,
            0.15216952562332153,
            -0.1321510374546051,
            0.16019099950790405,
            0.25218111276626587,
            0.2113049030303955,
            -0.09147095680236816,
            -0.14277470111846924,
            -0.25161468982696533,
            0.226240873336792
        ],
        [
            0.34942737221717834,
            -0.3186769485473633,
            -0.30115196108818054,
            -0.07863694429397583,
            -0.14181704819202423,
            0.18805864453315735,
            -0.02751973271369934,
            0.2164592444896698,
            0.30299320816993713,
            0.18275132775306702,
            0.2118610441684723,
            0.07673195004463196,
            -0.09927991032600403,
            -0.2961227297782898,
            0.21541157364845276,
            -0.2972865104675293,
            -0.14441198110580444,
            -0.32170483469963074,
            0.22180911898612976,
            0.19941136240959167,
            -0.06516921520233154,
            0.004431396722793579,
            -0.022359400987625122,
            0.1739380657672882,
            -0.21039249002933502,
            -0.15751756727695465,
            0.0033800601959228516,
            0.0639447271823883,
            0.07238930463790894,
            0.13902875781059265,
            -0.0936782956123352,
            0.06826332211494446,
            0.17390522360801697,
            -0.041276901960372925,
            0.34317973256111145,
            -0.32146522402763367,
            -0.2067716270685196,
            -0.0378933846950531,
            0.24854740500450134,
            -0.25733184814453125,
            -0.2086954414844513,
            0.10685503482818604,
            0.1729535162448883,
            0.04557803273200989,
            0.16428568959236145,
            0.03481173515319824,
            0.1018449068069458,
            -0.3336796760559082,
            0.06666028499603271,
            -0.029899299144744873,
            0.2192850410938263,
            -0.35206231474876404,
            0.32808545231819153,
            -0.15662774443626404,
            0.17542913556098938,
            -0.2358604073524475,
            0.0394081175327301,
            -0.17474420368671417,
            0.18163767457008362,
            -0.24175599217414856,
            0.3178379237651825,
            -0.2655939757823944,
            0.1800607144832611,
            0.13818979263305664,
            0.046682536602020264,
            0.16968706250190735,
            0.1702779233455658,
            0.1934642493724823,
            -0.22175972163677216,
            0.06527197360992432,
            0.28968581557273865,
            -0.07690176367759705,
            -0.18142637610435486,
            0.10908594727516174,
            0.32222965359687805,
            0.3364126980304718,
            -0.20965570211410522,
            0.07052120566368103,
            -0.3508203625679016,
            0.2105579674243927,
            -0.31293150782585144,
            0.2220180332660675,
            0.21204903721809387,
            -0.33839941024780273,
            -0.28816306591033936,
            0.033924758434295654,
            -0.22070643305778503,
            0.10479843616485596,
            0.21273395419120789,
            0.3144846260547638,
            0.21659579873085022,
            0.17701855301856995,
            -0.30466270446777344,
            0.04310312867164612,
            -0.0383450984954834,
            0.09557321667671204,
            -0.14076320827007294,
            -0.22162054479122162,
            -0.06451591849327087,
            -0.008969515562057495,
            0.19720479846000671,
            -0.12838351726531982,
            0.26768210530281067,
            -0.33777496218681335,
            0.3342558443546295,
            0.23635831475257874,
            0.35219112038612366,
            -0.22895324230194092,
            -0.04667383432388306,
            -0.35218262672424316,
            0.3351580798625946,
            -0.006051957607269287,
            0.22338882088661194,
            0.19365379214286804,
            0.0091019868850708,
            0.2887791693210602,
            -0.1259748637676239,
            0.14194893836975098,
            0.04002416133880615,
            -0.2667942941188812,
            0.10288020968437195,
            -0.09693339467048645,
            0.26377758383750916,
            0.15177085995674133,
            0.2997231185436249,
            -0.12812086939811707,
            -0.10620932281017303,
            -0.19459344446659088,
            0.0038119852542877197,
            0.1828281581401825,
            0.14999040961265564,
            -0.15253663063049316,
            -0.2991087734699249,
            0.06411910057067871,
            -0.13675817847251892,
            -0.3184063136577606,
            -0.053075939416885376,
            -0.13812044262886047,
            -0.19380617141723633,
            0.2538035809993744,
            -0.13674968481063843,
            -0.21220146119594574,
            -0.10580176115036011,
            -0.2669142484664917,
            0.33500567078590393,
            0.2568536102771759,
            -0.3316884934902191,
            -0.14452257752418518,
            0.04524916410446167,
            0.061889052391052246,
            -0.057763487100601196,
            -0.20542402565479279,
            0.3185090720653534,
            -0.14753930270671844,
            0.29990026354789734,
            0.26467880606651306,
            0.0778931975364685,
            -0.1598624885082245,
            -0.28346800804138184,
            -0.27184823155403137,
            -0.3305877447128296,
            0.22007575631141663,
            -0.07083144783973694,
            -0.2761431038379669,
            -0.06935852766036987,
            0.14596375823020935,
            -0.24099603295326233,
            0.23111894726753235,
            -0.34571006894111633,
            -0.08124881982803345,
            0.13136914372444153,
            -0.12890638411045074,
            0.06010308861732483,
            -0.3279859721660614,
            -0.04226726293563843,
            0.04155540466308594,
            0.2824210226535797,
            -0.020402371883392334,
            0.2505861818790436,
            -0.025883227586746216,
            -0.3120666742324829,
            -0.16073068976402283,
            0.12224611639976501,
            -0.3471109867095947,
            0.04528340697288513,
            0.06859299540519714,
            0.27112117409706116,
            -0.23037678003311157,
            0.26228389143943787,
            0.3412065804004669,
            -0.14867161214351654,
            0.2852495014667511,
            0.20772895216941833,
            0.13405033946037292,
            -0.34444695711135864,
            -0.21518293023109436,
            -0.07353931665420532,
            -0.23188962042331696,
            -0.3376173973083496,
            -0.06569603085517883,
            0.040414959192276,
            0.14730516076087952,
            0.15895095467567444,
            -0.2530353367328644,
            0.17287257313728333,
            -0.2368696630001068,
            0.14207345247268677,
            0.10174021124839783,
            0.09628134965896606,
            0.03910624980926514,
            -0.2776964008808136,
            0.13776805996894836,
            0.23192891478538513,
            0.19810310006141663,
            0.14421045780181885,
            -0.07634106278419495,
            -0.08685728907585144,
            0.061778247356414795,
            0.04683557152748108,
            -0.17812679708003998,
            0.04943147301673889,
            0.25171729922294617,
            -0.2464306503534317,
            -0.09639295935630798,
            0.032214224338531494,
            -0.23732423782348633,
            0.041977494955062866,
            0.3122282922267914,
            -0.11566047370433807,
            0.05791348218917847,
            -0.10702109336853027,
            0.27830788493156433,
            -0.14833474159240723,
            -0.30162349343299866,
            -0.32828086614608765,
            -0.3290155529975891,
            -0.18493977189064026,
            0.16734591126441956,
            0.1262780725955963,
            0.26489493250846863,
            -0.14710122346878052,
            0.20213499665260315,
            0.04910963773727417,
            -0.2687256932258606,
            0.04668474197387695,
            -0.160233274102211,
            0.008486658334732056,
            0.3133808672428131,
            0.2550983726978302,
            -0.29823121428489685,
            -0.21829929947853088,
            -0.04902353882789612,
            0.3070394694805145,
            -0.11117658019065857,
            0.20813682675361633,
            -0.014299631118774414,
            0.0050525665283203125,
            -0.10343903303146362,
            -0.05562472343444824,
            0.24294546246528625,
            0.30802789330482483,
            0.1909075677394867,
            0.16769996285438538,
            -0.1938602477312088,
            0.24283745884895325,
            0.19297245144844055,
            -0.1693224161863327,
            -0.2956556975841522,
            0.006765037775039673,
            0.31050899624824524,
            0.3227926194667816,
            0.21321716904640198,
            0.15909066796302795,
            0.01834893226623535,
            0.298044890165329,
            -0.14777792990207672,
            0.21166899800300598,
            -0.047021836042404175,
            -0.18795044720172882,
            0.11321401596069336,
            0.008300304412841797,
            -0.05269637703895569,
            -0.28936293721199036,
            -0.0382135808467865,
            0.18968042731285095,
            0.27232733368873596,
            0.3010402023792267,
            -0.15882036089897156,
            -0.18466506898403168,
            -0.10813793540000916,
            -0.2694282531738281,
            -0.23019060492515564,
            -0.27078378200531006,
            0.25182512402534485,
            -0.07049748301506042,
            0.3256070911884308,
            0.0912441611289978,
            0.11373347043991089,
            -0.32360202074050903,
            -0.25554418563842773,
            0.07068917155265808,
            0.3527440130710602,
            0.31122639775276184,
            -0.12377357482910156,
            0.017539530992507935,
            0.2557179033756256,
            0.08200186491012573,
            -0.12434481084346771,
            -0.14485734701156616,
            0.24760481715202332,
            0.34242257475852966,
            0.21699640154838562,
            -0.1586449295282364,
            -0.3004937469959259,
            -0.17477059364318848,
            -0.32251784205436707,
            0.32538697123527527,
            -0.2272838056087494,
            -0.1277848184108734,
            -0.21283148229122162,
            0.018131613731384277,
            -0.04365968704223633,
            -0.08946868777275085,
            0.10090124607086182,
            -0.14538797736167908,
            0.19358721375465393,
            0.072954922914505,
            0.2994095981121063,
            -0.04623270034790039,
            0.10290628671646118,
            -0.3096879720687866,
            -0.3290969133377075,
            0.10209691524505615,
            -0.35201495885849,
            -0.09931710362434387,
            -0.23391692340373993,
            0.25725629925727844,
            0.33623817563056946,
            -0.004708349704742432,
            -0.24115440249443054,
            0.23028960824012756,
            -0.01583915948867798,
            0.3293953835964203,
            -0.28190869092941284,
            0.03722047805786133,
            -0.19892863929271698,
            -0.2508731782436371,
            0.009054064750671387,
            -0.07265904545783997,
            -0.025104612112045288,
            0.14977595210075378,
            0.29902592301368713,
            0.2847890555858612,
            -0.2932461202144623,
            0.04637378454208374,
            -0.2141522616147995,
            0.25389447808265686,
            -0.23422464728355408,
            -0.2682960331439972,
            -0.14589160680770874,
            0.22223499417304993,
            -0.2244306206703186,
            -0.12143513560295105,
            -0.029221445322036743,
            -0.2228921800851822,
            0.1328011453151703,
            0.09041503071784973,
            -0.31918925046920776,
            0.11548590660095215,
            -0.2678467035293579,
            -0.2067902535200119,
            -0.007777899503707886,
            0.06986749172210693,
            -0.2309482991695404,
            0.06386679410934448,
            -0.24646539986133575,
            -0.07632356882095337,
            0.166547030210495,
            0.11614203453063965,
            0.2045707404613495,
            -0.2121109962463379,
            -0.08763536810874939,
            0.1500433385372162,
            -0.2808752954006195,
            -0.027328133583068848,
            -0.1571362465620041,
            -0.1414741724729538,
            -0.1269870400428772,
            -0.03780752420425415,
            -0.05621683597564697,
            0.08067476749420166,
            -0.16912585496902466,
            0.07290595769882202,
            0.31279298663139343,
            0.15520605444908142,
            0.20356711745262146,
            0.09204071760177612,
            -0.10793228447437286,
            0.2379312813282013,
            -0.14602677524089813,
            -0.022225618362426758,
            -0.3224123418331146,
            0.19974872469902039,
            -0.30591148138046265,
            -0.19980725646018982,
            -0.08993786573410034,
            -0.19882351160049438,
            0.07742258906364441,
            -0.27694424986839294,
            0.2708719074726105,
            -0.07156005501747131,
            -0.13550186157226563,
            -0.17031683027744293,
            -0.27507010102272034,
            -0.06282374262809753,
            0.15590843558311462,
            -0.07865297794342041,
            0.1492554247379303,
            -0.3246319890022278,
            0.23709294199943542,
            -0.2605147659778595,
            0.1095961332321167,
            -0.2855863571166992,
            0.16594454646110535,
            0.06883573532104492,
            0.2231731116771698,
            0.015958309173583984,
            -0.19267693161964417,
            -0.23831255733966827,
            -0.09966379404067993,
            0.014849692583084106,
            0.09301522374153137,
            -0.06852275133132935,
            -0.1389549821615219,
            0.14065709710121155,
            0.08522337675094604,
            0.12466055154800415,
            0.29538699984550476,
            -0.19090744853019714,
            0.2012697160243988,
            0.21270552277565002,
            0.09108588099479675,
            -0.2877855598926544,
            -0.3111646771430969,
            0.16956916451454163,
            0.002944082021713257,
            0.1982971727848053,
            -0.262637197971344,
            -0.20135387778282166,
            0.22721853852272034,
            0.32800909876823425,
            -0.10831527411937714,
            -0.016738682985305786,
            -0.3111306130886078,
            -0.2959240972995758,
            -0.3014563322067261,
            0.2655958831310272,
            0.07358759641647339,
            -0.14057987928390503,
            -0.32627007365226746,
            0.32747718691825867,
            0.2278231680393219,
            0.12029853463172913,
            -0.09459894895553589,
            -0.2646852135658264,
            -0.09259775280952454,
            0.3441777527332306,
            0.21352872252464294,
            -0.1507641226053238,
            -0.20028303563594818,
            0.06124502420425415,
            -0.2916119694709778,
            0.2443561851978302,
            0.12701284885406494,
            -0.2492232769727707,
            0.060371994972229004,
            -0.2235964685678482,
            0.30262723565101624,
            0.151288241147995,
            -0.07139694690704346,
            0.17629244923591614,
            0.12574392557144165,
            0.17384114861488342,
            -0.19399964809417725,
            0.16816666722297668,
            0.23147043585777283,
            -0.1419025957584381,
            0.0802091658115387,
            -0.048495352268218994,
            0.07107087969779968,
            0.10749250650405884,
            -0.07457157969474792,
            -0.05465930700302124,
            -0.12576235830783844,
            0.184382826089859,
            0.034208863973617554,
            0.13519331812858582,
            0.17500725388526917,
            -0.10581576824188232,
            0.33798256516456604,
            0.3282775580883026,
            0.30898264050483704,
            -0.30718281865119934,
            0.21908041834831238,
            0.08244210481643677,
            -0.20285271108150482,
            -0.07410094141960144,
            0.21239903569221497,
            -0.2537788152694702,
            -0.27636611461639404,
            -0.2125513106584549,
            0.27606698870658875
        ],
        [
            0.3409925699234009,
            0.5290424823760986,
            -0.45618781447410583,
            0.029480576515197754,
            0.3239021301269531,
            -0.1005433201789856,
            -0.42982953786849976,
            -0.35167497396469116,
            -0.575208842754364,
            0.3448824882507324,
            0.1171082854270935,
            -0.07296633720397949,
            -0.46052905917167664,
            -0.16715511679649353,
            0.5786045789718628,
            0.3607296943664551
        ]
    ]
}