{
    "biases": [
        [
            0.0,
            0.0,
            0.0,
            0.0,
            0.0,
            0.0,
            0.0,
            0.0,
            0.0,
            0.0,
            0.0,
            0.0,
            0.0,
            0.0,
            0.0,
            0.0
        ],
        [
            0.0
        ]
    ],
    "topology": [
        3,
        16,
        1
    ],
    "weights": [
        [
            0.3716522455215454,
            0.07289719581604004,
            0.2275930643081665,
            -0.47042959928512573,
            -0.39569538831710815,
            0.3816942572593689,
            0.3027324676513672,
            0.44994550943374634,
            0.15151554346084595,
            -0.2623860239982605,
            0.035552263259887695,
            0.487124502658844,
            0.4178255796432495,
            -0.3532549738883972,
            0.14315176010131836,
            -0.21691441535949707,
            0.4207475781440735,
            0.09013861417770386,
            -0.1289500594139099,
            -0.2698292136192322,
            0.05676686763763428,
            -0.41952311992645264,
            -0.07899120450019836,
            0.23294597864151,
            -0.03135836124420166,
            -0.34372469782829285,
            0.03565460443496704,
            -0.2858712673187256,
            -0.3432821035385132,
            -0.18607497215270996,
            -0.28822028636932373,
            -0.5335813164710999,
            0.44877368211746216,
            0.5013242363929749,
            -0.4420594871044159,
            -0.5088732242584229,
            0.32106709480285645,
            0.42262446880340576,
            0.5030236840248108,
            -0.08936887979507446,
            -0.40171295404434204,
            -0.023375511169433594,
            -0.16419577598571777,
            -0.5458388328552246,
            0.18532097339630127,
            0.5409074425697327,
            -0.200801819562912,
            0.044117093086242676
        ],
        [
            0.07304608821868896,
            0.24547868967056274,
            0.35546833276748657,
            -0.4610292315483093,
            0.3960522413253784,
            -0.3221287727355957,
            0.37932705879211426,
            -0.23118796944618225,
            -0.09142202138900757,
            -0.1770678460597992,
            0.06068074703216553,
            0.13975268602371216,
            0.2203044295310974,
            0.3500661849975586,
            0.16974526643753052,
            0.10065418481826782
        ]
    ]
}