{
    "biases": [
        [
            0.0,
            0.0,
            0.0,
            0.0,
            0.0,
            0.0,
            0.0,
            0.0,
            0.0,
            0.0,
            0.0,
            0.0,
            0.0,
            0.0,
            0.0,
            0.0
        ],
        [
            0.0
        ]
    ],
    "topology": [
        3,
        16,
        1
    ],
    "weights": [
        [
            -0.36094409227371216,
            0.4839833378791809,
            -0.30992379784584045,
            0.23997193574905396,
            0.37343770265579224,
            -0.5348149538040161,
            0.05685079097747803,
            0.31311219930648804,
            -0.28174087405204773,
            -0.3966894745826721,
            -0.1009727418422699,
            0.12264758348464966,
            0.2679740786552429,
            0.18388259410858154,
            -0.4293424189090729,
            0.07114005088806152,
            0.2760942578315735,
            -0.3198573887348175,
            0.46799665689468384,
            -0.1693515181541443,
            0.35437238216400146,
            -0.17085996270179749,
            -0.2599787712097168,
            0.05406302213668823,
            -0.22432175278663635,
            0.16872239112854004,
            -0.38671356439590454,
            0.5152828097343445,
            0.06500023603439331,
            0.15391314029693604,
            -0.17776432633399963,
            0.26600760221481323,
            0.07594501972198486,
            0.07426333427429199,
            -0.05597192049026489,
            -0.11256870627403259,
            0.10139983892440796,
            -0.561072587966919,
            -0.36140790581703186,
            0.3816103935241699,
            -0.395810604095459,
            0.09957081079483032,
            -0.0576934814453125,
            0.43411487340927124,
            -0.2784980833530426,
            0.07491558790206909,
            -0.056696534156799316,
            0.5595476031303406
        ],
        [
            0.3351389765739441,
            -0.15926676988601685,
            -0.18157774209976196,
            0.1156887412071228,
            0.2541906237602234,
            0.13766425848007202,
            -0.4212450087070465,
            -0.5770483016967773,
            -0.27805295586586,
            -0.23598551750183105,
            0.5617913007736206,
            0.38475310802459717,
            0.5208182334899902,
            -0.2202276587486267,
            0.07188469171524048,
            0.007017850875854492
        ]
    ]
}