[
  {
    "biases": [
      [
        0.10000000149011612,
        0.10000000149011612,
        0.10000000149011612,
        0.10000000149011612,
        0.10000000149011612,
        0.10000000149011612,
        0.10000000149011612,
        0.10000000149011612,
        0.10000000149011612,
        0.10000000149011612,
        0.10000000149011612,
        0.10000000149011612,
        0.10000000149011612,
        0.10000000149011612,
        0.10000000149011612,
        0.10000000149011612,
        0.10000000149011612,
        0.10000000149011612,
        0.10000000149011612,
        0.10000000149011612,
        0.10000000149011612,
        0.10000000149011612,
        0.10000000149011612,
        0.10000000149011612,
        0.10000000149011612,
        0.10000000149011612,
        0.10000000149011612,
        0.10000000149011612,
        0.10000000149011612,
        0.10000000149011612,
        0.10000000149011612,
        0.10000000149011612
      ],
      [
        0.10000000149011612,
        0.10000000149011612,
        0.10000000149011612,
        0.10000000149011612,
        0.10000000149011612,
        0.10000000149011612,
        0.10000000149011612,
        0.10000000149011612,
        0.10000000149011612,
        0.10000000149011612,
        0.10000000149011612,
        0.10000000149011612,
        0.10000000149011612,
        0.10000000149011612,
        0.10000000149011612,
        0.10000000149011612
      ],
      [
        0.10000000149011612
      ]
    ],
    "topology": [
      4,
      32,
      16,
      1
    ],
    "weights": [
      [
        0.170729398727417,
        -0.19332081079483032,
        -0.37277957797050476,
        -0.003967553377151489,
        0.30870604515075684,
        0.19723665714263916,
        -0.23735928535461426,
        0.08944082260131836,
        0.38698768615722656,
        -0.01224854588508606,
        -0.2615225315093994,
        0.11033111810684204,
        -0.10764732956886292,
        0.019696712493896484,
        0.25807929039001465,
        -0.16883815824985504,
        0.044412195682525635,
        -0.2940986156463623,
        -0.142246812582016,
        -0.3695254325866699,
        0.34110260009765625,
        -0.1315140426158905,
        -0.11405539512634277,
        0.3616952896118164,
        -0.25684478878974915,
        0.0963405966758728,
        -0.055632561445236206,
        0.36988407373428345,
        -0.08120548725128174,
        -0.19608645141124725,
        0.201604962348938,
        -0.3187243640422821,
        0.018841028213500977,
        0.23707371950149536,
        0.08555638790130615,
        -0.08070120215415955,
        0.026062041521072388,
        0.25644540786743164,
        -0.39950868487358093,
        0.004801422357559204,
        -0.16405144333839417,
        -0.2527829110622406,
        -0.2931157648563385,
        0.1365494728088379,
        0.17516207695007324,
        0.3732118606567383,
        0.3759596347808838,
        -0.18867403268814087,
        -0.32913506031036377,
        -0.17453542351722717,
        -0.14995115995407104,
        -0.39628076553344727,
        0.10219883918762207,
        0.14424175024032593,
        0.37366288900375366,
        0.2536023259162903,
        -0.1676659882068634,
        -0.09021800756454468,
        0.21523809432983398,
        0.159376859664917,
        0.12194383144378662,
        0.008594751358032227,
        0.24890083074569702,
        -0.26746344566345215,
        -0.16257986426353455,
        -0.07379111647605896,
        0.06008368730545044,
        0.2717304825782776,
        -0.22559401392936707,
        0.06882324814796448,
        -0.13171640038490295,
        0.018602848052978516,
        0.2242887020111084,
        -0.01658385992050171,
        -0.25309595465660095,
        -0.008797526359558105,
        -0.05162033438682556,
        -0.2853845953941345,
        0.21077674627304077,
        0.027492910623550415,
        -0.05167171359062195,
        -0.3474227488040924,
        0.039460450410842896,
        -0.357721209526062,
        0.20506733655929565,
        0.0048750340938568115,
        0.304129421710968,
        -0.3708469867706299,
        0.3229053020477295,
        0.11111921072006226,
        0.19677817821502686,
        0.03660082817077637,
        -0.28853434324264526,
        0.037430644035339355,
        0.17738568782806396,
        -0.042865902185440063,
        0.37188780307769775,
        -0.17077894508838654,
        -0.1793837547302246,
        -0.26195451617240906,
        0.3062925934791565,
        0.0971481204032898,
        0.16489660739898682,
        0.12233299016952515,
        -0.32768404483795166,
        0.320048987865448,
        -0.2947128713130951,
        0.028943955898284912,
        -0.37358391284942627,
        0.32431215047836304,
        -0.35181140899658203,
        -0.01700732111930847,
        0.38513773679733276,
        0.095897376537323,
        0.03351977467536926,
        0.1819567084312439,
        -0.3074759244918823,
        -0.07059907913208008,
        0.21935802698135376,
        -0.39281895756721497,
        -0.36772817373275757,
        0.00788789987564087,
        0.05203017592430115,
        -0.24801422655582428,
        -0.3629297912120819,
        -0.17883242666721344,
        0.11736816167831421,
        -0.3992902636528015
      ],
      [
        0.050781041383743286,
        0.2998463213443756,
        -0.21910136938095093,
        -0.03751513361930847,
        0.030425697565078735,
        0.27725669741630554,
        -0.28512507677078247,
        0.10019636154174805,
        0.20087382197380066,
        -0.18680047988891602,
        -0.22829079627990723,
        0.2308940589427948,
        -0.25949129462242126,
        -0.1794150173664093,
        -0.13738808035850525,
        -0.2795056402683258,
        0.25718793272972107,
        0.24519428610801697,
        0.23162689805030823,
        0.3444593846797943,
        -0.1694996953010559,
        0.06804314255714417,
        -0.34928518533706665,
        -0.13440823554992676,
        -0.27867913246154785,
        0.04932767152786255,
        0.004358530044555664,
        -0.23943214118480682,
        0.2480076253414154,
        -0.24755102396011353,
        -0.23167426884174347,
        -0.05476471781730652,
        -0.3012580871582031,
        -0.09722226858139038,
        0.2612735331058502,
        0.08272099494934082,
        -0.17351895570755005,
        0.32970187067985535,
        -0.17063602805137634,
        -0.3261985182762146,
        -0.21065200865268707,
        -0.04537343978881836,
        0.2582489550113678,
        -0.11658991873264313,
        0.12876492738723755,
        -0.23269252479076385,
        -0.04254215955734253,
        0.032399505376815796,
        -0.3410516083240509,
        -0.1644686609506607,
        0.02330547571182251,
        -0.1569979339838028,
        0.2571278512477875,
        0.02757364511489868,
        0.06214720010757446,
        0.33200207352638245,
        -0.27665209770202637,
        -0.2870476245880127,
        -0.260983407497406,
        0.32490888237953186,
        -0.18104524910449982,
        -0.13910430669784546,
        -0.08340919017791748,
        -0.12874995172023773,
        0.11722680926322937,
        -0.17568905651569366,
        0.3075244128704071,
        0.2972612679004669,
        -0.19954058527946472,
        -0.21666502952575684,
        0.32461610436439514,
        -0.05663922429084778,
        0.09151491522789001,
        0.22931167483329773,
        0.1803242266178131,
        -0.13327351212501526,
        0.3501725494861603,
        -0.21577128767967224,
        0.25267937779426575,
        -0.3444324731826782,
        -0.026686549186706543,
        -0.07756859064102173,
        -0.14787699282169342,
        -0.12311208248138428,
        0.30355843901634216,
        0.26782360672950745,
        -0.14466336369514465,
        -0.326647013425827,
        0.33432939648628235,
        -0.05209338665008545,
        0.3518153131008148,
        -0.20026923716068268,
        0.16235575079917908,
        -0.08514729142189026,
        0.0245341956615448,
        -0.07397082448005676,
        0.09271705150604248,
        -0.02149483561515808,
        -0.13026297092437744,
        0.24672982096672058,
        0.11539351940155029,
        -0.15920020639896393,
        -0.1634627729654312,
        -0.1466449350118637,
        -0.2834419012069702,
        -0.33669188618659973,
        0.07363492250442505,
        -0.28682273626327515,
        -0.19890981912612915,
        -0.027239114046096802,
        -0.27770182490348816,
        0.12795698642730713,
        0.24874570965766907,
        -0.07202544808387756,
        -0.34870845079421997,
        0.1987508237361908,
        -0.15775521099567413,
        -0.1398184448480606,
        0.22565719485282898,
        -0.1769792139530182,
        0.16164156794548035,
        0.2239190638065338,
        -0.023695051670074463,
        -0.029556095600128174,
        -0.21478164196014404,
        -0.35271427035331726,
        0.2500264346599579,
        0.23148879408836365,
        -0.020655721426010132,
        -0.23378990590572357,
        0.12466520071029663,
        -0.25881558656692505,
        -0.03943672776222229,
        0.3147558271884918,
        -0.051907122135162354,
        0.030674725770950317,
        0.3316173255443573,
        -0.3318255841732025,
        0.09740537405014038,
        -0.22084587812423706,
        -0.0055113136768341064,
        0.17325690388679504,
        0.2606644928455353,
        -0.11031898856163025,
        -0.25232189893722534,
        0.26550939679145813,
        -0.26512160897254944,
        -0.05652374029159546,
        -0.2278623878955841,
        0.3140889108181,
        0.12005046010017395,
        0.28733256459236145,
        0.18445459008216858,
        -0.2571980059146881,
        -0.09577691555023193,
        0.32322630286216736,
        -0.25635892152786255,
        -0.19930386543273926,
        0.2011617124080658,
        0.07653877139091492,
        -0.07954040169715881,
        -0.027726441621780396,
        0.17127659916877747,
        0.2345762550830841,
        -0.06652399897575378,
        -0.23418396711349487,
        -0.0883023738861084,
        -0.0884600579738617,
        -0.21245616674423218,
        -0.3444503843784332,
        0.044247448444366455,
        0.13558590412139893,
        0.18235990405082703,
        -0.04864144325256348,
        -0.3282864987850189,
        0.2835914194583893,
        -0.13668538630008698,
        -0.23985470831394196,
        -0.1264857053756714,
        -0.010994374752044678,
        -0.279319167137146,
        0.3471181094646454,
        -0.07721519470214844,
        0.2586888372898102,
        -0.26363328099250793,
        0.18056127429008484,
        0.22836175560951233,
        -0.16643880307674408,
        0.3348107635974884,
        0.0759701132774353,
        0.26365336775779724,
        -0.09828299283981323,
        -0.3053096830844879,
        0.08137649297714233,
        -0.21726012229919434,
        -0.01828029751777649,
        0.20074597001075745,
        0.047990888357162476,
        0.24681296944618225,
        0.3418431580066681,
        0.05709388852119446,
        -0.062492936849594116,
        0.12387564778327942,
        -0.11409956216812134,
        0.24241903424263,
        0.1491425335407257,
        -0.18406154215335846,
        -0.24781976640224457,
        0.26284125447273254,
        0.04300615191459656,
        0.09473925828933716,
        0.33707544207572937,
        0.03657087683677673,
        -0.3360293507575989,
        0.24221089482307434,
        0.126490980386734,
        0.19808527827262878,
        0.11701929569244385,
        0.31360557675361633,
        0.17934265732765198,
        -0.16056397557258606,
        0.2237055003643036,
        -0.27249372005462646,
        -0.11232028901576996,
        -0.04847133159637451,
        -0.1362004429101944,
        0.22295275330543518,
        -0.20127880573272705,
        0.2653438150882721,
        0.11621242761611938,
        -0.21298904716968536,
        -0.031115680932998657,
        -0.29983389377593994,
        0.26443997025489807,
        0.2083381712436676,
        0.2961384952068329,
        0.06002911925315857,
        -0.32927677035331726,
        -0.3052346706390381,
        -0.030683040618896484,
        0.0672827661037445,
        0.1430579423904419,
        -0.047160983085632324,
        -0.24969974160194397,
        0.16058197617530823,
        -0.1585034877061844,
        0.23034462332725525,
        0.0051138997077941895,
        0.3120691478252411,
        0.19039681553840637,
        -0.16909682750701904,
        -0.2020481824874878,
        0.06054896116256714,
        -0.08803713321685791,
        0.039184898138046265,
        -0.3414757549762726,
        0.1293157935142517,
        -0.09141567349433899,
        -0.18920117616653442,
        0.04110625386238098,
        -0.3287566602230072,
        -0.04863685369491577,
        -0.3435628116130829,
        -0.27503716945648193,
        -0.13775025308132172,
        0.21832874417304993,
        -0.33245205879211426,
        0.27583226561546326,
        0.24260535836219788,
        -0.28413334488868713,
        -0.10840412974357605,
        -0.043665289878845215,
        0.21247795224189758,
        0.19798830151557922,
        0.060188353061676025,
        0.019506603479385376,
        -0.31406858563423157,
        -0.06302040815353394,
        -0.32893288135528564,
        0.3515540063381195,
        -0.22617697715759277,
        -0.14447632431983948,
        -0.20404760539531708,
        0.18792536854743958,
        0.12103992700576782,
        0.1886906921863556,
        0.2000029981136322,
        -0.10319766402244568,
        -0.2562783658504486,
        -0.3427515923976898,
        0.2914619743824005,
        -0.2314816415309906,
        -0.03783503174781799,
        0.30145254731178284,
        -0.15296542644500732,
        0.1779681146144867,
        0.16622790694236755,
        -0.13186410069465637,
        0.10024699568748474,
        0.05527985095977783,
        -0.062444061040878296,
        0.3453962504863739,
        -0.3419388234615326,
        -0.20351946353912354,
        0.18983110785484314,
        0.07180288434028625,
        0.16954049468040466,
        0.22931596636772156,
        -0.3447709083557129,
        0.19416102766990662,
        0.2273164689540863,
        -0.21739450097084045,
        -0.30386868119239807,
        -0.3302844762802124,
        0.32408425211906433,
        0.17072460055351257,
        0.211959570646286,
        0.17053386569023132,
        -0.28602641820907593,
        0.3092345893383026,
        0.18133565783500671,
        -0.3481178283691406,
        -0.2758004069328308,
        -0.21005278825759888,
        0.30688807368278503,
        -0.07521244883537292,
        0.32146868109703064,
        0.11956265568733215,
        0.1464768350124359,
        0.06816229224205017,
        -0.1787109076976776,
        -0.26952064037323,
        0.060005128383636475,
        -0.167096346616745,
        -0.1194867193698883,
        -0.10371708869934082,
        0.25825992226600647,
        -0.30349957942962646,
        -0.22795455157756805,
        0.2670424282550812,
        0.24421480298042297,
        0.35291531682014465,
        -0.3039054870605469,
        0.2938995659351349,
        -0.33092254400253296,
        -0.33337461948394775,
        0.11107078194618225,
        0.23459044098854065,
        0.1907126009464264,
        0.17859771847724915,
        0.19027164578437805,
        0.018494874238967896,
        0.18403330445289612,
        0.26802459359169006,
        0.16199544072151184,
        0.13736799359321594,
        -0.16074120998382568,
        0.12991079688072205,
        -0.09662273526191711,
        0.33928897976875305,
        -0.1554803103208542,
        0.07821974158287048,
        -0.28378501534461975,
        0.2580782473087311,
        0.2646767795085907,
        -0.04971835017204285,
        -0.19919222593307495,
        0.16938331723213196,
        0.00033545494079589844,
        -0.0735933780670166,
        0.08287233114242554,
        -0.10900311172008514,
        -0.07423141598701477,
        0.13252022862434387,
        -0.16865696012973785,
        -0.05160057544708252,
        0.15269902348518372,
        0.2959671914577484,
        -0.17056353390216827,
        -0.010141760110855103,
        0.12101152539253235,
        -0.33384525775909424,
        -0.3452003002166748,
        -0.04850858449935913,
        0.2877327501773834,
        0.17034855484962463,
        -0.2646939754486084,
        -0.22656182944774628,
        -0.05329406261444092,
        -0.00776335597038269,
        -0.24082621932029724,
        0.1447790265083313,
        -0.2830970287322998,
        -0.17105785012245178,
        0.04930388927459717,
        0.3351331651210785,
        0.13277718424797058,
        0.20366504788398743,
        0.15096303820610046,
        -0.22044074535369873,
        -0.22348174452781677,
        -0.11971800029277802,
        0.02410954236984253,
        0.05584019422531128,
        -0.34075114130973816,
        0.20900598168373108,
        -0.34931376576423645,
        0.165501207113266,
        0.1514197289943695,
        -0.16632390022277832,
        -0.19819393754005432,
        -0.08112213015556335,
        -0.14661575853824615,
        -0.18984085321426392,
        0.22392264008522034,
        -0.21243637800216675,
        0.3340611159801483,
        0.31278201937675476,
        -0.08544480800628662,
        -0.0727863609790802,
        -0.04853469133377075,
        0.02728232741355896,
        -0.2815607190132141,
        0.021921664476394653,
        0.2097778618335724,
        0.12129655480384827,
        0.0035014450550079346,
        -0.010998338460922241,
        -0.028591811656951904,
        -0.199088916182518,
        0.12211430072784424,
        0.10147982835769653,
        0.0347464382648468,
        -0.20732952654361725,
        -0.1962333470582962,
        0.04754868149757385,
        -0.3518769443035126,
        -0.19199371337890625,
        -0.14050346612930298,
        0.15309616923332214,
        -0.00476422905921936,
        0.014855951070785522,
        -0.28157931566238403,
        0.20217344164848328,
        0.17856845259666443,
        0.2958966791629791,
        0.34329041838645935,
        0.15907618403434753,
        0.25512537360191345,
        -0.09570780396461487,
        -0.2672635316848755,
        -0.14696268737316132,
        0.2851279079914093,
        -0.19527088105678558,
        0.22851237654685974,
        0.14135238528251648,
        0.2795790731906891,
        -0.12153960764408112,
        -0.22319930791854858,
        -0.10256612300872803,
        0.03292486071586609,
        0.25246837735176086,
        0.3524670898914337,
        -0.28588205575942993,
        -0.3084145486354828,
        -0.1973196417093277,
        0.11522004008293152,
        -0.30673810839653015,
        -0.03575998544692993,
        0.32826992869377136,
        0.19991150498390198,
        0.3130291998386383,
        -0.010427474975585938,
        0.27188554406166077,
        0.1616491973400116,
        -0.18541233241558075,
        0.21422883868217468,
        0.15138623118400574,
        0.3272172510623932,
        0.11580082774162292,
        -0.29787498712539673,
        -0.2935996949672699,
        0.322391539812088,
        0.34080633521080017,
        -0.13531717658042908,
        0.19735053181648254,
        0.12860536575317383,
        -0.2092915028333664,
        -0.277742475271225,
        0.25895944237709045,
        0.041695743799209595,
        0.10873579978942871,
        0.1578744351863861,
        0.0406094491481781,
        0.176407128572464,
        0.20301327109336853,
        0.19684317708015442,
        -0.0619262158870697,
        0.2498285472393036,
        -0.19247016310691833,
        -0.08720964193344116,
        0.09618660807609558,
        -0.23299437761306763,
        0.2559162676334381,
        0.01451873779296875,
        0.28220823407173157,
        -0.28304943442344666,
        -0.12480579316616058,
        0.08004105091094971,
        -0.30938559770584106,
        0.34454843401908875,
        0.1357194185256958
      ],
      [
        -0.4191294312477112,
        0.526594877243042,
        0.20663493871688843,
        -0.05241924524307251,
        0.26412147283554077,
        -0.17135336995124817,
        0.1899891495704651,
        0.39150935411453247,
        -0.33030301332473755,
        -0.3340364992618561,
        -0.019866585731506348,
        0.5290677547454834,
        0.32828956842422485,
        -0.3175318241119385,
        0.2761096954345703,
        0.06496375799179077
      ]
    ]
  },
  {
    "biases": [
      [
        0.10000000149011612,
        0.10000000149011612,
        0.10000000149011612,
        0.10000000149011612,
        0.10000000149011612,
        0.10000000149011612,
        0.10000000149011612,
        0.10000000149011612,
        0.10000000149011612,
        0.10000000149011612,
        0.10000000149011612,
        0.10000000149011612,
        0.10000000149011612,
        0.10000000149011612,
        0.10000000149011612,
        0.10000000149011612,
        0.10000000149011612,
        0.10000000149011612,
        0.10000000149011612,
        0.10000000149011612,
        0.10000000149011612,
        0.10000000149011612,
        0.10000000149011612,
        0.10000000149011612,
        0.10000000149011612,
        0.10000000149011612,
        0.10000000149011612,
        0.10000000149011612,
        0.10000000149011612,
        0.10000000149011612,
        0.10000000149011612,
        0.10000000149011612
      ],
      [
        0.10000000149011612,
        0.10000000149011612,
        0.10000000149011612,
        0.10000000149011612,
        0.10000000149011612,
        0.10000000149011612,
        0.10000000149011612,
        0.10000000149011612,
        0.10000000149011612,
        0.10000000149011612,
        0.10000000149011612,
        0.10000000149011612,
        0.10000000149011612,
        0.10000000149011612,
        0.10000000149011612,
        0.10000000149011612
      ],
      [
        0.10000000149011612
      ]
    ],
    "topology": [
      4,
      32,
      16,
      1
    ],
    "weights": [
      [
        0.25014716386795044,
        -0.1072920560836792,
        0.1939166784286499,
        -0.3722558617591858,
        0.1967821717262268,
        -0.2775825262069702,
        0.07444736361503601,
        0.2110062837600708,
        0.009987056255340576,
        0.3614591360092163,
        -0.31194302439689636,
        0.36589062213897705,
        -0.000614553689956665,
        -0.2575938105583191,
        0.2060920000076294,
        0.24368810653686523,
        0.07418960332870483,
        -0.31040817499160767,
        -0.3326519727706909,
        0.10119760036468506,
        -0.209178626537323,
        -0.3798666000366211,
        -0.015931755304336548,
        0.2549751400947571,
        0.09166175127029419,
        -0.2263745367527008,
        0.1443454623222351,
        0.38444554805755615,
        0.30465686321258545,
        -0.17927126586437225,
        0.30450665950775146,
        0.14655572175979614,
        0.1216849684715271,
        0.09017503261566162,
        0.1825481653213501,
        -0.08978119492530823,
        0.22084075212478638,
        -0.15125280618667603,
        -0.2870231866836548,
        -0.1774204820394516,
        -0.19804194569587708,
        -0.1907179057598114,
        -0.2197781205177307,
        0.209591805934906,
        -0.04006341099739075,
        0.39456218481063843,
        0.045031607151031494,
        -0.37412211298942566,
        -0.324094295501709,
        0.12062788009643555,
        0.13532376289367676,
        -0.12502461671829224,
        0.1490095853805542,
        -0.28885626792907715,
        -0.2782978415489197,
        -0.16757693886756897,
        -0.10698246955871582,
        0.27429598569869995,
        -0.19137968122959137,
        -0.21057389676570892,
        -0.31322360038757324,
        -0.29512137174606323,
        0.34423011541366577,
        0.2167096734046936,
        0.20330196619033813,
        0.11852997541427612,
        -0.281319797039032,
        0.015894442796707153,
        0.37552547454833984,
        -0.16009469330310822,
        0.2467222809791565,
        -0.23076477646827698,
        0.05743572115898132,
        -0.38130414485931396,
        0.3870753049850464,
        -0.39087602496147156,
        -0.39499029517173767,
        0.023858606815338135,
        -0.35674983263015747,
        -0.3108362555503845,
        -0.26376181840896606,
        0.18682223558425903,
        -0.02761256694793701,
        0.29349613189697266,
        0.3062143325805664,
        0.10233789682388306,
        -0.28232914209365845,
        -0.20901647210121155,
        -0.031614452600479126,
        -0.06546050310134888,
        -0.011342048645019531,
        0.06341025233268738,
        0.047666460275650024,
        -0.0753602385520935,
        -0.12812837958335876,
        -0.15727993845939636,
        -0.36507856845855713,
        -0.001199871301651001,
        0.26686280965805054,
        -0.39780139923095703,
        0.24695372581481934,
        0.10533678531646729,
        -0.22031787037849426,
        -0.10385885834693909,
        0.13228094577789307,
        -0.24149087071418762,
        -0.08648654818534851,
        0.14553892612457275,
        0.19061607122421265,
        -0.034988075494766235,
        0.24295097589492798,
        0.33510255813598633,
        -0.25641411542892456,
        -0.19290991127490997,
        0.22035038471221924,
        -0.3584481179714203,
        0.31767624616622925,
        0.34626954793930054,
        -0.1592162698507309,
        -0.12218645215034485,
        -0.12743932008743286,
        0.23768997192382813,
        0.3494720458984375,
        0.3284754157066345,
        -0.24591858685016632,
        -0.18690460920333862,
        -0.2370528131723404,
        -0.2027488648891449
      ],
      [
        0.19065013527870178,
        -0.3277371823787689,
        -0.16653837263584137,
        0.050964951515197754,
        0.11704054474830627,
        -0.003785848617553711,
        0.31457391381263733,
        -0.12195424735546112,
        0.140630304813385,
        -0.1138790100812912,
        -0.3494672179222107,
        -0.047844767570495605,
        0.20937380194664001,
        0.21448782086372375,
        -0.11119087040424347,
        0.3408660590648651,
        -0.30613043904304504,
        -0.27391526103019714,
        -0.32311248779296875,
        0.3225386440753937,
        -0.3275904655456543,
        -0.10744443535804749,
        -0.13683129847049713,
        -0.08440276980400085,
        -0.25515228509902954,
        -0.187732994556427,
        -0.15348809957504272,
        -0.11457061767578125,
        0.003956228494644165,
        -0.00522845983505249,
        0.0633971095085144,
        -0.15894699096679688,
        0.020587772130966187,
        0.25041213631629944,
        0.2455712854862213,
        -0.21592511236667633,
        -0.10692712664604187,
        0.20659181475639343,
        0.01567402482032776,
        -0.31985020637512207,
        -0.2608405351638794,
        0.019760161638259888,
        -0.014141559600830078,
        0.30208662152290344,
        -0.11930535733699799,
        0.22822096943855286,
        0.28939929604530334,
        -0.07188239693641663,
        0.3078590929508209,
        0.3198402225971222,
        -0.10289713740348816,
        0.33382198214530945,
        -0.1411576122045517,
        0.1138249933719635,
        -0.10413415729999542,
        -0.042756497859954834,
        0.2796453535556793,
        0.09593111276626587,
        0.19622626900672913,
        -0.06995177268981934,
        -0.26285073161125183,
        -0.09393003582954407,
        0.124654620885849,
        0.11129039525985718,
        -0.19707126915454865,
        0.016672521829605103,
        0.24891868233680725,
        0.04955500364303589,
        -0.1302889883518219,
        -0.0889606773853302,
        0.08325818181037903,
        -0.03757616877555847,
        0.2843528687953949,
        -0.28443676233291626,
        -0.08904293179512024,
        -0.1885058581829071,
        0.2973375618457794,
        -0.1531970053911209,
        0.09316512942314148,
        0.25164321064949036,
        -0.18691018223762512,
        0.34382137656211853,
        0.23191186785697937,
        0.025485575199127197,
        0.10409298539161682,
        -0.22577568888664246,
        0.3362824618816376,
        0.030184954404830933,
        0.223708838224411,
        0.1789553463459015,
        0.3137865960597992,
        0.3144114911556244,
        -0.2685280442237854,
        0.08488774299621582,
        0.07214850187301636,
        -0.11204594373703003,
        -0.2519930601119995,
        -0.0324862003326416,
        0.29106244444847107,
        -0.02872869372367859,
        0.2321065366268158,
        0.020767241716384888,
        0.28724852204322815,
        0.16290602087974548,
        0.08988383412361145,
        -0.1553477793931961,
        0.3279535472393036,
        0.03366801142692566,
        0.04500862956047058,
        0.06756532192230225,
        -0.06824210286140442,
        0.2116517722606659,
        0.057833313941955566,
        -0.18988364934921265,
        -0.11641600728034973,
        -0.19162708520889282,
        -0.06210598349571228,
        -0.13368691504001617,
        0.19211122393608093,
        -0.19195054471492767,
        -0.3082849681377411,
        0.15234437584877014,
        -0.2310924530029297,
        -0.22325962781906128,
        -0.11632120609283447,
        0.19460943341255188,
        0.0182478129863739,
        -0.014760911464691162,
        -0.19143015146255493,
        -0.04424315690994263,
        0.31006380915641785,
        -0.31287702918052673,
        0.3300774395465851,
        0.243758887052536,
        0.20358237624168396,
        0.06640791893005371,
        -0.2651422619819641,
        0.17798253893852234,
        -0.25347745418548584,
        0.1334197223186493,
        -0.10800553858280182,
        0.031833797693252563,
        -0.008481830358505249,
        0.30338117480278015,
        0.19550356268882751,
        0.22865554690361023,
        -0.24179929494857788,
        -0.22015580534934998,
        -0.25858476758003235,
        0.30386534333229065,
        -0.05855298042297363,
        -0.21331635117530823,
        0.1026563048362732,
        0.06390798091888428,
        -0.0830225944519043,
        0.33988848328590393,
        -0.09503597021102905,
        0.2887786328792572,
        -0.02842581272125244,
        0.06708723306655884,
        -0.10901793837547302,
        -0.07191541790962219,
        0.10776358842849731,
        -0.13249386847019196,
        -0.1817098706960678,
        -0.042207419872283936,
        0.28746744990348816,
        -0.0932987630367279,
        -0.21777823567390442,
        -0.3195634186267853,
        -0.31343239545822144,
        0.027769625186920166,
        0.0658237636089325,
        0.03163912892341614,
        -0.022402584552764893,
        -0.0922260582447052,
        -0.09325870871543884,
        0.08935147523880005,
        0.041171491146087646,
        0.0017099082469940186,
        0.03966343402862549,
        0.3361718952655792,
        0.1419469118118286,
        -0.21123363077640533,
        0.04652649164199829,
        -0.2946290373802185,
        -0.2248985469341278,
        0.30504390597343445,
        0.3477029502391815,
        0.10022902488708496,
        0.018577754497528076,
        -0.11486838757991791,
        -0.32523977756500244,
        -0.22721202671527863,
        0.10619112849235535,
        -0.15339627861976624,
        0.08413395285606384,
        0.04010516405105591,
        0.10685837268829346,
        0.21990910172462463,
        0.07409512996673584,
        0.14697936177253723,
        -0.10587465763092041,
        -0.21363447606563568,
        -0.17493484914302826,
        0.2252761423587799,
        0.047692835330963135,
        0.08535981178283691,
        -0.038925737142562866,
        -0.26468905806541443,
        -0.2664836645126343,
        -0.3528156876564026,
        -0.282070517539978,
        0.22901663184165955,
        -0.2104959338903427,
        0.11800935864448547,
        0.28794100880622864,
        -0.0818411111831665,
        0.06949985027313232,
        0.28209051489830017,
        -0.33516547083854675,
        -0.2654757499694824,
        -0.18633124232292175,
        -0.3068518340587616,
        -0.13913442194461823,
        0.2734132707118988,
        -0.10669472813606262,
        0.29855290055274963,
        -0.0400349497795105,
        -0.3533897399902344,
        0.16490861773490906,
        -0.31949320435523987,
        0.14714303612709045,
        -0.2945193946361542,
        -0.17957429587841034,
        0.3257615268230438,
        0.28431013226509094,
        0.2216719090938568,
        0.0575680136680603,
        -0.10816897451877594,
        0.3105362355709076,
        0.14463770389556885,
        -0.10743127763271332,
        -0.32508763670921326,
        0.02010101079940796,
        0.03562617301940918,
        0.14647510647773743,
        -0.045511394739151,
        0.3073384463787079,
        -0.13757841289043427,
        -0.11697423458099365,
        0.32572636008262634,
        -0.04950079321861267,
        0.050247907638549805,
        -0.33467885851860046,
        0.16491815447807312,
        -0.0298922061920166,
        -0.08782020211219788,
        0.10991770029067993,
        0.2836262285709381,
        -0.08765655755996704,
        -0.07872703671455383,
        0.31768640875816345,
        -0.2940669059753418,
        -0.01969301700592041,
        -0.2154412716627121,
        -0.3218587338924408,
        -0.08893626928329468,
        -0.3473227322101593,
        0.08926263451576233,
        0.15644815564155579,
        0.3167668879032135,
        -0.11965300142765045,
        -0.30453652143478394,
        0.34523269534111023,
        0.25400134921073914,
        0.08464303612709045,
        0.13815438747406006,
        -0.14506343007087708,
        0.03842809796333313,
        -0.3529774248600006,
        0.09151571989059448,
        0.010601073503494263,
        -0.04892483353614807,
        -0.21178974211215973,
        0.02947559952735901,
        -0.23756003379821777,
        0.11187142133712769,
        0.29520878195762634,
        0.22591105103492737,
        0.0419442355632782,
        -0.14600114524364471,
        -0.2063693255186081,
        0.006077289581298828,
        -0.08651465177536011,
        0.1274910569190979,
        0.14418941736221313,
        -0.05482000112533569,
        -0.3149986267089844,
        0.15042009949684143,
        -0.3191107511520386,
        0.195002943277359,
        0.11363360285758972,
        -0.08521038293838501,
        0.2440197765827179,
        0.10531288385391235,
        -0.1847623884677887,
        -0.02489057183265686,
        -0.11008612811565399,
        0.02372756600379944,
        -0.34001585841178894,
        -0.10951016843318939,
        -0.2383100688457489,
        0.024138599634170532,
        0.19511839747428894,
        -0.09654644131660461,
        -0.29993918538093567,
        0.311111718416214,
        -0.33822840452194214,
        0.3488229811191559,
        0.18346944451332092,
        0.057269275188446045,
        -0.15073154866695404,
        0.33065345883369446,
        -0.2902068495750427,
        0.11630716919898987,
        0.10459116101264954,
        0.20753595232963562,
        -0.29206621646881104,
        0.14314591884613037,
        0.004402607679367065,
        -0.2576235830783844,
        -0.015404552221298218,
        -0.23551714420318604,
        0.0107194185256958,
        -0.12493816018104553,
        0.22334912419319153,
        0.1795104444026947,
        0.20372465252876282,
        -0.24029040336608887,
        -0.15031538903713226,
        0.2172621786594391,
        0.003752797842025757,
        -0.03507208824157715,
        -0.1121525913476944,
        -0.1546822041273117,
        0.22193482518196106,
        -0.05853837728500366,
        -0.19712385535240173,
        0.23725983500480652,
        -0.06326878070831299,
        0.3398989737033844,
        -0.059024304151535034,
        0.13955307006835938,
        0.3169991075992584,
        0.004322230815887451,
        -0.09769314527511597,
        0.06803685426712036,
        -0.14169520139694214,
        -0.03620600700378418,
        -0.14237061142921448,
        0.21626082062721252,
        0.05972382426261902,
        0.19577822089195251,
        0.3342970907688141,
        -0.2831101417541504,
        -0.2827133238315582,
        0.20409277081489563,
        0.24995365738868713,
        0.2745647728443146,
        0.31735578179359436,
        -0.25391513109207153,
        0.13827353715896606,
        -0.03244480490684509,
        0.06456619501113892,
        -0.32743242383003235,
        0.16642633080482483,
        -0.06705233454704285,
        -0.03241744637489319,
        0.3228559195995331,
        -0.18334589898586273,
        0.25786712765693665,
        0.30920150876045227,
        0.11118316650390625,
        0.04386681318283081,
        0.2726471722126007,
        -0.23804795742034912,
        0.29972705245018005,
        -0.01286935806274414,
        -0.026189744472503662,
        -0.09003233909606934,
        0.1983133852481842,
        -0.16348230838775635,
        0.3232448995113373,
        0.04053822159767151,
        -0.18273861706256866,
        -0.3134186565876007,
        0.11137831211090088,
        -0.33219918608665466,
        0.29008838534355164,
        0.032389670610427856,
        0.3387099802494049,
        -0.3173801004886627,
        -0.1828901618719101,
        -0.04728823900222778,
        0.1007394790649414,
        -0.15676923096179962,
        -0.23441524803638458,
        -0.31986626982688904,
        0.1643666923046112,
        -0.2651127278804779,
        -0.14965879917144775,
        0.0686805248260498,
        -0.30946463346481323,
        0.3150777518749237,
        -0.2410060465335846,
        0.3167358934879303,
        -0.27652356028556824,
        -0.29483237862586975,
        -0.04968678951263428,
        0.05084004998207092,
        -0.03131133317947388,
        -0.2049267739057541,
        0.24091115593910217,
        -0.061619848012924194,
        0.18916484713554382,
        -0.2953808307647705,
        -0.021485120058059692,
        -0.05301019549369812,
        -0.27402663230895996,
        -0.08495011925697327,
        0.33293285965919495,
        -0.28887006640434265,
        -0.048776835203170776,
        -0.20351070165634155,
        0.017395108938217163,
        -0.3015907406806946,
        -0.0067265331745147705,
        0.1365332305431366,
        -0.2679036259651184,
        -0.1959131807088852,
        0.2249738872051239,
        -0.06400904059410095,
        0.22632071375846863,
        0.26906266808509827,
        -0.10248464345932007,
        0.33886805176734924,
        0.23224517703056335,
        -0.025454819202423096,
        -0.3095177412033081,
        -0.17099498212337494,
        -0.328168123960495,
        0.012724310159683228,
        -0.02236837148666382,
        0.2662964165210724,
        0.30465784668922424,
        -0.186756893992424,
        0.3244689404964447,
        -0.07038062810897827,
        0.11378628015518188,
        -0.30311107635498047,
        0.19822260737419128,
        0.09316572546958923,
        -0.2384277582168579,
        -0.20410758256912231,
        0.24320843815803528,
        0.1325206756591797,
        -0.15214495360851288,
        -0.1170714944601059,
        -0.08449944853782654,
        -0.06649520993232727,
        0.04056870937347412,
        -0.21307894587516785,
        0.223049134016037,
        -0.08666396141052246,
        -0.2975696623325348,
        -0.23298890888690948,
        -0.10134932398796082,
        0.28822895884513855,
        0.09510964155197144,
        -0.05731368064880371,
        -0.23631945252418518,
        0.12049490213394165,
        0.30896398425102234,
        0.09486556053161621,
        0.03323793411254883,
        0.26006844639778137,
        0.2616620361804962,
        0.00415349006652832,
        -0.16386555135250092,
        0.02189496159553528,
        0.05459579825401306,
        -0.31919631361961365,
        -0.2384926825761795,
        0.16972145438194275,
        -0.16975049674510956,
        -0.34883764386177063,
        -0.05131125450134277,
        0.03165793418884277,
        -0.11235573887825012,
        0.2177426517009735,
        0.3187160789966583,
        0.2817663848400116,
        -0.34888964891433716,
        0.1882118284702301,
        -0.15845099091529846,
        -0.29290592670440674,
        0.3087763488292694,
        0.09375309944152832,
        0.34887632727622986,
        0.05033257603645325,
        -0.317113995552063
      ],
      [
        -0.40495508909225464,
        -0.3070409893989563,
        0.58039391040802,
        0.34853947162628174,
        0.342898428440094,
        0.42330777645111084,
        0.19413119554519653,
        -0.24421077966690063,
        -0.4461299777030945,
        -0.363166481256485,
        0.44161713123321533,
        -0.38839852809906006,
        -0.16982582211494446,
        0.13271760940551758,
        -0.07954788208007813,
        -0.16190177202224731
      ]
    ]
  },
  {
    "biases": [
      [
        0.10000000149011612,
        0.10000000149011612,
        0.10000000149011612,
        0.10000000149011612,
        0.10000000149011612,
        0.10000000149011612,
        0.10000000149011612,
        0.10000000149011612,
        0.10000000149011612,
        0.10000000149011612,
        0.10000000149011612,
        0.10000000149011612,
        0.10000000149011612,
        0.10000000149011612,
        0.10000000149011612,
        0.10000000149011612,
        0.10000000149011612,
        0.10000000149011612,
        0.10000000149011612,
        0.10000000149011612,
        0.10000000149011612,
        0.10000000149011612,
        0.10000000149011612,
        0.10000000149011612,
        0.10000000149011612,
        0.10000000149011612,
        0.10000000149011612,
        0.10000000149011612,
        0.10000000149011612,
        0.10000000149011612,
        0.10000000149011612,
        0.10000000149011612
      ],
      [
        0.10000000149011612,
        0.10000000149011612,
        0.10000000149011612,
        0.10000000149011612,
        0.10000000149011612,
        0.10000000149011612,
        0.10000000149011612,
        0.10000000149011612,
        0.10000000149011612,
        0.10000000149011612,
        0.10000000149011612,
        0.10000000149011612,
        0.10000000149011612,
        0.10000000149011612,
        0.10000000149011612,
        0.10000000149011612
      ],
      [
        0.10000000149011612
      ]
    ],
    "topology": [
      4,
      32,
      16,
      1
    ],
    "weights": [
      [
        -0.31084108352661133,
        -0.34479886293411255,
        0.06866669654846191,
        -0.17245851457118988,
        -0.19272734224796295,
        -0.1784011721611023,
        -0.10112601518630981,
        -0.0018701255321502686,
        0.1511521339416504,
        -0.1552293300628662,
        -0.3466881811618805,
        0.223613440990448,
        -0.3122093677520752,
        0.13654643297195435,
        -0.2986299395561218,
        -0.09187754988670349,
        0.20171105861663818,
        -0.1033506691455841,
        0.11150848865509033,
        0.2946627140045166,
        -0.09669259190559387,
        0.22087258100509644,
        -0.3233662545681,
        -0.058752745389938354,
        0.34862416982650757,
        0.02839997410774231,
        0.11113464832305908,
        -0.13747471570968628,
        0.2721364498138428,
        -0.13423782587051392,
        -0.001783609390258789,
        0.3695436716079712,
        -0.07078838348388672,
        -0.3413652181625366,
        -0.21116310358047485,
        0.14473259449005127,
        -0.11151808500289917,
        0.09595918655395508,
        -0.26538580656051636,
        -0.3686142563819885,
        0.3489781618118286,
        -0.2038256973028183,
        0.2632474899291992,
        -0.37147951126098633,
        0.3409690856933594,
        0.37286585569381714,
        -0.055108726024627686,
        0.13443177938461304,
        -0.1387331485748291,
        -0.3518485426902771,
        0.020846158266067505,
        0.17282259464263916,
        0.2772722840309143,
        0.10572820901870728,
        -0.29417848587036133,
        0.21764814853668213,
        -0.27412015199661255,
        0.22520452737808228,
        -0.3280748426914215,
        0.40626466274261475,
        -0.3172816038131714,
        0.07838988304138184,
        0.3675600290298462,
        0.02017831802368164,
        0.14527297019958496,
        -0.2518513798713684,
        -0.24333737790584564,
        -0.37449342012405396,
        0.2523561120033264,
        -0.10047489404678345,
        -0.33485937118530273,
        0.19308596849441528,
        0.1039476990699768,
        0.33663642406463623,
        0.2298547625541687,
        0.03666844964027405,
        0.3012539744377136,
        -0.23350225389003754,
        -0.23714807629585266,
        -0.24572746455669403,
        -0.1771024912595749,
        0.1919463872909546,
        0.3353434205055237,
        -0.30807846784591675,
        -0.1105736792087555,
        -0.3670833706855774,
        0.3178180456161499,
        0.023554474115371704,
        0.26636940240859985,
        0.39799147844314575,
        0.02157077193260193,
        0.357336163520813,
        0.06813305616378784,
        -0.01911747455596924,
        -0.030733823776245117,
        -0.19484229385852814,
        0.13727939128875732,
        0.13417714834213257,
        -0.16108742356300354,
        -0.018612772226333618,
        -0.374546080827713,
        -0.08769848942756653,
        -0.2337750792503357,
        0.13764989376068115,
        -0.15931034088134766,
        0.40432804822921753,
        -0.23392991721630096,
        -0.2663046717643738,
        -0.23742254078388214,
        -0.06282970309257507,
        -0.10378384590148926,
        -0.006276726722717285,
        -0.27913159132003784,
        -0.17668874561786652,
        0.09389305114746094,
        0.018543004989624023,
        -0.13552379608154297,
        0.0034627914428710938,
        -0.366150826215744,
        -0.2774026393890381,
        -0.0067940354347229,
        0.06366825103759766,
        -0.32831481099128723,
        -0.3469092845916748,
        -0.36369752883911133,
        0.04919964075088501,
        -0.1335032880306244,
        0.18183016777038574
      ],
      [
        -0.19474445283412933,
        0.09843039512634277,
        -0.21220293641090393,
        -0.16555747389793396,
        -0.3310721218585968,
        -0.06110468506813049,
        0.3072042167186737,
        -0.11548551917076111,
        -0.06449976563453674,
        -0.24893838167190552,
        0.007441222667694092,
        0.08343967795372009,
        0.050202876329422,
        0.2711152136325836,
        -0.2755495309829712,
        0.16202124953269958,
        -0.23545512557029724,
        0.15931764245033264,
        -0.1754734218120575,
        0.0007311999797821045,
        -0.19123686850070953,
        -0.13901595771312714,
        0.1140468418598175,
        0.15643271803855896,
        0.26967576146125793,
        0.18327125906944275,
        0.2095538079738617,
        0.3082578480243683,
        -0.1276739537715912,
        -0.25961679220199585,
        0.11217400431632996,
        0.031134963035583496,
        0.19236698746681213,
        0.25352445244789124,
        0.21913084387779236,
        0.21484825015068054,
        -0.16113361716270447,
        0.17278173565864563,
        -0.2541906535625458,
        0.1279199719429016,
        0.27739670872688293,
        0.10680398344993591,
        -0.1421937346458435,
        -0.02595376968383789,
        0.024365752935409546,
        -0.06418988108634949,
        -0.2174859195947647,
        0.1424640715122223,
        -0.25842562317848206,
        -0.03940597176551819,
        -0.210358127951622,
        -0.09610909223556519,
        0.17513146996498108,
        0.2572421133518219,
        -0.2932297885417938,
        0.09125381708145142,
        0.08695998787879944,
        0.26987746357917786,
        0.04595828056335449,
        0.31283941864967346,
        -0.3432927131652832,
        -0.19542108476161957,
        -0.009578973054885864,
        0.20262768864631653,
        -0.29545000195503235,
        -0.14400146901607513,
        0.06392252445220947,
        -0.1030302345752716,
        -0.3247731328010559,
        0.16328522562980652,
        -0.3286636471748352,
        0.3061769902706146,
        -0.08346417546272278,
        -0.1173039972782135,
        -0.07333019375801086,
        0.294454962015152,
        0.17205950617790222,
        0.06273731589317322,
        0.08336567878723145,
        0.2671872675418854,
        -0.33022207021713257,
        0.22656092047691345,
        -0.1824752241373062,
        0.1984628140926361,
        0.13024964928627014,
        -0.12215161323547363,
        -0.06383678317070007,
        -0.13634371757507324,
        -0.20582754909992218,
        0.335674911737442,
        -0.177057683467865,
        -0.19556687772274017,
        -0.21329955756664276,
        0.16691675782203674,
        -0.34649261832237244,
        -0.1551961749792099,
        -0.3306381404399872,
        0.07098329067230225,
        0.0953269898891449,
        -0.3018578886985779,
        -0.11928482353687286,
        0.1202167272567749,
        -0.34923428297042847,
        0.15080443024635315,
        -0.3506406545639038,
        -0.06901109218597412,
        0.09170600771903992,
        0.174972265958786,
        0.3472796380519867,
        -0.17848169803619385,
        0.08860614895820618,
        -0.33649584650993347,
        -0.3054741621017456,
        0.259684294462204,
        0.21552029252052307,
        0.17832890152931213,
        -0.21602070331573486,
        -0.20186983048915863,
        -0.3115682601928711,
        -0.06829488277435303,
        -0.21974831819534302,
        -0.13507255911827087,
        0.08969160914421082,
        -0.07949450612068176,
        -0.32170921564102173,
        0.09675237536430359,
        0.11886271834373474,
        -0.2987939715385437,
        -0.1858176738023758,
        -0.13936369121074677,
        -0.24709844589233398,
        0.04845088720321655,
        0.33440640568733215,
        -0.24277935922145844,
        -0.1542981117963791,
        0.33731910586357117,
        0.04176291823387146,
        0.29096129536628723,
        0.15873798727989197,
        0.035489171743392944,
        -0.24107378721237183,
        -0.10620923340320587,
        0.052546679973602295,
        -0.19299456477165222,
        -0.2000783085823059,
        -0.08548635244369507,
        0.33888766169548035,
        -0.06254562735557556,
        0.06619718670845032,
        -0.32623395323753357,
        0.222712904214859,
        0.2000022828578949,
        -0.10775311291217804,
        -0.041148871183395386,
        -0.23304562270641327,
        -0.07590895891189575,
        -0.2979498505592346,
        0.23937049508094788,
        -0.021149516105651855,
        -0.1302141398191452,
        -0.2535465955734253,
        0.08530539274215698,
        0.27179011702537537,
        -0.27269357442855835,
        0.19607946276664734,
        -0.23606137931346893,
        -0.2889277935028076,
        -0.11571100354194641,
        -0.2986534535884857,
        0.22336360812187195,
        0.27333155274391174,
        -0.18617387115955353,
        -0.23639902472496033,
        -0.02767518162727356,
        -0.025615066289901733,
        -0.08292397856712341,
        0.2403918206691742,
        -0.04028075933456421,
        0.20808377861976624,
        -0.0469643771648407,
        -0.012961328029632568,
        0.07724329829216003,
        -0.2005155086517334,
        0.23283889889717102,
        -0.31745895743370056,
        -0.08000776171684265,
        -0.19662339985370636,
        -0.2618553936481476,
        -0.19419066607952118,
        0.1357804536819458,
        -0.03851616382598877,
        -0.09418386220932007,
        -0.13246752321720123,
        -0.12027943134307861,
        -0.013324052095413208,
        -0.2899414896965027,
        -0.0027874112129211426,
        0.051301509141922,
        -0.05209910869598389,
        0.05211251974105835,
        -0.07888826727867126,
        -0.13232097029685974,
        0.21949198842048645,
        0.03826609253883362,
        0.1935572326183319,
        -0.1596764326095581,
        0.3088954985141754,
        0.0803956687450409,
        0.1535961925983429,
        0.16342589259147644,
        -0.320122092962265,
        -0.2129185050725937,
        -0.11288416385650635,
        -0.1670842170715332,
        -0.3336329758167267,
        -0.0767897367477417,
        0.10646140575408936,
        -0.17670299112796783,
        0.014908254146575928,
        0.2658241093158722,
        0.31263086199760437,
        0.32994547486305237,
        -0.1819131225347519,
        -0.17339006066322327,
        -0.14388734102249146,
        0.1583162248134613,
        -0.10977816581726074,
        0.2068786323070526,
        -0.1439356505870819,
        0.19167611002922058,
        -0.09456226229667664,
        0.13072943687438965,
        -0.29419827461242676,
        -0.22862359881401062,
        -0.18455787003040314,
        0.25291237235069275,
        -0.034746646881103516,
        -0.22921574115753174,
        -0.020245373249053955,
        -0.23470382392406464,
        0.2877635657787323,
        0.013185948133468628,
        -0.0940689742565155,
        -0.17867399752140045,
        0.19965508580207825,
        -0.07414853572845459,
        0.09808966517448425,
        -0.04743689298629761,
        0.10270184278488159,
        -0.24055546522140503,
        -0.13516613841056824,
        0.06177932024002075,
        -0.26416337490081787,
        0.036474138498306274,
        0.2419426143169403,
        -0.054497331380844116,
        -0.15876305103302002,
        -0.22138890624046326,
        -0.20117208361625671,
        0.05085468292236328,
        0.32384058833122253,
        0.05781906843185425,
        -0.17196927964687347,
        -0.32391104102134705,
        0.18274882435798645,
        -0.0029737651348114014,
        0.2825547158718109,
        -0.20555119216442108,
        0.12136387825012207,
        -0.09124407172203064,
        -0.08670163154602051,
        0.05557408928871155,
        0.2754952609539032,
        0.1727827489376068,
        0.2304534614086151,
        0.12159693241119385,
        -0.2549191415309906,
        -0.025010287761688232,
        -0.2793933153152466,
        0.2013360559940338,
        0.08798760175704956,
        -0.06100606918334961,
        -0.09043797850608826,
        0.1773776113986969,
        0.32902148365974426,
        -0.20204870402812958,
        -0.23067310452461243,
        -0.18329498171806335,
        -0.06988421082496643,
        -0.07829180359840393,
        0.22111305594444275,
        -0.0995970070362091,
        0.33308061957359314,
        -0.30440959334373474,
        -0.06995466351509094,
        0.16227611899375916,
        0.046170055866241455,
        -0.14095334708690643,
        0.3102782666683197,
        -0.18601945042610168,
        0.12135595083236694,
        -0.12997674942016602,
        0.22310802340507507,
        0.04329782724380493,
        -0.31074732542037964,
        0.10000807046890259,
        -0.18865858018398285,
        -0.21211309731006622,
        -0.27855563163757324,
        -0.11449851095676422,
        0.3427763879299164,
        0.1629854142665863,
        0.17804881930351257,
        -0.1012149453163147,
        -0.013190358877182007,
        0.15351691842079163,
        0.05028975009918213,
        0.10968992114067078,
        0.3237752616405487,
        0.3339588940143585,
        -0.32215526700019836,
        0.19133499264717102,
        -0.11919146776199341,
        -0.34262800216674805,
        0.2404787838459015,
        0.16440722346305847,
        0.17320147156715393,
        -0.06690454483032227,
        -0.330099493265152,
        0.1299263834953308,
        0.10062938928604126,
        0.14480987191200256,
        0.35350301861763,
        -0.029816001653671265,
        -0.1654457002878189,
        -0.31079769134521484,
        -0.2833613455295563,
        -0.0005508959293365479,
        -0.16935741901397705,
        -0.2083635777235031,
        0.23850402235984802,
        -0.18013440072536469,
        0.3081752359867096,
        0.062999427318573,
        0.07220405340194702,
        -0.05856853723526001,
        -0.13703708350658417,
        -0.23105961084365845,
        -0.30243200063705444,
        -0.16681517660617828,
        -0.25065410137176514,
        -0.2710338830947876,
        -0.32903361320495605,
        -0.016292214393615723,
        -0.26010850071907043,
        0.26499858498573303,
        -0.20543833076953888,
        0.2666463553905487,
        -0.15545938909053802,
        -0.18198443949222565,
        0.043019384145736694,
        0.298723429441452,
        0.31637880206108093,
        0.04296901822090149,
        -0.08464598655700684,
        -0.20262028276920319,
        0.08572465181350708,
        -0.0144539475440979,
        0.15038219094276428,
        0.26992061734199524,
        0.130735844373703,
        0.03533279895782471,
        -0.2637671232223511,
        0.08535769581794739,
        -0.2552211880683899,
        0.16199025511741638,
        -0.32676422595977783,
        -0.038704872131347656,
        0.28448405861854553,
        -0.27564284205436707,
        0.1480332911014557,
        -0.3197234272956848,
        -0.19312332570552826,
        0.17255309224128723,
        0.01753777265548706,
        -0.09967842698097229,
        0.08399829268455505,
        0.16565284132957458,
        -0.1865854263305664,
        0.28209224343299866,
        0.3372217118740082,
        0.2099873125553131,
        0.22726228833198547,
        0.3000471889972687,
        -0.10059705376625061,
        -0.21093709766864777,
        -0.2561265230178833,
        0.33868101239204407,
        0.12816232442855835,
        0.24780908226966858,
        0.2550482451915741,
        -0.09465518593788147,
        -0.07041150331497192,
        0.3448345363140106,
        0.34425589442253113,
        0.027920693159103394,
        0.1532714068889618,
        -0.3360617160797119,
        0.34276917576789856,
        0.08420208096504211,
        -0.25815117359161377,
        0.1372491419315338,
        0.11803203821182251,
        -0.09772109985351563,
        -0.043751150369644165,
        -0.21798357367515564,
        0.15615388751029968,
        -0.3133062720298767,
        0.30122265219688416,
        0.3231218159198761,
        0.32233938574790955,
        0.2848909795284271,
        0.179555743932724,
        0.1960482895374298,
        0.2313847839832306,
        -0.2745947241783142,
        0.33866456151008606,
        0.3288116157054901,
        -0.2894671559333801,
        0.11327356100082397,
        0.22306731343269348,
        0.31913450360298157,
        -0.3349350094795227,
        -0.20089754462242126,
        0.3104155957698822,
        -0.3442324995994568,
        0.18057653307914734,
        0.11013361811637878,
        -0.3267408311367035,
        0.16979238390922546,
        -0.15921765565872192,
        -0.23133862018585205,
        -0.04651188850402832,
        0.3123677670955658,
        0.024493694305419922,
        0.2632903754711151,
        -0.25916919112205505,
        -0.17290587723255157,
        0.3035374581813812,
        -0.3114999532699585,
        -0.20333746075630188,
        0.27232351899147034,
        0.32694438099861145,
        0.32977166771888733,
        0.11481842398643494,
        0.20477578043937683,
        -0.2983764708042145,
        0.09992963075637817,
        0.1800340712070465,
        -0.2342902272939682,
        -0.14035017788410187,
        0.04954800009727478,
        -0.26870912313461304,
        -0.12173181772232056,
        0.20220384001731873,
        -0.31184688210487366,
        -0.11241091787815094,
        0.029226988554000854,
        0.1518401801586151,
        -0.08559834957122803,
        -0.1545340120792389,
        0.346175879240036,
        0.03661641478538513,
        0.1525074541568756,
        0.3049902617931366,
        -0.29244330525398254,
        0.06224444508552551,
        -0.30773231387138367,
        -0.11179579794406891,
        0.012228518724441528,
        -0.26567888259887695,
        0.038420140743255615,
        -0.06900137662887573,
        -0.2922878563404083,
        0.014638394117355347,
        -0.307736337184906,
        0.2660413086414337,
        0.06981527805328369,
        0.14574670791625977,
        0.09252199530601501,
        0.1890784204006195,
        -0.3481568694114685,
        -0.21148338913917542,
        0.27392271161079407,
        -0.11633530259132385,
        0.3442738354206085,
        0.3156292140483856,
        0.12480714917182922,
        0.019947469234466553,
        0.11391597986221313,
        -0.314344584941864,
        0.21896681189537048,
        0.10653850436210632,
        0.07582521438598633,
        0.01792091131210327,
        0.05797538161277771,
        0.13693532347679138,
        -0.27338799834251404,
        0.10379648208618164,
        -0.32841387391090393,
        0.0923939049243927,
        0.1916709840297699
      ],
      [
        0.10680156946182251,
        -0.5547811985015869,
        0.42501842975616455,
        -0.4626895785331726,
        -0.4777931272983551,
        0.2779686450958252,
        0.24871212244033813,
        0.3611988425254822,
        -0.16065189242362976,
        -0.027661025524139404,
        0.370266854763031,
        0.07807350158691406,
        -0.16146734356880188,
        -0.4193041920661926,
        0.06248074769973755,
        -0.22519272565841675
      ]
    ]
  },
  {
    "biases": [
      [
        0.10000000149011612,
        0.10000000149011612,
        0.10000000149011612,
        0.10000000149011612,
        0.10000000149011612,
        0.10000000149011612,
        0.10000000149011612,
        0.10000000149011612,
        0.10000000149011612,
        0.10000000149011612,
        0.10000000149011612,
        0.10000000149011612,
        0.10000000149011612,
        0.10000000149011612,
        0.10000000149011612,
        0.10000000149011612,
        0.10000000149011612,
        0.10000000149011612,
        0.10000000149011612,
        0.10000000149011612,
        0.10000000149011612,
        0.10000000149011612,
        0.10000000149011612,
        0.10000000149011612,
        0.10000000149011612,
        0.10000000149011612,
        0.10000000149011612,
        0.10000000149011612,
        0.10000000149011612,
        0.10000000149011612,
        0.10000000149011612,
        0.10000000149011612
      ],
      [
        0.10000000149011612,
        0.10000000149011612,
        0.10000000149011612,
        0.10000000149011612,
        0.10000000149011612,
        0.10000000149011612,
        0.10000000149011612,
        0.10000000149011612,
        0.10000000149011612,
        0.10000000149011612,
        0.10000000149011612,
        0.10000000149011612,
        0.10000000149011612,
        0.10000000149011612,
        0.10000000149011612,
        0.10000000149011612
      ],
      [
        0.10000000149011612
      ]
    ],
    "topology": [
      4,
      32,
      16,
      1
    ],
    "weights": [
      [
        0.006988048553466797,
        0.34074777364730835,
        0.019473910331726074,
        0.17436975240707397,
        0.13839924335479736,
        0.4034996032714844,
        0.3506739139556885,
        0.14888602495193481,
        -0.25993406772613525,
        -0.1467427909374237,
        -0.04558110237121582,
        0.16722774505615234,
        0.34378165006637573,
        -0.043726593255996704,
        -0.18472234904766083,
        0.0018276870250701904,
        -0.22308215498924255,
        0.218561053276062,
        0.1563326120376587,
        -0.0032563507556915283,
        -0.23315200209617615,
        -0.3575439751148224,
        -0.38007622957229614,
        -0.3163861036300659,
        -0.3207225799560547,
        0.22016644477844238,
        0.04628002643585205,
        0.3592175245285034,
        -0.3907300531864166,
        0.12975704669952393,
        0.303138792514801,
        0.024506300687789917,
        0.06225651502609253,
        -0.08563557267189026,
        -0.20937228202819824,
        -0.20759256184101105,
        -0.09038427472114563,
        -0.2669467031955719,
        0.34954172372817993,
        0.05792996287345886,
        -0.005441188812255859,
        -0.10428768396377563,
        -0.18309056758880615,
        -0.06990787386894226,
        0.2602340579032898,
        0.040435343980789185,
        0.3401681184768677,
        -0.3710964322090149,
        -0.14925187826156616,
        0.08825242519378662,
        0.03389549255371094,
        0.025844424962997437,
        0.13895678520202637,
        0.06206753849983215,
        0.11770659685134888,
        0.22648251056671143,
        -0.12601426243782043,
        -0.24426165223121643,
        0.17745167016983032,
        -0.10849601030349731,
        0.29374366998672485,
        0.0723421573638916,
        0.32425856590270996,
        -0.052248090505599976,
        0.3949549198150635,
        -0.29336199164390564,
        0.14840763807296753,
        -0.10367769002914429,
        -0.1520603895187378,
        0.08970105648040771,
        0.36250054836273193,
        0.2507466673851013,
        0.3936616778373718,
        -0.22883829474449158,
        -0.2274094521999359,
        0.24564743041992188,
        0.21984541416168213,
        -0.295489639043808,
        0.28279924392700195,
        -0.33765479922294617,
        0.201011061668396,
        -0.09155353903770447,
        0.09643793106079102,
        -0.06828048825263977,
        0.3787623643875122,
        -0.19410374760627747,
        -0.2500463128089905,
        -0.15550023317337036,
        -0.03011709451675415,
        0.33565372228622437,
        0.1442520022392273,
        -0.14462170004844666,
        -0.0002524256706237793,
        0.06026235222816467,
        0.21137851476669312,
        -0.013545811176300049,
        0.175148606300354,
        -0.0484621524810791,
        0.29102474451065063,
        -0.38516008853912354,
        -0.36700937151908875,
        0.2452770471572876,
        0.27383488416671753,
        -0.38159599900245667,
        -0.3918095529079437,
        -0.36182284355163574,
        0.27229976654052734,
        0.23628413677215576,
        -0.24906419217586517,
        0.14685070514678955,
        0.30687761306762695,
        0.36019521951675415,
        -0.35295113921165466,
        -0.004932701587677002,
        -0.11633360385894775,
        -0.3824371099472046,
        0.2092118263244629,
        0.0418684184551239,
        -0.1296890377998352,
        -0.229153573513031,
        -0.030726224184036255,
        -0.3936852812767029,
        0.034473031759262085,
        0.3772696852684021,
        0.07482531666755676,
        -0.16239675879478455,
        -0.04452449083328247,
        -0.15827436745166779
      ],
      [
        0.1709442436695099,
        -0.1400778740644455,
        -0.11707465350627899,
        0.20665815472602844,
        -0.281215101480484,
        -0.2334800511598587,
        0.22973975539207458,
        -0.26697874069213867,
        -0.19327442348003387,
        0.11200487613677979,
        0.29120269417762756,
        -0.05541694164276123,
        -0.11437208950519562,
        0.20341315865516663,
        -0.09703215956687927,
        -0.06648334860801697,
        -0.15441210567951202,
        0.1557733714580536,
        -0.04413020610809326,
        -0.3267827332019806,
        -0.16152089834213257,
        0.197109192609787,
        -0.17168214917182922,
        0.16542276740074158,
        0.20972111821174622,
        0.21172574162483215,
        0.13859450817108154,
        -0.07903161644935608,
        -0.2824673652648926,
        -0.2535181939601898,
        0.1374521255493164,
        0.24203023314476013,
        -0.04004266858100891,
        -0.3331758975982666,
        0.09513509273529053,
        0.03229561448097229,
        -0.2131025493144989,
        -0.028678536415100098,
        0.11887025833129883,
        -0.05282360315322876,
        -0.2702270448207855,
        0.05651956796646118,
        0.24531283974647522,
        -0.031045764684677124,
        -0.0936206579208374,
        -0.20527267456054688,
        0.2560242712497711,
        0.10552060604095459,
        0.3040541112422943,
        -0.14165930449962616,
        0.13229122757911682,
        -0.21102018654346466,
        -0.2981035113334656,
        0.3141624629497528,
        0.3079560101032257,
        0.26517102122306824,
        0.17233482003211975,
        0.09299713373184204,
        -0.16741399466991425,
        0.24342086911201477,
        0.19303235411643982,
        0.3235915005207062,
        0.13189774751663208,
        -0.2005637139081955,
        0.3439690172672272,
        -0.1265205442905426,
        0.18528524041175842,
        -0.22268691658973694,
        0.1983543336391449,
        -0.04939788579940796,
        0.07804286479949951,
        0.2816806733608246,
        -0.3464316725730896,
        -0.03019767999649048,
        -0.10291847586631775,
        -0.08649897575378418,
        0.11808302998542786,
        -0.20044758915901184,
        -0.3345317244529724,
        0.06858375668525696,
        0.011446505784988403,
        0.151312917470932,
        0.2111169397830963,
        0.06689634919166565,
        0.1119219958782196,
        0.1655195653438568,
        -0.021486014127731323,
        -0.06929650902748108,
        -0.09503668546676636,
        0.16465339064598083,
        -0.17942900955677032,
        -0.25555771589279175,
        0.1346915066242218,
        0.30602213740348816,
        -0.10256806015968323,
        0.12510713934898376,
        -0.17405174672603607,
        -0.2708361744880676,
        0.25597360730171204,
        -0.3292508125305176,
        0.033319324254989624,
        -0.019536912441253662,
        0.3059832751750946,
        0.040441036224365234,
        0.30381879210472107,
        -0.15048862993717194,
        0.30749550461769104,
        0.06834843754768372,
        0.002617180347442627,
        0.32651713490486145,
        -0.21662116050720215,
        -0.33948972821235657,
        0.12427663803100586,
        0.34804919362068176,
        0.08096000552177429,
        -0.11735472083091736,
        0.16001537442207336,
        -0.29407939314842224,
        0.16690215468406677,
        -0.2885746955871582,
        0.2241273820400238,
        0.34102651476860046,
        -0.19057904183864594,
        0.0052655041217803955,
        0.2934953272342682,
        0.06040629744529724,
        -0.22318078577518463,
        -0.2341098189353943,
        0.14312347769737244,
        -0.320760577917099,
        -0.20980724692344666,
        -0.17711055278778076,
        0.013255894184112549,
        -0.25737738609313965,
        0.21688386797904968,
        -0.03647869825363159,
        -0.05431264638900757,
        0.17082592844963074,
        -0.3216836154460907,
        0.30185791850090027,
        0.14378970861434937,
        -0.18475139141082764,
        0.3159215748310089,
        -0.08548706769943237,
        -0.19025559723377228,
        0.04332822561264038,
        0.15071162581443787,
        0.3233131468296051,
        0.10280221700668335,
        -0.03593960404396057,
        -0.3188149333000183,
        -0.026623815298080444,
        -0.04846647381782532,
        -0.15584057569503784,
        0.33219507336616516,
        -0.10852453112602234,
        0.2581190764904022,
        -0.24453911185264587,
        0.010919034481048584,
        0.047689199447631836,
        -0.21174630522727966,
        0.15466514229774475,
        0.22413203120231628,
        0.1550629436969757,
        0.2508411109447479,
        0.08746251463890076,
        -0.2349691092967987,
        -0.15702489018440247,
        -0.09526491165161133,
        -0.2030993402004242,
        -0.2087203413248062,
        -0.30502861738204956,
        -0.03429734706878662,
        -0.24635213613510132,
        -0.036962270736694336,
        0.12900042533874512,
        0.15052947402000427,
        -0.23980405926704407,
        0.09876018762588501,
        -0.10022169351577759,
        0.07780969142913818,
        0.13349860906600952,
        0.22670790553092957,
        -0.32421013712882996,
        0.3312114179134369,
        0.20534953474998474,
        -0.07918128371238708,
        0.2357771098613739,
        0.31436386704444885,
        0.2852911055088043,
        -0.07008704543113708,
        -0.2509358525276184,
        0.08640286326408386,
        -0.199508398771286,
        0.2576805055141449,
        -0.016309380531311035,
        0.24150750041007996,
        -0.330841988325119,
        0.1802191436290741,
        -0.20731079578399658,
        -0.1803879290819168,
        0.3250521719455719,
        -0.15878601372241974,
        0.13886812329292297,
        -0.27485334873199463,
        0.15780511498451233,
        -0.08568483591079712,
        0.22922948002815247,
        0.27155444025993347,
        -0.3404780328273773,
        -0.22454556822776794,
        -0.004189282655715942,
        0.1465739905834198,
        -0.3513910472393036,
        0.0251539945602417,
        0.12423205375671387,
        0.20751187205314636,
        0.2995261251926422,
        0.006455808877944946,
        0.16832235455513,
        0.23126378655433655,
        0.2899220883846283,
        0.2709399163722992,
        -0.03588670492172241,
        -0.26313966512680054,
        0.1750669777393341,
        0.30135729908943176,
        0.331921249628067,
        0.19777843356132507,
        0.12802302837371826,
        -0.22894297540187836,
        -0.33616289496421814,
        0.09952181577682495,
        -0.034175604581832886,
        0.15625861287117004,
        0.17822185158729553,
        -0.22992391884326935,
        -0.2829796075820923,
        0.05389794707298279,
        -0.3119228780269623,
        -0.2699042558670044,
        0.18290576338768005,
        0.03744122385978699,
        0.23022308945655823,
        0.18506810069084167,
        -0.2909581661224365,
        0.0009017288684844971,
        0.03902658820152283,
        -0.3449854552745819,
        -0.34619584679603577,
        -0.14620442688465118,
        0.23983177542686462,
        0.29727962613105774,
        -0.2288179099559784,
        -0.14960834383964539,
        -0.319413423538208,
        0.2998025119304657,
        -0.20180442929267883,
        -0.3410455882549286,
        0.14402753114700317,
        0.279772013425827,
        -0.21643516421318054,
        0.16141805052757263,
        0.02574041485786438,
        0.10294261574745178,
        -0.03587675094604492,
        -0.1495911329984665,
        0.22657206654548645,
        0.034697026014328,
        0.2578602135181427,
        0.2682025730609894,
        0.11834615468978882,
        0.08721256256103516,
        -0.04790958762168884,
        -0.004984140396118164,
        -0.08127272129058838,
        0.014685660600662231,
        0.34947100281715393,
        0.31130728125572205,
        0.023253560066223145,
        -0.35027822852134705,
        -0.18845054507255554,
        -0.09046807885169983,
        0.3005547821521759,
        -0.06371507048606873,
        0.11347696185112,
        0.3346947729587555,
        -0.11746595799922943,
        0.26522591710090637,
        0.3472025692462921,
        -0.32699182629585266,
        0.1914444863796234,
        -0.22278597950935364,
        0.18797960877418518,
        -0.13636846840381622,
        0.23371002078056335,
        -0.20145052671432495,
        0.06759375333786011,
        0.1067287027835846,
        0.18679991364479065,
        -0.028099417686462402,
        0.021377891302108765,
        -0.04840734601020813,
        -0.29444020986557007,
        0.32702168822288513,
        0.3001619279384613,
        -0.02215951681137085,
        -0.011846065521240234,
        0.29607954621315,
        -0.0644056499004364,
        -0.3421458899974823,
        0.2993547022342682,
        0.10069721937179565,
        -0.07906058430671692,
        0.24635609984397888,
        -0.31657126545906067,
        -0.31913700699806213,
        0.22749748826026917,
        -0.08048385381698608,
        0.29964229464530945,
        0.22114667296409607,
        -0.05392226576805115,
        0.13753342628479004,
        0.35191407799720764,
        -0.21949607133865356,
        -0.3523884415626526,
        0.23207071423530579,
        -0.0673932135105133,
        0.0687587559223175,
        -0.014753997325897217,
        -0.23414669930934906,
        -0.3128940463066101,
        -0.34692952036857605,
        0.07099935412406921,
        -0.25378087162971497,
        0.3336455523967743,
        0.01760786771774292,
        0.0776129961013794,
        -0.03175389766693115,
        -0.03986600041389465,
        -0.3403460383415222,
        -0.020346403121948242,
        -0.09406468272209167,
        0.11390456557273865,
        0.25414636731147766,
        -0.2012619823217392,
        0.1508866250514984,
        0.2885628044605255,
        -0.32731789350509644,
        -0.2831505835056305,
        0.23465171456336975,
        0.24738213419914246,
        0.01648050546646118,
        0.018631696701049805,
        0.2457428276538849,
        0.15053781867027283,
        0.019796669483184814,
        0.12426015734672546,
        -0.2704087495803833,
        -0.2649979889392853,
        -0.24404725432395935,
        -0.15100206434726715,
        -0.22433866560459137,
        -0.237423375248909,
        0.2735506594181061,
        -0.12456615269184113,
        -0.2573312222957611,
        -0.06239485740661621,
        0.3066002428531647,
        0.06446829438209534,
        0.25129255652427673,
        0.3198075592517853,
        -0.3094315230846405,
        -0.19632551074028015,
        0.08015871047973633,
        0.29826828837394714,
        -0.044034093618392944,
        -0.12250800430774689,
        0.2332775890827179,
        -0.01779860258102417,
        -0.05210518836975098,
        0.11437591910362244,
        -0.12396983802318573,
        0.3179287016391754,
        -0.22054576873779297,
        -0.23178036510944366,
        0.11491316556930542,
        0.15280428528785706,
        0.24603316187858582,
        0.19805780053138733,
        0.241359680891037,
        -0.35156747698783875,
        -0.3064976632595062,
        -0.3365323841571808,
        -0.23543746769428253,
        0.3206063210964203,
        -0.10754513740539551,
        -0.13921529054641724,
        -0.09534186124801636,
        -0.15449829399585724,
        0.2788063585758209,
        -0.19760270416736603,
        -0.18824411928653717,
        0.32292822003364563,
        -0.040374815464019775,
        0.24546799063682556,
        0.26764312386512756,
        0.2691444456577301,
        -0.23059339821338654,
        0.14736732840538025,
        -0.10220754146575928,
        0.0708547830581665,
        -0.09181013703346252,
        0.127375990152359,
        0.03523010015487671,
        0.04119747877120972,
        0.24914905428886414,
        -0.20341013371944427,
        -0.15955160558223724,
        0.14162880182266235,
        0.3482010066509247,
        -0.27174532413482666,
        0.14361470937728882,
        -0.31185004115104675,
        -0.25472432374954224,
        0.2617306411266327,
        -0.3447970449924469,
        -0.008716106414794922,
        -0.23103803396224976,
        -0.08658552169799805,
        0.19033899903297424,
        -0.30578505992889404,
        0.06936514377593994,
        -0.35145848989486694,
        -0.3364102244377136,
        -0.32456305623054504,
        0.24756285548210144,
        0.28478625416755676,
        0.29813477396965027,
        -0.3365839123725891,
        0.0786001980304718,
        -0.1576261818408966,
        0.0878242552280426,
        0.3403434455394745,
        0.3233032524585724,
        -0.2304990440607071,
        0.027987569570541382,
        0.21889886260032654,
        -0.08035582304000854,
        0.22198936343193054,
        0.006974279880523682,
        -0.08570817112922668,
        0.3037973940372467,
        -0.20296436548233032,
        -0.04400479793548584,
        -0.30448031425476074,
        -0.29478710889816284,
        -0.03524845838546753,
        0.040356963872909546,
        -0.1722717434167862,
        0.23171940445899963,
        -0.12285740673542023,
        -0.12450340390205383,
        -0.052468836307525635,
        -0.12076252698898315,
        -0.10736024379730225,
        -0.02347850799560547,
        -0.22675302624702454,
        -0.1761273741722107,
        -0.07889711856842041,
        -0.20978353917598724,
        0.2560262382030487,
        0.1170300841331482,
        0.23159411549568176,
        0.24281629920005798,
        0.08677995204925537,
        -0.3524583578109741,
        -0.08274954557418823,
        -0.04787459969520569,
        -0.07926073670387268,
        -0.2143135815858841,
        0.3126530945301056,
        0.18858447670936584,
        -0.2640695869922638,
        -0.24386465549468994,
        -0.2089737206697464,
        -0.21499651670455933,
        -0.18509837985038757,
        0.10933119058609009,
        0.17891386151313782,
        -0.003816753625869751,
        -0.012502789497375488,
        -0.2974969446659088,
        0.22523322701454163,
        0.2885817587375641,
        -0.06470608711242676,
        -0.23568040132522583,
        -0.08845013380050659,
        0.062094271183013916,
        -0.058254390954971313,
        0.1862061321735382,
        0.2058641016483307,
        -0.1557815819978714,
        -0.050317198038101196,
        0.08390480279922485,
        -0.2665186822414398,
        -0.3170906603336334,
        0.08499985933303833,
        0.004285186529159546,
        -0.011411875486373901,
        -0.34781429171562195,
        0.14352497458457947
      ],
      [
        -0.0879020094871521,
        0.3265289068222046,
        0.39153313636779785,
        0.09641194343566895,
        0.5694713592529297,
        -0.5638219118118286,
        0.37947291135787964,
        0.15909600257873535,
        0.330902099609375,
        -0.22102904319763184,
        -0.4560014605522156,
        0.42509567737579346,
        -0.4366500675678253,
        -0.5651756525039673,
        -0.27772077918052673,
        -0.23858383297920227
      ]
    ]
  },
  {
    "biases": [
      [
        0.10000000149011612,
        0.10000000149011612,
        0.10000000149011612,
        0.10000000149011612,
        0.10000000149011612,
        0.10000000149011612,
        0.10000000149011612,
        0.10000000149011612,
        0.10000000149011612,
        0.10000000149011612,
        0.10000000149011612,
        0.10000000149011612,
        0.10000000149011612,
        0.10000000149011612,
        0.10000000149011612,
        0.10000000149011612,
        0.10000000149011612,
        0.10000000149011612,
        0.10000000149011612,
        0.10000000149011612,
        0.10000000149011612,
        0.10000000149011612,
        0.10000000149011612,
        0.10000000149011612,
        0.10000000149011612,
        0.10000000149011612,
        0.10000000149011612,
        0.10000000149011612,
        0.10000000149011612,
        0.10000000149011612,
        0.10000000149011612,
        0.10000000149011612
      ],
      [
        0.10000000149011612,
        0.10000000149011612,
        0.10000000149011612,
        0.10000000149011612,
        0.10000000149011612,
        0.10000000149011612,
        0.10000000149011612,
        0.10000000149011612,
        0.10000000149011612,
        0.10000000149011612,
        0.10000000149011612,
        0.10000000149011612,
        0.10000000149011612,
        0.10000000149011612,
        0.10000000149011612,
        0.10000000149011612
      ],
      [
        0.10000000149011612
      ]
    ],
    "topology": [
      4,
      32,
      16,
      1
    ],
    "weights": [
      [
        0.03471386432647705,
        -0.14725053310394287,
        -0.051830023527145386,
        -0.30229300260543823,
        0.02296006679534912,
        -0.0776294469833374,
        0.37381023168563843,
        0.01203387975692749,
        -0.20908713340759277,
        0.016886621713638306,
        0.127282977104187,
        0.33996593952178955,
        -0.36854493618011475,
        -0.0013852417469024658,
        0.26336777210235596,
        -0.19968591630458832,
        0.16864794492721558,
        0.03402635455131531,
        0.11087757349014282,
        -0.3779592514038086,
        0.07515585422515869,
        0.38795846700668335,
        -0.40623003244400024,
        -0.34554368257522583,
        0.3465545177459717,
        -0.3661525845527649,
        0.24474096298217773,
        0.270122230052948,
        -0.3101711571216583,
        0.39219218492507935,
        -0.036203593015670776,
        0.13279098272323608,
        -0.1633066087961197,
        0.3202146887779236,
        0.23874634504318237,
        0.26790177822113037,
        -0.16566306352615356,
        0.20430827140808105,
        -0.12831264734268188,
        0.03349807858467102,
        -0.18705345690250397,
        0.4072186350822449,
        -0.03478425741195679,
        -0.14735010266304016,
        -0.0024149417877197266,
        -0.17966477572917938,
        0.06121233105659485,
        -0.2420152723789215,
        0.26260989904403687,
        -0.23615841567516327,
        -0.21172620356082916,
        -0.07048255205154419,
        -0.25644826889038086,
        -0.20970793068408966,
        -0.007777899503707886,
        -0.31814202666282654,
        -0.167612224817276,
        -0.17128527164459229,
        0.3602284789085388,
        -0.06953507661819458,
        -0.1873413622379303,
        -0.0842234194278717,
        -0.34499236941337585,
        0.05760028958320618,
        -0.17225703597068787,
        0.3020022511482239,
        -0.0827462375164032,
        0.07032817602157593,
        0.09806221723556519,
        0.19718939065933228,
        -0.3044220209121704,
        0.31925708055496216,
        0.1961597204208374,
        0.06904199719429016,
        -0.23634132742881775,
        -0.21450355648994446,
        0.29762548208236694,
        0.23311924934387207,
        -0.04827052354812622,
        0.15198713541030884,
        0.40520912408828735,
        0.14825159311294556,
        -0.3267437517642975,
        -0.25948745012283325,
        0.34679192304611206,
        0.07372665405273438,
        -0.16938115656375885,
        -0.2290685921907425,
        0.31068968772888184,
        -0.21740096807479858,
        0.10964465141296387,
        -0.2849000096321106,
        0.10662394762039185,
        0.17290055751800537,
        0.18094861507415771,
        0.3426152467727661,
        0.06665456295013428,
        -0.3100459575653076,
        0.004695087671279907,
        -0.24353152513504028,
        0.2953917384147644,
        0.10852134227752686,
        -0.33252277970314026,
        0.08330315351486206,
        -0.23068492114543915,
        -0.16061581671237946,
        0.27704787254333496,
        -0.34130769968032837,
        -0.33574482798576355,
        -0.1794709414243698,
        0.21892768144607544,
        -0.33878397941589355,
        0.3770289421081543,
        0.3004322052001953,
        -0.19002310931682587,
        0.3155725598335266,
        -0.03408941626548767,
        0.04884403944015503,
        -0.32174432277679443,
        -0.13164806365966797,
        0.2396913766860962,
        0.19614863395690918,
        -0.008299767971038818,
        -0.0619330108165741,
        -0.03919908404350281,
        -0.23559947311878204,
        -0.12756609916687012,
        -0.3807928264141083
      ],
      [
        -0.11898937821388245,
        0.24714395403862,
        -0.18712735176086426,
        -0.21672601997852325,
        -0.012427181005477905,
        -0.12154713273048401,
        0.20897004008293152,
        0.1413472592830658,
        0.09290888905525208,
        0.09534713625907898,
        0.19931945204734802,
        0.1556987464427948,
        0.29347410798072815,
        0.03536304831504822,
        0.21585658192634583,
        0.2664373815059662,
        -0.058008402585983276,
        -0.302261620759964,
        0.1861778199672699,
        0.2660227119922638,
        0.09359192848205566,
        0.2610924541950226,
        -0.2015412598848343,
        -0.05238264799118042,
        0.0774087905883789,
        0.1448243260383606,
        0.24753519892692566,
        -0.3100920021533966,
        0.29434260725975037,
        -0.21649369597434998,
        -0.28631484508514404,
        -0.17820018529891968,
        -0.3229031264781952,
        -0.11988884210586548,
        -0.041372835636138916,
        0.018223106861114502,
        0.11211743950843811,
        -0.185956209897995,
        -0.1939830482006073,
        -0.14852707087993622,
        0.2629442512989044,
        -0.3482169508934021,
        -0.3463817238807678,
        0.20286497473716736,
        0.04069948196411133,
        0.2230282723903656,
        0.11574897170066833,
        0.33624449372291565,
        0.2743200361728668,
        -0.05162659287452698,
        0.24871376156806946,
        0.014358580112457275,
        -0.14408746361732483,
        -0.30638083815574646,
        0.31552931666374207,
        0.2868746817111969,
        0.19199684262275696,
        0.20951107144355774,
        0.3303360641002655,
        0.13278603553771973,
        0.34657081961631775,
        -0.30953213572502136,
        0.30813923478126526,
        -0.32988572120666504,
        -0.07586759328842163,
        -0.08678698539733887,
        0.04189077019691467,
        -0.31730353832244873,
        0.08081015944480896,
        0.20146110653877258,
        -0.11227723956108093,
        -0.009798914194107056,
        0.20679756999015808,
        -0.10510554909706116,
        -0.16048729419708252,
        -0.106056347489357,
        -0.23563067615032196,
        0.30881503224372864,
        -0.12336523830890656,
        -0.31486400961875916,
        -0.09636488556861877,
        -0.22820481657981873,
        0.05304795503616333,
        0.1131010353565216,
        -0.18103228509426117,
        0.015023887157440186,
        0.046422362327575684,
        -0.3425888121128082,
        -0.1290183663368225,
        0.023205041885375977,
        0.14375057816505432,
        -0.13600096106529236,
        0.06722629070281982,
        0.09833648800849915,
        -0.11233329772949219,
        0.3449120819568634,
        -0.34200388193130493,
        0.2831108868122101,
        -0.32594484090805054,
        0.09235966205596924,
        0.13101857900619507,
        -0.08466869592666626,
        -0.27099260687828064,
        -0.01573723554611206,
        0.1637791097164154,
        -0.07792651653289795,
        0.23175981640815735,
        0.28170183300971985,
        -0.12266483902931213,
        -0.24515880644321442,
        0.3203912079334259,
        0.1345236897468567,
        -0.11981025338172913,
        0.019885778427124023,
        -0.1059286892414093,
        0.05271086096763611,
        -0.318643718957901,
        0.2940470278263092,
        0.0636754035949707,
        -0.09410873055458069,
        -0.03630128502845764,
        -0.1461273580789566,
        0.12344369292259216,
        -0.322628378868103,
        0.30576249957084656,
        -0.34244298934936523,
        -0.33126968145370483,
        0.31731197237968445,
        0.29422131180763245,
        -0.30366113781929016,
        0.056118279695510864,
        0.07168647646903992,
        -0.03477644920349121,
        0.13867905735969543,
        -0.29760414361953735,
        -0.22455070912837982,
        -0.2928008437156677,
        0.2877090275287628,
        -0.296402245759964,
        -0.06191229820251465,
        -0.3110031485557556,
        -0.3295644223690033,
        -0.28094202280044556,
        -0.07725998759269714,
        0.04387471079826355,
        -0.03331732749938965,
        0.3290042579174042,
        0.07878437638282776,
        -0.09282368421554565,
        0.03912627696990967,
        0.3382290303707123,
        0.2244284451007843,
        0.24655231833457947,
        0.10811933875083923,
        0.25535348057746887,
        0.19876143336296082,
        0.1192297637462616,
        0.27763715386390686,
        0.16252002120018005,
        0.059897661209106445,
        0.3275294601917267,
        -0.13491511344909668,
        -0.22196924686431885,
        -0.060800403356552124,
        -0.34978944063186646,
        -0.1660199910402298,
        0.06820228695869446,
        -0.28903692960739136,
        -0.231864333152771,
        0.1253533959388733,
        0.002604156732559204,
        -0.189314067363739,
        0.14934232831001282,
        0.07521551847457886,
        0.08697929978370667,
        -0.16033633053302765,
        -0.3116551637649536,
        0.06243014335632324,
        0.2720014750957489,
        -0.05092543363571167,
        -0.2519969344139099,
        0.25667712092399597,
        -0.18005040287971497,
        0.3481087386608124,
        0.011243104934692383,
        -0.2782503366470337,
        0.19331678748130798,
        -0.22308053076267242,
        0.352940171957016,
        0.002283334732055664,
        0.19037052989006042,
        0.32691624760627747,
        0.22092166543006897,
        0.3219546377658844,
        -0.08743757009506226,
        0.22468557953834534,
        -0.1976187378168106,
        0.334318071603775,
        0.2892020642757416,
        -0.0759296715259552,
        0.1061180830001831,
        -0.06174716353416443,
        0.08830961585044861,
        -0.0980929434299469,
        -0.3400850296020508,
        -0.17826443910598755,
        0.09512412548065186,
        -0.2981868088245392,
        0.2377190887928009,
        0.013572216033935547,
        0.0044411420822143555,
        0.3392755687236786,
        -0.08330407738685608,
        0.1779440939426422,
        0.33383092284202576,
        0.2814923822879791,
        0.25324711203575134,
        0.17359426617622375,
        -0.2951415479183197,
        0.2526339590549469,
        -0.1776757836341858,
        0.24878236651420593,
        0.22599682211875916,
        -0.3103075325489044,
        0.21718361973762512,
        -0.21499411761760712,
        0.26793143153190613,
        -0.3339885175228119,
        -0.2342294156551361,
        0.2035801112651825,
        -0.05636480450630188,
        0.2254420816898346,
        -0.21172046661376953,
        -0.3216085433959961,
        -0.2262042760848999,
        -0.1982520967721939,
        -0.14631961286067963,
        0.22247323393821716,
        -0.14288552105426788,
        -0.26215389370918274,
        -0.1175079345703125,
        0.2151089608669281,
        -0.27643173933029175,
        0.15274134278297424,
        0.03949970006942749,
        -0.2961542308330536,
        0.08068037033081055,
        -0.06080654263496399,
        0.23099341988563538,
        0.13909217715263367,
        -0.1617259681224823,
        -0.3002357482910156,
        0.03432118892669678,
        -0.28928253054618835,
        -0.25698989629745483,
        -0.1020486056804657,
        -0.15072326362133026,
        -0.3426118493080139,
        -0.08248370885848999,
        -0.031399309635162354,
        0.2145216166973114,
        0.21470484137535095,
        -0.15951062738895416,
        -0.35075223445892334,
        0.24664965271949768,
        -0.03216150403022766,
        -0.19545093178749084,
        -0.2532232999801636,
        -0.16324163973331451,
        0.015216916799545288,
        -0.1618238091468811,
        0.072803795337677,
        -0.12322750687599182,
        -0.08470213413238525,
        -0.12800823152065277,
        0.2698255479335785,
        -0.027302980422973633,
        0.3062255084514618,
        -0.1445343792438507,
        -0.14986295998096466,
        0.09176430106163025,
        0.04729306697845459,
        -0.09654533863067627,
        -0.227467879652977,
        0.11156392097473145,
        1.817941665649414e-05,
        0.024036884307861328,
        0.3143940269947052,
        0.0109596848487854,
        0.29510655999183655,
        -0.07055863738059998,
        -0.12807205319404602,
        0.1562580168247223,
        0.12348410487174988,
        -0.12527088820934296,
        0.049354344606399536,
        -0.2622307538986206,
        0.032831549644470215,
        0.14968439936637878,
        -0.07191899418830872,
        -0.3055049180984497,
        0.3414140045642853,
        -0.3526685833930969,
        -0.07517904043197632,
        -0.09684154391288757,
        -0.12712343037128448,
        -0.15890687704086304,
        0.22940883040428162,
        -0.1744513064622879,
        0.050112128257751465,
        -0.27400749921798706,
        0.27086642384529114,
        -0.25614818930625916,
        -0.01699945330619812,
        -0.31015488505363464,
        0.2089690864086151,
        0.3365720808506012,
        0.06743541359901428,
        0.1698097288608551,
        -0.006021618843078613,
        0.008988559246063232,
        -0.2543022632598877,
        0.21945974230766296,
        -0.1883067935705185,
        0.22273525595664978,
        -0.2593645453453064,
        0.21460089087486267,
        0.314057856798172,
        0.12702038884162903,
        0.010731935501098633,
        -0.11141449213027954,
        0.17506888508796692,
        -0.0014074742794036865,
        -0.11052970588207245,
        -0.253663569688797,
        0.25530436635017395,
        0.11590024828910828,
        -0.059017062187194824,
        0.13115981221199036,
        0.2950023114681244,
        0.34464845061302185,
        0.21070566773414612,
        0.21231535077095032,
        -0.2650530934333801,
        -0.1598471850156784,
        0.2557138502597809,
        0.2974693477153778,
        -0.17682847380638123,
        -0.03040415048599243,
        0.11372578144073486,
        0.17070326209068298,
        0.332137793302536,
        0.2129768431186676,
        0.036609649658203125,
        -0.2097223848104477,
        0.08215871453285217,
        0.13079848885536194,
        -0.34867483377456665,
        0.04266321659088135,
        -0.09573447704315186,
        0.015610486268997192,
        0.284802109003067,
        -0.27421900629997253,
        -0.3393504023551941,
        -0.17928099632263184,
        -0.17432917654514313,
        0.2695073187351227,
        0.29017260670661926,
        0.12020716071128845,
        0.04711371660232544,
        0.23162159323692322,
        0.11130222678184509,
        -0.09573397040367126,
        0.09038352966308594,
        0.19980254769325256,
        0.09797224402427673,
        -0.007456004619598389,
        0.14371851086616516,
        0.2746971547603607,
        0.3156932294368744,
        -0.09610912203788757,
        0.09184703230857849,
        0.2942776381969452,
        -0.2366856336593628,
        -0.2250966876745224,
        -0.2689981162548065,
        0.19902649521827698,
        0.25925520062446594,
