{
    "biases": [
        [
            0.10000000149011612,
            0.10000000149011612,
            0.10000000149011612,
            0.10000000149011612,
            0.10000000149011612,
            0.10000000149011612,
            0.10000000149011612,
            0.10000000149011612,
            0.10000000149011612,
            0.10000000149011612,
            0.10000000149011612,
            0.10000000149011612,
            0.10000000149011612,
            0.10000000149011612,
            0.10000000149011612,
            0.10000000149011612,
            0.10000000149011612,
            0.10000000149011612,
            0.10000000149011612,
            0.10000000149011612,
            0.10000000149011612,
            0.10000000149011612,
            0.10000000149011612,
            0.10000000149011612,
            0.10000000149011612,
            0.10000000149011612,
            0.10000000149011612,
            0.10000000149011612,
            0.10000000149011612,
            0.10000000149011612,
            0.10000000149011612,
            0.10000000149011612
        ],
        [
            0.10000000149011612,
            0.10000000149011612,
            0.10000000149011612,
            0.10000000149011612,
            0.10000000149011612,
            0.10000000149011612,
            0.10000000149011612,
            0.10000000149011612,
            0.10000000149011612,
            0.10000000149011612,
            0.10000000149011612,
            0.10000000149011612,
            0.10000000149011612,
            0.10000000149011612,
            0.10000000149011612,
            0.10000000149011612
        ],
        [
            0.10000000149011612
        ]
    ],
    "topology": [
        3,
        32,
        16,
        1
    ],
    "weights": [
        [
            -0.11164557933807373,
            -0.17500677704811096,
            0.009733378887176514,
            -0.32357385754585266,
            0.04452383518218994,
            0.09747812151908875,
            0.023278653621673584,
            0.16528639197349548,
            -0.23376505076885223,
            0.06751051545143127,
            -0.07736936211585999,
            0.025183260440826416,
            0.30854013562202454,
            0.03462344408035278,
            -0.3986477553844452,
            0.0430179238319397,
            0.3721894323825836,
            0.03376436233520508,
            -0.36208999156951904,
            0.40126094222068787,
            -0.2718353271484375,
            -0.40382206439971924,
            -0.185882568359375,
            0.21405532956123352,
            0.03858819603919983,
            0.012226790189743042,
            0.24521347880363464,
            0.03957629203796387,
            -0.21221297979354858,
            -0.3387250602245331,
            -0.29856157302856445,
            0.09018078446388245,
            -0.09969252347946167,
            0.12521114945411682,
            0.18064627051353455,
            0.35887065529823303,
            -0.1913500726222992,
            -0.21011440455913544,
            0.11011770367622375,
            -0.011075794696807861,
            0.2714354693889618,
            -0.381291002035141,
            -0.3999318778514862,
            0.16593626141548157,
            0.06737178564071655,
            -0.38454028964042664,
            -0.2050851583480835,
            0.02552187442779541,
            0.0632634162902832,
            -0.15313580632209778,
            0.012743473052978516,
            0.20546743273735046,
            -0.14291852712631226,
            0.24090024828910828,
            0.005483359098434448,
            0.3097090423107147,
            -0.16091230511665344,
            -0.16334250569343567,
            -0.06475403904914856,
            0.040914058685302734,
            -0.08802822232246399,
            0.05072373151779175,
            -0.2829445004463196,
            0.22631856799125671,
            -0.238104447722435,
            0.3117411434650421,
            0.17114993929862976,
            -0.015415191650390625,
            -0.3124126195907593,
            -0.13277176022529602,
            0.3875483572483063,
            0.37306222319602966,
            -0.10002341866493225,
            0.40165582299232483,
            0.1249590814113617,
            0.3813876807689667,
            -0.3969237804412842,
            0.33391329646110535,
            -0.0071297287940979,
            0.08037897944450378,
            -0.2332618683576584,
            -0.40842559933662415,
            -0.1281929314136505,
            0.03785896301269531,
            0.2465139925479889,
            0.2913297712802887,
            -0.06647136807441711,
            -0.3284376263618469,
            -0.28605207800865173,
            0.2828139364719391,
            0.12651577591896057,
            0.03995901346206665,
            -0.08050167560577393,
            0.25761064887046814,
            -0.14776170253753662,
            0.09543326497077942
        ],
        [
            0.13262322545051575,
            -0.3335818946361542,
            -0.285224974155426,
            0.21940359473228455,
            -0.09340399503707886,
            -0.30784595012664795,
            0.18441274762153625,
            0.17473813891410828,
            -0.3184203505516052,
            -0.06243652105331421,
            0.14685645699501038,
            -0.3038051724433899,
            -0.1308571696281433,
            -0.21278508007526398,
            0.11838480830192566,
            0.023510992527008057,
            -0.20799143612384796,
            -0.34463414549827576,
            -0.2977141737937927,
            -0.3510434329509735,
            0.25768938660621643,
            -0.0009215474128723145,
            -0.2779470682144165,
            -0.34012746810913086,
            -0.1129765659570694,
            0.18363973498344421,
            0.04754742980003357,
            0.17183545231819153,
            0.05006328225135803,
            0.27492526173591614,
            -0.10022631287574768,
            -0.17086684703826904,
            0.2948967516422272,
            -0.031897902488708496,
            -0.3050166368484497,
            -0.1520606428384781,
            0.013809531927108765,
            0.23294946551322937,
            -0.33087587356567383,
            0.04894256591796875,
            -0.18304044008255005,
            0.16953393816947937,
            0.09869080781936646,
            0.03965574502944946,
            0.3103022873401642,
            -0.1364777684211731,
            -0.2903866171836853,
            -0.2512425184249878,
            -0.12755852937698364,
            -0.2345474362373352,
            -0.2487325817346573,
            -0.22342252731323242,
            0.11808443069458008,
            -0.17312626540660858,
            -0.20999661087989807,
            -0.3484455347061157,
            -0.34303992986679077,
            0.1911042034626007,
            0.17694327235221863,
            0.06057676672935486,
            0.11247608065605164,
            -0.2768363952636719,
            0.24326327443122864,
            0.05381941795349121,
            0.04481908679008484,
            0.29180005192756653,
            0.2553121745586395,
            -0.2949247360229492,
            0.1711961328983307,
            0.2779896557331085,
            0.10757124423980713,
            0.34170910716056824,
            0.09397026896476746,
            -0.14729134738445282,
            0.027811497449874878,
            0.05071917176246643,
            0.0697842538356781,
            0.0909782350063324,
            0.15303000807762146,
            0.29577913880348206,
            0.2099842131137848,
            0.25785085558891296,
            -0.2811967730522156,
            -0.025484800338745117,
            -0.268828809261322,
            -0.13763999938964844,
            -0.020376920700073242,
            -0.2583153545856476,
            -0.30008918046951294,
            -0.19698700308799744,
            0.15581479668617249,
            0.1659403145313263,
            -0.1202700138092041,
            0.0455247163772583,
            -0.1337936520576477,
            0.27810248732566833,
            -0.016228586435317993,
            -0.23203489184379578,
            0.33673110604286194,
            -0.19858580827713013,
            -0.30759862065315247,
            0.09074899554252625,
            -0.2104301005601883,
            0.1399250626564026,
            0.29701104760169983,
            0.1709347665309906,
            -0.16290917992591858,
            0.01324191689491272,
            -0.09164038300514221,
            0.3436742126941681,
            -0.04453235864639282,
            -0.23520956933498383,
            0.24797162413597107,
            0.02782425284385681,
            0.09285902976989746,
            0.33269622921943665,
            0.2437376081943512,
            -0.2810712456703186,
            -0.27917250990867615,
            0.29720184206962585,
            -0.12450487911701202,
            0.23019567131996155,
            0.10958877205848694,
            0.10877847671508789,
            -0.07783299684524536,
            0.32934847474098206,
            0.033327579498291016,
            0.25949183106422424,
            -0.25623977184295654,
            0.016505300998687744,
            -0.2926473915576935,
            -0.2102850079536438,
            -0.2462991178035736,
            -0.14952409267425537,
            0.283193439245224,
            -0.3028414845466614,
            -0.33214271068573,
            -0.23326915502548218,
            0.06395378708839417,
            -0.0702296793460846,
            -0.2431483119726181,
            -0.33413195610046387,
            0.048114120960235596,
            -0.34873002767562866,
            0.04724565148353577,
            -0.21258021891117096,
            0.3375195562839508,
            -0.06257009506225586,
            -0.14009808003902435,
            -0.29520630836486816,
            -0.11892162263393402,
            0.08895042538642883,
            0.288542777299881,
            0.34422048926353455,
            -0.1558244824409485,
            -0.14284363389015198,
            0.32001563906669617,
            0.23105642199516296,
            -0.23690521717071533,
            -0.2897775173187256,
            -0.10599164664745331,
            -0.1759992092847824,
            -0.14650914072990417,
            0.0012626349925994873,
            0.028030067682266235,
            -0.21686911582946777,
            0.05197453498840332,
            0.049440741539001465,
            -0.09658488631248474,
            -0.2376250922679901,
            0.33276447653770447,
            0.01382020115852356,
            -0.21820366382598877,
            0.027325183153152466,
            0.01864352822303772,
            0.1825954020023346,
            0.16829833388328552,
            0.002609729766845703,
            -0.23352807760238647,
            -0.32535311579704285,
            0.06095680594444275,
            0.0011036694049835205,
            0.11715066432952881,
            -0.004053831100463867,
            -0.008229166269302368,
            0.31487956643104553,
            0.20665588974952698,
            -0.0417669415473938,
            0.19238266348838806,
            0.32330408692359924,
            0.022008925676345825,
            -0.26716238260269165,
            -0.20624850690364838,
            0.22905316948890686,
            0.08765363693237305,
            0.17533496022224426,
            -0.3413693308830261,
            -0.21392525732517242,
            -0.1287776678800583,
            -0.08440080285072327,
            -0.09799695014953613,
            -0.1495666205883026,
            0.2829727828502655,
            0.03735277056694031,
            0.23131194710731506,
            -0.051937103271484375,
            -0.1336052119731903,
            0.046056926250457764,
            0.30422601103782654,
            -0.01357993483543396,
            0.07425719499588013,
            0.011629462242126465,
            0.34107717871665955,
            -0.1621454954147339,
            -0.3459777534008026,
            -0.020705431699752808,
            -0.20081931352615356,
            0.21423152089118958,
            0.291081041097641,
            0.3451167047023773,
            0.1839822232723236,
            -0.040463417768478394,
            -0.27559906244277954,
            0.33128711581230164,
            -0.16496364772319794,
            0.16560795903205872,
            0.1530686914920807,
            -0.15277957916259766,
            0.3052360713481903,
            -0.329262375831604,
            0.1163729727268219,
            -0.14631426334381104,
            -0.1252756267786026,
            0.045792341232299805,
            0.24459192156791687,
            -0.24751704931259155,
            0.34740862250328064,
            -0.24256670475006104,
            0.15209326148033142,
            0.29808130860328674,
            0.0974067747592926,
            -0.12720291316509247,
            -0.043842613697052,
            0.08493053913116455,
            0.06420496106147766,
            -0.03626701235771179,
            -0.28932827711105347,
            0.21693900227546692,
            -0.17558886110782623,
            -0.3518006503582001,
            0.2085023820400238,
            -0.34516000747680664,
            -0.038710713386535645,
            0.2864566743373871,
            0.3396805226802826,
            0.14987900853157043,
            0.0985112190246582,
            0.1391957700252533,
            0.3506528437137604,
            0.0501939058303833,
            0.16348674893379211,
            0.11347246170043945,
            0.2574330270290375,
            -0.3153422474861145,
            -0.19428858160972595,
            0.14847156405448914,
            -0.20930591225624084,
            -0.20043331384658813,
            0.2594582140445709,
            0.2963407337665558,
            -0.2559053897857666,
            0.0033116042613983154,
            -0.1844155639410019,
            0.05380535125732422,
            -0.26531124114990234,
            0.23334279656410217,
            -0.3360150456428528,
            -0.201086163520813,
            0.09672844409942627,
            -0.1580505073070526,
            -0.19933342933654785,
            -0.04832261800765991,
            -0.14965716004371643,
            0.11550924181938171,
            -0.11541932821273804,
            -0.16353006660938263,
            -0.08816507458686829,
            0.3366452753543854,
            0.3292190730571747,
            -0.09106558561325073,
            0.03328579664230347,
            0.13915246725082397,
            -0.3311465084552765,
            -0.06283453106880188,
            0.17736360430717468,
            -0.17188172042369843,
            -0.26791638135910034,
            0.32161107659339905,
            -0.018761634826660156,
            0.3450952470302582,
            0.2643984258174896,
            0.07888633012771606,
            -0.005146503448486328,
            -0.27357053756713867,
            -0.22086170315742493,
            0.08309563994407654,
            0.3133256137371063,
            -0.2033233642578125,
            0.23556283116340637,
            0.05650067329406738,
            -0.007820487022399902,
            -0.3173239827156067,
            -0.34537532925605774,
            0.1960757076740265,
            0.15173867344856262,
            -0.10724125802516937,
            -0.32100769877433777,
            -0.2899797856807709,
            -0.12414935231208801,
            -0.3453419804573059,
            -0.027491986751556396,
            0.26268985867500305,
            0.1473638117313385,
            -0.005085110664367676,
            -0.1536981165409088,
            -0.02882593870162964,
            0.17658653855323792,
            -0.06806108355522156,
            -0.0607682466506958,
            -0.19572849571704865,
            -0.07651922106742859,
            -0.14992323517799377,
            0.23671123385429382,
            0.2718876302242279,
            -0.06994038820266724,
            -0.3377038538455963,
            0.0014298856258392334,
            -0.11016812920570374,
            -0.1874738335609436,
            -0.1165606826543808,
            0.29988589882850647,
            0.1582590639591217,
            -0.08033126592636108,
            0.3080640137195587,
            0.0007814168930053711,
            -0.28214600682258606,
            -0.15273065865039825,
            0.03332710266113281,
            -0.21857240796089172,
            0.07667338848114014,
            0.041538506746292114,
            0.10748898983001709,
            -0.014190196990966797,
            -0.164651021361351,
            -0.2511495053768158,
            0.185665100812912,
            0.16007640957832336,
            0.27899041771888733,
            -0.23594941198825836,
            -0.25424522161483765,
            -0.2702914774417877,
            0.041084736585617065,
            -0.05061504244804382,
            0.3199731409549713,
            -0.04058101773262024,
            0.23299798369407654,
            0.3358226716518402,
            0.3144022524356842,
            -0.2307235598564148,
            -0.205204576253891,
            -0.155711829662323,
            -0.28439104557037354,
            0.3066078722476959,
            0.11751025915145874,
            -0.32988041639328003,
            -0.046164125204086304,
            0.18891766667366028,
            -0.12905769050121307,
            0.3407163918018341,
            0.32389864325523376,
            0.3011690676212311,
            0.028701484203338623,
            0.07783421874046326,
            -0.06657451391220093,
            0.21760383248329163,
            0.18023809790611267,
            -0.23446285724639893,
            0.024126887321472168,
            0.10567513108253479,
            -0.11685888469219208,
            0.12343505024909973,
            0.18893703818321228,
            0.2777792513370514,
            -0.2807333767414093,
            0.15535679459571838,
            -0.11635513603687286,
            0.30581793189048767,
            0.137626051902771,
            -0.15550626814365387,
            -0.27845898270606995,
            0.2859748899936676,
            0.04233527183532715,
            -0.20929662883281708,
            0.23902937769889832,
            -0.19370782375335693,
            -0.18562369048595428,
            -0.1606881469488144,
            0.34876319766044617,
            0.03887200355529785,
            -0.1735251545906067,
            0.3191084563732147,
            -0.013512343168258667,
            0.20872971415519714,
            0.04338929057121277,
            0.2734664976596832,
            0.07278013229370117,
            -0.12992596626281738,
            -0.3145497143268585,
            -0.2566463351249695,
            0.329302579164505,
            -0.07785522937774658,
            0.22034206986427307,
            0.1646861732006073,
            -0.1536293476819992,
            0.293162077665329,
            -0.03351038694381714,
            0.08356890082359314,
            0.24542668461799622,
            -0.24943771958351135,
            0.2816160023212433,
            0.3205210864543915,
            -0.31701621413230896,
            -0.029602110385894775,
            -0.242328941822052,
            0.27556654810905457,
            0.1302434504032135,
            -0.07439923286437988,
            -0.23867499828338623,
            0.12545326352119446,
            0.3180260956287384,
            -0.05864676833152771,
            0.09100836515426636,
            -0.0490395724773407,
            -0.20347043871879578,
            -0.21915572881698608,
            -0.12912645936012268,
            0.222863107919693,
            0.004471689462661743,
            -0.09012278914451599,
            0.31977012753486633,
            -0.01977914571762085,
            0.18557539582252502,
            0.18655887246131897,
            -0.20864632725715637,
            -0.3216073513031006,
            0.12616756558418274,
            0.11139670014381409,
            0.11551493406295776,
            0.018040865659713745,
            0.21551236510276794,
            0.04357755184173584,
            -0.014991432428359985,
            0.2520495355129242,
            -0.33957794308662415,
            0.09623298048973083,
            0.17406263947486877,
            0.14421889185905457,
            -0.33171963691711426,
            0.28894105553627014,
            -0.08388122916221619,
            0.33985987305641174,
            -0.12325911223888397,
            -0.34642624855041504,
            -0.06273308396339417,
            0.026823818683624268,
            -0.2120285928249359,
            0.16169384121894836,
            -0.10386645793914795,
            0.14599648118019104,
            -0.28198230266571045,
            -0.13764971494674683,
            -0.22733604907989502,
            0.2571464478969574,
            -0.30464422702789307,
            -0.08242899179458618,
            0.28909245133399963,
            0.17507675290107727,
            -0.3245857059955597,
            0.051054030656814575,
            -0.16043581068515778,
            0.24448004364967346,
            -0.2589218020439148,
            0.17812612652778625,
            0.14297619462013245,
            -0.24494636058807373,
            -0.07919427752494812,
            -0.03651455044746399,
            0.25282594561576843,
            -0.05736052989959717,
            -0.10112690925598145,
            -0.18460866808891296,
            -0.07105404138565063,
            0.1291673481464386,
            -0.177481546998024,
            0.2197662889957428,
            -0.19756221771240234,
            -0.035956770181655884,
            0.027906745672225952,
            0.05212467908859253,
            -0.24351367354393005,
            0.09947776794433594,
            0.2680284082889557
        ],
        [
            -0.1970973014831543,
            0.005160093307495117,
            0.5325616598129272,
            0.2584828734397888,
            -0.1031559407711029,
            0.23266083002090454,
            0.30715829133987427,
            0.5767205953598022,
            0.5571633577346802,
            0.1238783597946167,
            -0.4524436891078949,
            0.2623865008354187,
            -0.22996211051940918,
            -0.269947350025177,
            -0.464775025844574,
            0.3027697205543518
        ]
    ]
}