{
    "biases": [
        [
            0.10000000149011612,
            0.10000000149011612,
            0.10000000149011612,
            0.10000000149011612,
            0.10000000149011612,
            0.10000000149011612,
            0.10000000149011612,
            0.10000000149011612,
            0.10000000149011612,
            0.10000000149011612,
            0.10000000149011612,
            0.10000000149011612,
            0.10000000149011612,
            0.10000000149011612,
            0.10000000149011612,
            0.10000000149011612,
            0.10000000149011612,
            0.10000000149011612,
            0.10000000149011612,
            0.10000000149011612,
            0.10000000149011612,
            0.10000000149011612,
            0.10000000149011612,
            0.10000000149011612,
            0.10000000149011612,
            0.10000000149011612,
            0.10000000149011612,
            0.10000000149011612,
            0.10000000149011612,
            0.10000000149011612,
            0.10000000149011612,
            0.10000000149011612
        ],
        [
            0.10000000149011612,
            0.10000000149011612,
            0.10000000149011612,
            0.10000000149011612,
            0.10000000149011612,
            0.10000000149011612,
            0.10000000149011612,
            0.10000000149011612,
            0.10000000149011612,
            0.10000000149011612,
            0.10000000149011612,
            0.10000000149011612,
            0.10000000149011612,
            0.10000000149011612,
            0.10000000149011612,
            0.10000000149011612
        ],
        [
            0.10000000149011612
        ]
    ],
    "topology": [
        2,
        32,
        16,
        1
    ],
    "weights": [
        [
            0.2955762445926666,
            -0.13513201475143433,
            0.18135276436805725,
            0.16674229502677917,
            0.36690422892570496,
            0.3834027349948883,
            -0.39919552206993103,
            -0.018324851989746094,
            -0.1806136965751648,
            -0.08219823241233826,
            0.03220626711845398,
            -0.049778908491134644,
            0.18065145611763,
            -0.3303704857826233,
            0.418511301279068,
            0.06858417391777039,
            0.2683399021625519,
            0.028412848711013794,
            -0.041087806224823,
            0.017562061548233032,
            0.016582965850830078,
            0.3445955216884613,
            0.38177773356437683,
            0.26368948817253113,
            0.18351730704307556,
            0.41269204020500183,
            0.28668931126594543,
            0.3326702415943146,
            -0.28293275833129883,
            0.323112815618515,
            -0.2545698583126068,
            -0.40744051337242126,
            -0.23210327327251434,
            0.3468669354915619,
            0.17938581109046936,
            -0.28528308868408203,
            0.3101857006549835,
            0.20027437806129456,
            0.11647608876228333,
            -0.2905120551586151,
            -0.3020079433917999,
            -0.27140167355537415,
            0.0797930657863617,
            0.29872748255729675,
            -0.181688129901886,
            0.07822030782699585,
            -0.05277237296104431,
            -0.33343225717544556,
            -0.3134508430957794,
            0.32622382044792175,
            0.10421386361122131,
            0.12321612238883972,
            0.2507353127002716,
            0.06590750813484192,
            -0.03317844867706299,
            0.014168590307235718,
            0.05851554870605469,
            -0.166573166847229,
            -0.07324516773223877,
            0.1956668198108673,
            -0.2635444104671478,
            0.09226903319358826,
            0.2083103358745575,
            -0.07556363940238953
        ],
        [
            0.01603454351425171,
            -0.02725842595100403,
            0.04985561966896057,
            -0.07645869255065918,
            -0.21225585043430328,
            -0.20566850900650024,
            0.03259235620498657,
            -0.11288000643253326,
            -0.08053368330001831,
            -0.25380516052246094,
            -0.21501672267913818,
            0.12010636925697327,
            0.16558042168617249,
            0.09412208199501038,
            0.19303473830223083,
            0.25532564520835876,
            0.015127003192901611,
            -0.07280963659286499,
            0.005474060773849487,
            -0.1274011731147766,
            0.3362131416797638,
            0.331103652715683,
            0.23807689547538757,
            0.03190794587135315,
            -0.16264192759990692,
            -0.17712150514125824,
            -0.15696726739406586,
            -0.030894219875335693,
            0.25408777594566345,
            -0.3352013826370239,
            0.25906291604042053,
            -0.08343103528022766,
            -0.008906453847885132,
            -0.044634848833084106,
            0.19366368651390076,
            0.132391095161438,
            0.10324999690055847,
            -0.12729738652706146,
            -0.3340423107147217,
            -0.33083704113960266,
            -0.027549147605895996,
            -0.19550564885139465,
            0.1428227424621582,
            -0.21552209556102753,
            0.25216981768608093,
            -0.017695963382720947,
            -0.31374984979629517,
            -0.08625656366348267,
            0.2630477249622345,
            0.04527759552001953,
            0.13989567756652832,
            0.24570754170417786,
            0.022827863693237305,
            0.024419158697128296,
            -0.0759378969669342,
            0.21373936533927917,
            0.20085105299949646,
            0.12064820528030396,
            -0.17070826888084412,
            0.10138547420501709,
            0.13900020718574524,
            -0.2651987671852112,
            -0.3355989456176758,
            -0.2234596163034439,
            0.04371976852416992,
            0.2116180956363678,
            0.2624848186969757,
            -0.20658360421657562,
            -0.26923269033432007,
            0.2819959223270416,
            -0.18386726081371307,
            0.056771546602249146,
            -0.26706311106681824,
            0.31250885128974915,
            0.19480285048484802,
            0.3386601507663727,
            -0.0587405264377594,
            0.23460635542869568,
            -0.10114982724189758,
            -0.14924614131450653,
            -0.07366937398910522,
            -0.3148075342178345,
            -0.2570919692516327,
            0.3027118742465973,
            0.06316500902175903,
            0.020523548126220703,
            0.16289779543876648,
            -0.0895373523235321,
            -0.21238164603710175,
            0.34574297070503235,
            -0.3417052626609802,
            0.2801719605922699,
            -0.27300918102264404,
            -0.3237508237361908,
            -0.2968410551548004,
            0.1242639422416687,
            0.2414206564426422,
            0.3191971480846405,
            0.27123376727104187,
            0.32574138045310974,
            0.2476397454738617,
            -0.2661868929862976,
            0.02895951271057129,
            0.33413001894950867,
            -0.30723145604133606,
            -0.1297910064458847,
            0.31923672556877136,
            -0.012418597936630249,
            -0.24873802065849304,
            -0.13546645641326904,
            0.19188866019248962,
            0.031145960092544556,
            -0.0967206060886383,
            0.28835007548332214,
            -0.019695520401000977,
            0.31999775767326355,
            -0.04467979073524475,
            -0.21035106480121613,
            -0.12309296429157257,
            0.09649196267127991,
            -0.21816149353981018,
            -0.11124485731124878,
            0.023110538721084595,
            -0.137617290019989,
            -0.08144232630729675,
            0.079822838306427,
            0.3402000963687897,
            -0.19357503950595856,
            0.04546666145324707,
            0.25788041949272156,
            -0.2213870733976364,
            -0.060446977615356445,
            0.34524694085121155,
            0.16112586855888367,
            -0.07987037301063538,
            -0.3155379295349121,
            -0.32221856713294983,
            -0.11418700218200684,
            0.02559688687324524,
            -0.21740320324897766,
            0.10389989614486694,
            -0.13606786727905273,
            0.16729620099067688,
            -0.34637409448623657,
            -0.2012711763381958,
            -0.2059527188539505,
            0.3271770179271698,
            0.10760241746902466,
            -0.06275039911270142,
            -0.1494692862033844,
            -0.14945900440216064,
            0.07264149188995361,
            0.09283921122550964,
            0.22720494866371155,
            0.2885775864124298,
            -0.34215644001960754,
            -0.04652559757232666,
            0.2752242982387543,
            -0.18217810988426208,
            0.3524944484233856,
            0.17955133318901062,
            -0.05001181364059448,
            -0.06150594353675842,
            0.17124482989311218,
            -0.2424393594264984,
            0.2121770679950714,
            0.20926031470298767,
            -0.21110452711582184,
            -0.25556331872940063,
            -0.11869621276855469,
            -0.0749543309211731,
            0.2018900215625763,
            0.09878930449485779,
            -0.2612115442752838,
            0.20906934142112732,
            0.2510714828968048,
            -0.1136108934879303,
            0.1826929748058319,
            0.0051205456256866455,
            0.1771920621395111,
            -0.3203296959400177,
            0.2092149555683136,
            -0.1037198156118393,
            0.12606289982795715,
            0.08286648988723755,
            -0.1686955988407135,
            0.13745984435081482,
            -0.3172125220298767,
            -0.24702472984790802,
            0.30883511900901794,
            -0.3182714581489563,
            0.2860799729824066,
            -0.09473004937171936,
            -0.026223987340927124,
            0.10377144813537598,
            0.01638394594192505,
            -0.16760031878948212,
            -0.04052165150642395,
            0.15883281826972961,
            -0.06961023807525635,
            0.19433555006980896,
            -0.2696748971939087,
            -0.22127361595630646,
            -0.06042855978012085,
            -0.1773330569267273,
            0.3413490355014801,
            -0.16291041672229767,
            0.06260943412780762,
            0.17048868536949158,
            0.195763498544693,
            -0.1137518584728241,
            0.2037123739719391,
            0.05142509937286377,
            0.136081725358963,
            -0.02377811074256897,
            -0.21926182508468628,
            0.3209395110607147,
            -0.23987165093421936,
            -0.18292094767093658,
            -0.2796386182308197,
            -0.28458988666534424,
            -0.14763902127742767,
            -0.3471120297908783,
            -0.02576655149459839,
            0.1796903908252716,
            0.11021283268928528,
            0.34417077898979187,
            -0.3414633274078369,
            -0.2838622033596039,
            0.14945021271705627,
            -0.05752018094062805,
            0.2640266716480255,
            0.23332872986793518,
            0.0747595727443695,
            -0.14995521306991577,
            -0.2975577116012573,
            0.06255528330802917,
            0.04068771004676819,
            0.1186051070690155,
            -0.12050944566726685,
            -0.11710210144519806,
            -0.3487001061439514,
            -0.27035048604011536,
            0.28787633776664734,
            0.1409350037574768,
            0.059424787759780884,
            -0.28493887186050415,
            0.1083211600780487,
            0.17310652136802673,
            -0.11430642008781433,
            0.18223592638969421,
            0.2420700490474701,
            0.0916079580783844,
            0.18867728114128113,
            -0.1372499316930771,
            -0.08225506544113159,
            -0.05466330051422119,
            -0.14663250744342804,
            -0.0701650083065033,
            0.015027880668640137,
            -0.3507356643676758,
            0.22586819529533386,
            -0.07449880242347717,
            0.236146479845047,
            -0.05292558670043945,
            0.12909936904907227,
            0.2921421229839325,
            -0.3439237177371979,
            -0.18376627564430237,
            0.057193905115127563,
            -0.11087977886199951,
            0.05268499255180359,
            0.06204715371131897,
            -0.027676880359649658,
            -0.012992054224014282,
            -0.15057119727134705,
            -0.321805477142334,
            0.05562245845794678,
            0.31130334734916687,
            0.20485445857048035,
            0.29486939311027527,
            0.1399858593940735,
            0.09337106347084045,
            0.03292402625083923,
            -0.024890273809432983,
            0.30967453122138977,
            0.30422231554985046,
            0.2739998400211334,
            -0.19051134586334229,
            -0.11949607729911804,
            -0.06452569365501404,
            -0.18769362568855286,
            -0.2471812516450882,
            0.21452894806861877,
            -0.30510056018829346,
            0.05344653129577637,
            -0.009925127029418945,
            0.34059497714042664,
            0.06307622790336609,
            0.15986201167106628,
            0.0442354679107666,
            0.3057498633861542,
            -0.14100639522075653,
            -0.24727073311805725,
            -0.07548043131828308,
            0.1995549499988556,
            -0.04428854584693909,
            -0.043732523918151855,
            -0.09837597608566284,
            -0.08653861284255981,
            -0.1924314796924591,
            -0.157059907913208,
            -0.30010613799095154,
            0.25449296832084656,
            0.22941747307777405,
            0.02855697274208069,
            0.2106141746044159,
            0.1800864040851593,
            -0.05099654197692871,
            -0.3334505558013916,
            -0.29296302795410156,
            0.23803117871284485,
            -0.16759081184864044,
            -0.18659089505672455,
            0.09900665283203125,
            -0.1191379725933075,
            0.22040900588035583,
            -0.2644718289375305,
            -0.13209635019302368,
            -0.07006815075874329,
            0.2489435374736786,
            0.26569250226020813,
            -0.1178717166185379,
            -0.24561621248722076,
            -0.33513161540031433,
            0.1602012813091278,
            0.30749210715293884,
            -0.025866776704788208,
            -0.23708467185497284,
            -0.14443722367286682,
            0.24114802479743958,
            -0.07596275210380554,
            0.05205625295639038,
            0.29459527134895325,
            -0.175023153424263,
            -0.07207965850830078,
            -0.030401110649108887,
            -0.3179623782634735,
            -0.2455466389656067,
            0.2721557319164276,
            -0.2978595495223999,
            -0.18495628237724304,
            0.15663346648216248,
            -0.11189697682857513,
            -0.017993807792663574,
            -0.0979132354259491,
            0.12251845002174377,
            -0.15113815665245056,
            -0.008831650018692017,
            0.3439754545688629,
            0.13234707713127136,
            -0.11344148218631744,
            0.25611457228660583,
            -0.33907800912857056,
            -0.005504310131072998,
            0.2745364010334015,
            0.17467662692070007,
            -0.051565587520599365,
            -0.10488376021385193,
            0.29114535450935364,
            0.15755054354667664,
            -0.21728913486003876,
            -0.1383707970380783,
            -0.143946573138237,
            -0.2762472331523895,
            0.04015946388244629,
            0.13752713799476624,
            0.04690501093864441,
            0.0757504403591156,
            0.24553385376930237,
            -0.034492671489715576,
            0.1314443051815033,
            -0.2929757833480835,
            -0.23141255974769592,
            -0.33400607109069824,
            0.04258382320404053,
            0.024227559566497803,
            0.14206576347351074,
            0.2449990212917328,
            -0.3381574749946594,
            0.13248786330223083,
            0.023792743682861328,
            -0.09804558753967285,
            0.03504905104637146,
            0.03826814889907837,
            0.25000348687171936,
            -0.04396793246269226,
            -0.14060860872268677,
            -0.15511548519134521,
            0.20470169186592102,
            -0.20301665365695953,
            -0.3511183261871338,
            0.34096595644950867,
            0.012165933847427368,
            -0.14151151478290558,
            -0.28883469104766846,
            -0.30122801661491394,
            0.3495689928531647,
            0.11162370443344116,
            0.12807580828666687,
            0.2415495216846466,
            -0.27642232179641724,
            -0.09403327107429504,
            0.30212709307670593,
            -0.15428151190280914,
            -0.07448598742485046,
            -0.008842438459396362,
            0.22349944710731506,
            -0.28597357869148254,
            -0.11739680171012878,
            0.23889532685279846,
            0.2000676691532135,
            0.25994929671287537,
            -0.2127036303281784,
            -0.11843664944171906,
            -0.05533590912818909,
            -0.31625354290008545,
            0.1911487877368927,
            0.15760883688926697,
            -0.11781562864780426,
            0.04229709506034851,
            0.3081456124782562,
            -0.11538058519363403,
            0.02970963716506958,
            -0.033241868019104004,
            0.09666129946708679,
            0.09442833065986633,
            0.019083499908447266,
            0.09267690777778625,
            -0.14750134944915771,
            -0.20639407634735107,
            -0.01932695508003235,
            -0.07037028670310974,
            0.053126007318496704,
            -0.07075321674346924,
            0.12890157103538513,
            0.3321934640407562,
            0.2739576995372772,
            -0.0011523663997650146,
            -0.3073335289955139,
            -0.19699247181415558,
            -0.11581040918827057,
            0.2462874948978424,
            -0.29059651494026184,
            0.025039345026016235,
            -0.22570252418518066,
            0.007620960474014282,
            0.06233924627304077,
            0.31899967789649963,
            -0.18832355737686157,
            0.29807695746421814,
            0.007743358612060547,
            -0.23373135924339294,
            -0.17085698246955872,
            -0.3161003887653351,
            0.08658015727996826,
            0.2793577015399933,
            0.13188132643699646,
            -0.24788972735404968,
            0.01848122477531433,
            0.33793333172798157,
            -0.10073041915893555,
            0.3527076542377472,
            -0.08599033951759338,
            0.30594900250434875,
            -0.07159894704818726,
            -0.31064215302467346,
            0.284589022397995,
            -0.15119463205337524,
            0.041758835315704346,
            0.3308089077472687,
            0.005366265773773193,
            0.2795018255710602,
            0.22354301810264587,
            0.06832316517829895,
            -0.049012184143066406,
            0.3513939082622528,
            -0.277609258890152,
            -0.34022635221481323,
            0.31684020161628723,
            -0.11237943172454834,
            0.3114040195941925,
            -0.02896985411643982,
            0.007442593574523926,
            -0.2130063772201538,
            0.00848311185836792,
            -0.25953060388565063,
            -0.28720206022262573,
            -0.21318894624710083,
            -0.1538669466972351,
            0.08483254909515381,
            -0.22880899906158447,
            0.09895604848861694,
            0.08398681879043579,
            0.03875407576560974,
            0.0513516366481781,
            -0.3411655128002167,
            0.0816652774810791,
            -0.017612695693969727,
            -0.1388067901134491,
            -0.23012924194335938,
            -0.04035717248916626
        ],
        [
            0.3698636293411255,
            -0.5111259818077087,
            -0.2862747311592102,
            -0.10941901803016663,
            0.0006055831909179688,
            -0.2899033725261688,
            0.018192589282989502,
            0.02299952507019043,
            -0.35159391164779663,
            0.4234459400177002,
            -0.047825634479522705,
            0.19381552934646606,
            -0.1581365466117859,
            0.18834060430526733,
            -0.3860185146331787,
            -0.00014668703079223633
        ]
    ]
}